tree
version=v3
num_class=1
num_tree_per_iteration=1
label_index=0
max_feature_idx=11
objective=binary sigmoid:1
feature_names=adp_dist post_skeletal_distance_to_soma pre_skeletal_distance_to_soma fw_similarity me_similarity post_nucleus_x pre_oracle pre_test_score post_oracle post_test_score nuclues_dist compartment
feature_infos=[6.03165:4998.8999999999996] [0:1630400] [0:2329630] [-0.17523579361429603:0.62789165298547855] [-0.45127373625387102:0.99106548183094345] [477312:1451840] [0.61800699999999997:0.95232499999999998] [0.38578000000000001:0.87998600000000005] [0.60007900000000003:0.97772899999999996] [0.35020000000000001:0.88849800000000001] [-0.67001864676510847:6.877537726784654] -1:4:3:5:0:2:1
tree_sizes=7964 9035 8924 8974 8625 8816 9105 9068 9118

Tree=0
num_leaves=76
num_cat=0
split_feature=0 10 0 0 0 7 2 7 6 7 2 2 8 10 3 5 5 9 0 7 6 6 4 2 0 8 4 2 9 7 10 6 0 9 3 10 7 0 4 2 4 10 3 0 5 6 5 5 5 10 3 5 10 2 5 8 10 4 4 0 3 2 10 4 10 8 10 7 5 5 2 2 5 6 0
split_gain=500.349 41.419 26.2858 25.3525 19.9726 19.9121 11.1286 7.4667 12.0054 9.60746 9.60746 8.83245 8.64448 7.73895 7.59852 7.32666 9.90576 8.68598 6.17647 5.80313 5.71457 5.98403 9.87602 6.46923 6.03077 5.97231 5.22993 5.02857 4.83366 6.02575 9.8434 7.12557 7.53266 4.75769 4.60338 5.61332 4.55481 4.39384 6.4 4.22841 4.21239 4.21074 4.15663 5.95964 5.25953 3.62799 3.49502 3.32315 3.58663 3.21219 3.03065 2.87646 2.66776 2.59213 3.93342 2.4381 2.38696 2.20909 2.0964 1.62058 2.94628 3.542 1.59489 1.59307 1.54444 1.53382 1.51724 1.4658 1.09091 0.962791 0.6482 0.437717 0.316742 0.178723 2.84217e-14
threshold=2395.9950000000003 -0.053326926546838342 3232.7500000000005 1690.365 1042.9900000000002 0.74705100000000013 625186.00000000012 0.68545700000000009 0.83916850000000009 0.61312100000000014 786878.00000000012 349307.50000000006 0.84950800000000004 -0.46469607848433564 0.22605086280350206 974880.00000000012 704864.00000000012 0.43239300000000008 1357.2950000000003 0.67910900000000007 0.82185250000000021 0.78268700000000002 0.85866978606008681 594891.00000000012 717.66450000000009 0.68031400000000009 0.61038535511882197 628437.00000000012 0.45345550000000007 0.62455250000000018 0.3804634534406644 0.80037200000000019 1640.7900000000002 0.55095950000000016 0.094380525348812097 0.36215184906399034 0.5152405000000001 1622.7100000000003 0.39324837662295459 567315.00000000012 0.66721098717752803 -0.55653276160056908 0.18048589331540665 760.0870000000001 831360.00000000012 0.76449350000000005 1240768.0000000002 1094976.0000000002 974880.00000000012 -0.46120540975506241 0.14732609027965918 1303968.0000000002 0.94222558696792313 673043.00000000012 755584.00000000012 0.77289800000000008 0.51325827662906021 0.43267198951074831 0.80899468797194818 4086.9050000000002 0.20606057280241566 765609.00000000012 -0.48367331158853855 0.47435913695010251 -0.39999253103657767 0.74454450000000005 -0.37642798550163303 0.50104100000000007 782528.00000000012 733792.00000000012 423446.00000000006 407547.50000000006 1252128.0000000002 0.9111760000000001 4878.3650000000007
decision_type=2 2 2 2 2 2 2 2 2 2 2 2 2 2 2 2 2 2 2 2 2 2 2 2 2 2 2 2 2 2 2 2 2 2 2 2 2 2 2 2 2 2 2 2 2 2 2 2 2 2 2 2 2 2 2 2 2 2 2 2 2 2 2 2 2 2 2 2 2 2 2 2 2 2 2
left_child=1 3 19 5 46 7 37 8 11 12 50 -1 13 14 41 16 -5 -17 49 34 21 22 25 -23 -25 -13 -19 -21 56 31 -31 45 -33 -28 67 51 -15 69 -39 -27 -18 -10 43 62 -45 -30 47 48 53 65 -9 64 55 68 -55 -48 -8 -41 -12 60 71 -62 -7 -56 -36 -11 -44 -2 -3 -6 -61 -4 -73 74 -72
right_child=2 4 59 15 6 42 28 10 9 18 58 20 -14 36 -16 17 40 26 -20 27 -22 23 -24 24 -26 39 33 -29 29 30 -32 32 -34 -35 35 -37 -38 38 -40 57 -42 -43 66 44 -46 -47 52 -49 -50 -51 -52 -53 -54 54 63 -57 -58 -59 -60 70 61 -63 -64 -65 -66 -67 -68 -69 -70 -71 73 72 -74 -75 -76
leaf_value=-0.00017649276845733508 -0.00028558370355754985 0.0029144170593820846 -0.00068558379892500333 9.9601573462962064e-05 0.0023144169163309028 0.0019620358799357649 0.002274416906794158 -0.00038993155452297218 0.0013144166779122674 0.0023926778045549697 0.0019144168209634495 0.0015810834081572364 0.00041441646333549521 0.0025041605513129003 0.0021144168686471764 0.0013491992949007416 0.0023144169163309036 -0.00062844092815822451 0.0011144166302285404 -0.00028558370355754985 0.00045287801096698121 0.0027144170116983565 0.0019447198584912869 0.00051441648717735875 0.0019144168209634491 0.0011144166302285404 -0.00025225036227692892 0.00097155945331159235 0.00083441656347132227 0.0024858455286312412 0.00084990043813070761 -0.00056384463946534469 0.0011144166302285404 0.00099441660161830414 -0.00018235787249498106 0.00077155940562786518 0.0015026520169087168 0.0025144169640146309 0.0009144165825448132 0.0004144164633354951 0.0011213131835969448 0.00032618114818090986 0.0022477502337696614 0.0021144168686471764 0.00077155940562786518 0.0019620358799357649 0.0026287027055481886 0.0029144170593820851 0.0016730374530692957 0.0028033059217800142 0.00060672420149292521 0.00029903182044103721 0.0014950618822717632 0.0015810834081572368 0.0029144170593820855 0.0017144167732797218 0.0014699722705551665 -0.00048558375124127713 0.0010096547004894451 -0.00068558379892500441 -3.2952064378104782e-05 -0.00095225052916997376 0.0027325988342150596 0.0021525121158250289 -0.00081891716404748768 0.0016836475351745331 0.0029144170593820851 -0.00096793680741967807 0.0023689623838810108 0.0029144170593820846 -0.0010855838942924584 -0.001085583894292458 -0.00085028972054689738 -0.00088558384660873148 -0.0010855838942924584
leaf_weight=5.4999986886978141 4.9999988079071036 10.999997377395632 4.9999988079071072 6.7499983906745937 4.9999988079071063 5.2499987483024597 6.2499985098838797 5.7499986290931719 8.7499979138374346 5.7499986290931737 4.9999988079071027 5.2499987483024659 7.9999980926513663 9.7499976754188555 6.2499985098838797 5.7499986290931728 4.9999988079071027 8.7499979138374346 4.9999988079071036 4.9999988079071036 9.749997675418852 4.9999988079071072 8.2499980330467206 4.9999988079071027 7.9999980926513672 4.9999988079071036 5.9999985694885236 8.7499979138374311 6.2499985098838824 6.9999983310699445 7.749998152256012 5.7499986290931684 4.9999988079071045 6.2499985098838806 7.749998152256012 6.9999983310699454 8.4999979734420759 4.9999988079071027 4.9999988079071045 5.9999985694885236 7.2499982714653015 8.4999979734420794 8.9999978542327863 4.9999988079071027 6.9999983310699463 5.2499987483024597 6.9999983310699481 11.749997198581694 7.2499982714653006 8.9999978542327881 6.4999984502792358 6.499998450279235 7.7499981522560111 6.7499983906745937 5.7499986290931684 4.9999988079071045 8.9999978542327863 4.9999988079071045 5.2499987483024597 4.9999988079071036 9.4999977350235003 7.4999982118606559 5.4999986886978167 5.2499987483024597 7.4999982118606621 6.4999984502792358 5.4999986886978141 8.4999979734420759 5.4999986886978141 5.7499986290931702 36.999991178512573 17.499995827674869 8.4999979734420759 4.9999988079071036 4.9999988079071036
leaf_count=22 20 44 20 27 20 21 25 23 35 23 20 21 32 39 25 23 20 35 20 20 39 20 33 20 32 20 24 35 25 28 31 23 20 25 31 28 34 20 20 24 29 34 36 20 28 21 28 47 29 36 26 26 31 27 23 20 36 20 21 20 38 30 22 21 30 26 22 34 22 23 148 70 34 20 20
internal_value=0.000915332 0.00152044 -0.000598404 0.00126856 0.00194181 0.00142323 0.00157195 0.00127101 0.00135766 0.00162494 0.000736639 0.00103394 0.00136668 0.00154915 0.00116974 0.000597477 0.00107231 0.000260211 0.00211442 -4.98694e-05 0.00115022 0.00129336 0.00101611 0.00174775 0.00137596 0.000655593 -3.79646e-05 0.000514416 0.0013259 0.00113063 0.00162628 0.000802057 0.000216742 0.000383804 -0.000233513 -7.32277e-06 0.0020377 0.00219153 0.00171442 0.000351916 0.00160829 0.00082746 0.0020822 0.00181552 0.00133108 0.0013492 0.00231168 0.00244493 0.00231201 0.00234971 0.000138906 -0.000257997 0.00195239 0.00244726 0.00218202 0.00224775 0.00179966 5.32546e-06 0.001451 -0.000905584 -0.000773084 -0.000438525 0.00235628 0.00255078 -0.00049542 0.00201646 0.00250062 -0.000715213 0.0027326 0.00263535 -0.00102789 -0.000956552 -0.00100866 -0.00106431 -0.00108558
internal_weight=0 390.25 156 244.25 146 198.5 73 161.25 138.75 76 22.5 62.75 49.75 41.75 23.5 45.75 19 26.75 26.25 56 57.25 47.5 29.5 18 13 21.25 21 13.75 52.25 37 14.75 22.25 10.75 12.25 42.25 28.75 18.25 20.75 10 16 12.25 17.25 37.25 22.75 12 11.5 73 53.25 41.5 21.25 12.25 21.75 19.75 34.25 17.75 12 15.25 11 10.25 100 48 17 10.75 11 15.25 12.25 14.5 13.5 16.5 10.75 52 31 26 47 42
internal_count=2185 1561 624 977 584 794 292 645 555 304 90 251 199 167 94 183 76 107 105 224 229 190 118 72 52 85 84 55 209 148 59 89 43 49 169 115 73 83 40 64 49 69 149 91 48 46 292 213 166 85 49 87 79 137 71 48 61 44 41 400 192 68 43 44 61 49 58 54 66 43 208 124 104 188 168
is_linear=0
shrinkage=1


Tree=1
num_leaves=85
num_cat=1
split_feature=11 1 10 1 5 5 7 2 2 7 5 5 1 3 1 2 10 1 10 5 3 5 1 1 3 8 9 7 3 1 5 1 3 1 1 6 1 3 2 10 2 3 3 9 5 1 10 10 7 8 5 3 3 6 3 3 8 2 3 6 1 5 2 8 3 9 1 7 8 3 5 8 2 2 3 6 1 10 6 6 9 3 8 8
split_gain=222.093 45.2389 30.228 13.8524 13.8353 18.5154 13.6709 9.82411 9.42352 10.0722 8.0441 10.7196 7.43581 7.51247 7.21691 7.14916 6.4712 6.44772 6.32859 6.31596 5.50178 9.02384 6.74513 5.29555 14.8392 5.2928 7.98798 5.25926 7.97087 5.1873 5.17631 6.95983 4.68574 4.62107 6.28728 5.81611 4.56584 4.34122 5.57882 4.15405 4.13722 4.02986 5.11713 5.41734 6.07698 3.90339 3.89245 7.17365 3.7593 3.59475 3.54759 6.08188 3.52207 3.50921 3.46285 3.42057 2.91123 2.89229 2.85884 2.76389 5.16829 2.50036 2.28036 4.54757 6.62397 2.22754 1.75284 1.73614 1.696 1.6362 2.18545 1.67356 3.46985 2.30672 1.33468 0.659557 0.528846 0.408554 2.41021e-06 1.94886e-06 1.31156e-06 1.12138e-06 5.55311e-07 1.72115e-06
threshold=0 15575.600000000002 -0.053326926546838342 94028.450000000026 1144544.0000000002 878752.00000000012 0.61312100000000014 1613690.0000000002 1756210.0000000002 0.50104100000000007 978592.00000000012 1076512.0000000002 140659.50000000003 0.074542745465116481 85699.800000000003 563340.00000000012 -0.59189081565876378 26095.300000000007 -0.60634007389339051 1346144.0000000002 0.13642295948702551 708352.00000000012 59416.850000000006 71657.050000000003 0.15694974544047183 0.86661100000000013 0.62476650000000011 0.61864950000000019 0.022469040807987496 80138.85000000002 1334240.0000000002 106127.00000000001 0.068376535427174534 60436.500000000007 104013.50000000001 0.87047050000000004 90583.10000000002 0.068376535427174534 756694.00000000012 -0.053326926546838342 631766.50000000012 0.10651968641017628 0.14246353896820727 0.71739100000000011 1307488.0000000002 55564.650000000001 -0.5130907947473401 -0.3727211998142303 0.74794850000000013 0.74167300000000014 1322560.0000000002 0.07740854053345006 0.23967498156027953 0.89492550000000015 0.22170361408923858 0.23753164374086991 0.79203500000000016 442740.50000000006 0.29448691976069857 0.87047050000000004 57997.150000000009 1328960.0000000002 450578.50000000006 0.80604900000000013 0.17218505277788457 0.49157250000000008 42121.100000000006 0.62455250000000018 0.7596940000000002 -0.0028003434136089954 1312032.0000000002 0.75540250000000009 879748.50000000012 922710.00000000012 0.15813791920178583 0.9111760000000001 53083.150000000009 -0.53342180171930831 0.81543300000000019 0.84703850000000014 0.54065950000000007 0.13977098005045882 0.79203500000000016 0.73445950000000015
decision_type=9 2 2 2 2 2 2 2 2 2 2 2 2 2 2 2 2 2 2 2 2 2 2 2 2 2 2 2 2 2 2 2 2 2 2 2 2 2 2 2 2 2 2 2 2 2 2 2 2 2 2 2 2 2 2 2 2 2 2 2 2 2 2 2 2 2 2 2 2 2 2 2 2 2 2 2 2 2 2 2 2 2 2 2
left_child=75 39 4 7 5 6 12 17 9 23 32 -12 13 15 76 -3 18 -4 30 37 22 48 -8 24 -6 26 33 28 -19 40 31 65 -5 35 -35 -15 55 38 -18 77 57 -39 -43 44 45 -44 -21 -48 -22 -24 51 -13 59 -16 -47 -23 -53 -30 -56 60 66 -46 -34 64 -64 -11 -42 -49 -31 -29 71 73 -73 -71 -25 78 -7 -2 82 81 -81 -80 83 -1
right_child=1 2 3 10 8 14 20 -9 -10 16 11 50 -14 25 53 -17 19 27 -20 46 21 36 49 74 -26 -27 -28 69 29 68 -32 -33 62 34 -36 -37 -38 41 -40 -41 52 42 43 -45 61 54 47 67 -50 -51 -52 56 -54 -55 58 -57 -58 -59 -60 -61 -62 -63 63 -65 -66 -67 -68 -69 -70 70 -72 72 -74 -75 -76 -77 -78 -79 79 80 -82 -83 -84 -85
leaf_value=-0.0019996066901251447 -0.0020001253968460354 -0.0012728581612762939 0.00010962424483805214 -1.0232735424229292e-06 -0.0013848883976038187 0.0014270081773749975 -0.00078331501949192319 -0.00026741729668543332 0.00088791034519196269 -0.00078325710906595786 -0.0012307455599565198 -0.0010004278334940346 -0.0012726679567336187 0.00033237971312874621 -6.876492386279702e-07 -4.1638881283150007e-07 -0.0011725217685485095 -0.00040040573141519566 -0.0012263281673697863 0.0012717933891529115 0.00072630709101147953 9.4320044403333879e-05 -9.5933242033346535e-05 -0.00079995624898795026 0.00071340734747411241 -0.00066707473173769315 0.0014533650674470662 0.0018075599583600296 0.00078073322804271723 0.0018439727807022408 -0.0010479663005916772 0.0010463904004990989 0.0012709323827067973 0.00097330440479008234 -0.00036385395218047441 -0.0010912876647519271 -0.00047707707760894213 0.00075767091791228969 6.8036900482266969e-05 -0.00072799849659640852 0.0001805489414298705 -0.00080055665358507724 0.00085577432615151845 0.0010463605607902802 -0.0012005152382094124 -0.00057178218464618935 -0.00060941301980658416 0.0011990959568535132 0.0017756920669070621 0.0009987134413043889 0.00070143366894562882 0.00066510488354784591 0.0012708100935347232 0.0010331870655371433 0.00085604197899636714 0.0012358438018016532 -0.00026181386161410917 0.0018073402127110122 -0.00020051270156327868 0.00089528264901438646 -0.0006093137966067556 -0.00020044312674810622 0.00019924325482233821 -8.8115888780629787e-05 0.0018075043629873799 7.9183741688279645e-05 0.00099863659636287511 0.0004275731083433949 0.0010894605640166934 0.001998160639890314 0.00059817510474655501 0.00066515898537053485 0.0016646074619180926 0.0011286490534956441 -0.0014669607645791261 -0.0016364212553513064 0.0018315949465765818 -0.001600712501078174 -0.0020002201878488246 -0.0019997390753542857 -0.0020002945942972014 -0.002000759258769946 -0.0019996087028971358 -0.0020003365775802004
leaf_weight=6.999998018145563 5.2499988824129096 8.2499979138374346 8.9999917298555356 8.9999923557043058 6.4999979734420794 6.9999937564134616 5.7499962449073818 7.4999961853027335 8.9999942034482938 5.7499974668026059 6.499997377395629 4.9999965578317704 5.4999988228082648 5.9999966919422167 5.9999966323375684 9.4999959915876371 7.2499975562095624 4.9999973624944678 7.7499969005584708 5.4999972730875042 5.4999964535236385 5.2499963790178281 5.2499970197677595 4.9999987781047803 6.9999957680702209 5.9999987781047812 5.4999960362911215 5.2499934136867514 5.7499926686286909 6.4999907016754133 5.2499985396862021 5.2499967366456977 8.2499905675649661 9.7499950230121595 5.499998375773429 5.4999983459711075 5.2499966025352469 7.2499956190586081 7.2499961704015732 5.4999961405992499 5.4999962896108716 7.4999967068433753 6.9999946355819729 5.2499964684247962 4.9999984204769117 6.9999970793724087 5.7499969452619597 4.9999976456165278 8.9999883621931058 6.9999948143959045 9.2499935328960401 8.2499907761812192 5.4999936968088141 7.2499939650297165 5.2499969899654371 5.2499926388263702 5.7499961704015723 5.2499922513961792 4.9999971687793732 7.2499937564134589 5.749996989965438 4.9999978691339493 4.9999971240758878 5.7499959617853156 5.2499934583902359 6.2499965280294418 4.9999962151050568 6.9999964088201523 5.4999942481517792 6.4999928027391487 4.9999947994947425 8.249990835785864 5.9999926537275305 5.749993160367012 7.4999969899654388 5.4999985694885245 5.9999946057796478 4.9999981224536887 7.2499977052211753 8.4999982416629809 8.4999973028898221 8.249996140599249 7.99999876320362 5.9999984800815582
leaf_count=28 21 33 36 36 26 28 23 30 36 23 26 20 22 24 24 38 29 20 31 22 22 21 21 20 28 24 22 21 23 26 21 21 33 39 22 22 21 29 29 22 22 30 28 21 20 28 23 20 36 28 37 33 22 29 21 21 23 21 20 29 23 20 20 23 21 25 20 28 22 26 20 33 24 23 30 22 24 20 29 34 34 33 32 24
internal_value=0 0.000233292 0.000293771 0.000618535 9.63649e-05 0.000329927 0.000149476 0.000837469 -0.000105634 -0.000165951 0.000263572 -7.28646e-05 -0.000163137 -5.41655e-05 0.00108438 -0.000591833 -4.57448e-05 0.000918118 -0.00044698 8.61832e-05 0.000547936 0.000808417 0.000110182 -0.00073115 -0.000296883 0.00019534 0.00035579 0.000995733 0.000805552 0.00092151 -0.000178538 8.60706e-05 0.000615186 0.00013012 0.000491051 -0.000348505 0.000284362 -6.61873e-05 -0.000552242 -0.00142909 0.000748516 6.3726e-05 -4.33187e-05 0.000100461 -4.45312e-05 0.000225963 0.000536741 0.000308978 0.00137765 0.000529579 0.000193551 -5.37082e-05 0.000550445 0.000565017 -2.96127e-05 0.000665082 0.000284406 0.0012707 0.000340649 0.000381849 0.000152778 -0.000700479 0.000843882 0.000623684 0.00102299 -0.000334069 0.000570114 0.000749041 0.00149815 0.00129071 0.00120457 0.00131898 0.00108598 0.00159002 -0.00120016 -0.00168123 0.00161374 -0.00180529 -0.00200008 -0.00200025 -0.00200002 -0.00200051 -0.00199982 -0.00199994
internal_weight=0 487.25 471.5 178.25 293.25 136 109.75 110.25 157.25 148.25 67.9999 34.75 61.5 56 26.25 17.75 122.25 102.75 30.25 92 48.25 30.25 18 26 13.5 38.25 32.25 93.7499 56.9999 51.9999 22.5 17.25 33.25 26.75 15.25 11.5 15.75 68.75 14.5 15.75 40 54.25 47 39.5 34.25 24.25 23.25 17.75 14.5 12.25 28.25 19 29 13.25 17.25 10.5 14 11 10.25 23.5 16.25 10 24.25 16 10.25 12 10.5 12 12 36.75 31.5 26.5 14.25 12.25 12.5 59 13 10.25 53.5 32.5 17 15.5 21 13
internal_count=2185 1949 1886 713 1173 544 439 441 629 593 272 139 246 224 105 71 489 411 121 368 193 121 72 104 54 153 129 375 228 208 90 69 133 107 61 46 63 275 58 63 160 217 188 158 137 97 93 71 58 49 113 76 116 53 69 42 56 44 41 94 65 40 97 64 41 48 42 48 48 147 126 106 57 49 50 236 52 41 214 130 68 62 84 52
cat_boundaries=0 1
cat_threshold=8
is_linear=0
shrinkage=0.001


Tree=2
num_leaves=84
num_cat=1
split_feature=0 11 10 0 7 0 0 5 2 2 4 10 2 0 7 5 8 7 0 0 5 4 2 0 4 2 2 7 3 2 5 3 10 3 2 3 2 10 2 0 3 0 5 10 2 4 0 5 0 3 10 3 6 0 3 2 10 10 3 7 2 3 8 10 2 2 10 5 2 5 8 8 5 6 4 0 3 10 0 4 0 6 4
split_gain=499.034 172.74 27.5863 26.2217 22.203 13.8858 12.9665 10.1079 11.1547 8.45205 6.77775 8.81212 6.42873 6.23685 7.83183 5.85189 6.52871 5.78281 5.77264 6.43248 5.76067 5.88993 5.48387 5.36377 5.31974 6.41775 5.11489 5.05327 5.3045 5.01346 4.89823 4.58872 5.59472 3.94377 3.66224 3.4714 3.4258 3.65558 4.0089 3.30789 3.25926 3.22602 3.12029 5.76381 4.24516 2.96098 3.79715 2.87154 2.54801 2.34502 4.31313 2.12055 1.95993 1.61621 2.94013 3.53165 1.57325 1.5413 1.46479 1.46258 1.20636 1.26977 0.955069 0.866236 0.818379 0.645451 0.590564 0.514695 0.436193 0.315573 0.178145 3.64154e-06 3.60269e-06 1.79166e-06 1.6402e-06 1.46543e-06 1.296e-06 1.20764e-06 1.55653e-06 1.18197e-06 1.0836e-06 7.68425e-07 4.95524e-07
threshold=2395.9950000000003 0 -0.053326926546838342 3232.7500000000005 0.74705100000000013 2019.1400000000001 1042.9900000000002 1144544.0000000002 470462.00000000006 625186.00000000012 0.73359768174921147 -0.51623649453625642 879748.50000000012 1253.7950000000003 0.70387600000000006 1378560.0000000002 0.84950800000000004 0.67910900000000007 494.73300000000006 1318.4650000000004 878752.00000000012 0.44885602524939849 1096375.0000000002 1608.5800000000002 0.63801340988313859 807059.50000000012 291192.00000000006 0.59256600000000015 0.17218505277788457 628437.00000000012 1196512.0000000002 0.094380525348812097 0.36215184906399034 0.069408519801185536 990635.50000000012 0.16931625161720032 376710.50000000006 1.9732641071227288 1004345.0000000001 494.73300000000006 0.31803047086232539 760.0870000000001 1105280.0000000002 1.102228579506491 823243.00000000012 0.42838005559582831 1516.6250000000002 1303968.0000000002 1030.97 0.17530509001438668 0.15156949040871531 0.1123911512570732 0.82185250000000021 4086.9050000000002 0.20606057280241566 765609.00000000012 0.1295243378806521 -0.39999253103657767 0.13803220934824501 0.50104100000000007 686639.50000000012 0.19533208652861769 0.73130600000000012 0.67696320084766182 610424.00000000012 423446.00000000006 0.15156949040871531 1302240.0000000002 407547.50000000006 1252128.0000000002 0.86126500000000006 0.77618250000000011 725056.00000000012 0.80694500000000013 0.87526957669873273 1177.4500000000003 0.1336891856594016 -0.28834305616342776 4276.9800000000005 0.63801340988313859 4586.6550000000007 0.83764050000000012 0.39324837662295459
decision_type=2 9 2 2 2 2 2 2 2 2 2 2 2 2 2 2 2 2 2 2 2 2 2 2 2 2 2 2 2 2 2 2 2 2 2 2 2 2 2 2 2 2 2 2 2 2 2 2 2 2 2 2 2 2 2 2 2 2 2 2 2 2 2 2 2 2 2 2 2 2 2 2 2 2 2 2 2 2 2 2 2 2 2
left_child=1 66 4 17 5 7 36 8 26 45 11 12 -9 22 42 16 18 31 -13 34 21 -10 -11 35 -23 51 -3 28 -7 -19 -12 59 47 -32 -20 41 82 38 49 -35 60 -6 44 -44 -15 -8 -47 57 -28 50 -38 -26 -52 54 68 -56 -51 -33 -22 -2 -41 -62 -37 71 -53 -55 73 -39 -5 76 72 -40 -67 -1 77 -75 79 81 -79 -70 -80 -74 -4
right_child=3 2 6 53 23 27 9 10 20 13 30 15 -14 14 -16 -17 -18 29 19 -21 58 24 -24 -25 25 -27 48 -29 -30 -31 33 32 -34 39 -36 62 37 67 63 40 -42 -43 43 -45 -46 46 -48 -49 -50 56 52 64 -54 65 55 -57 -58 -59 -60 -61 61 -63 -64 -65 -66 70 -68 -69 69 -71 -72 -73 74 75 -76 -77 -78 78 80 -81 -82 -83 -84
leaf_value=-0.0019982671934461924 -0.0011989753289776903 0.00090778134733220312 0.0019962281804104505 -0.0015990091866782009 0.0015648764618493706 -0.00060923052703241759 0.0017913870643433464 -0.0012856517564684478 -8.2839963975296363e-07 -0.00080108545058291212 -0.00028633778706911795 -0.00060096408908353997 0.00019898170085463386 0.00019838827632285449 0.0016543518776052164 0.0011986391435996472 -0.00071478642612355715 -0.0011993789490798595 0.00058671592306315306 -0.00012593344762383557 0.0011971129346005193 0.0017480188271237519 0.00057011322306559586 0.000481372195459745 0.0015369115373513819 -0.00020056130730181665 0.00016604499611088189 -0.0010345013610923864 0.00079911010564897396 5.5873678826349792e-05 -7.0151223413732881e-07 -0.0010961053509473838 -0.00014378010335600202 0.00037722309889729806 0.0016339576509779735 0.0014746133724173921 0.0018062737834555545 0.0005973513421759218 0.0019963657599298473 0.0016647930096557071 0.00043332884855428616 0.00073521353299999784 -0.00050203061165113143 0.00078609999651005444 0.0013729860532511902 0.0016155853983085258 0.00039792321030355957 -0.00061507732088128889 -0.00080053182758701774 0.0012818730930456567 0.0011640767438130953 0.0010892433462242153 0.00039727825575525035 -0.0015991114361923458 -0.00094703896325317436 -0.0018649937335091791 0.0019965736379011648 -0.0017320181047415146 0.0018792333927010602 -0.0018805798098377262 0.001453061379683194 0.00078097821869556718 0.001996359262565348 0.0015522874141175862 0.00054372261838577104 -0.0019990085202835914 -0.0016357498305094023 0.0010456551381366808 -0.0019984639930789869 -0.0017634448212311927 -0.0017985971613165364 0.0019974531051889549 -0.0019975824890934302 -0.0019991460969152773 -0.0019986115728978229 -0.0019985626131598325 -0.0019986695423051628 -0.0019977860716305579 -0.0019988018922460003 -0.0019978116816971739 -0.001998165362015573 -0.0019980537638394861 0.0019966680566415496
leaf_weight=6.9999935030937257 4.9999979436397544 5.4999940842390087 4.9999816715717298 4.999997258186343 9.2499812096357363 5.7499962002038973 9.7499692142009753 6.999997749924658 6.4999958276748648 4.9999948143959028 5.2499976605176917 4.9999966621398952 4.999995693564415 4.9999932944774645 8.7499802410602552 6.2499940395355216 6.9999960511922827 4.9999973922967902 8.4999908506870288 7.9999939799308768 4.9999876320362082 7.9999880492687252 6.9999948441982269 7.2499929517507544 6.4999942630529466 4.9999979585409156 5.9999969154596311 7.2499957531690589 4.9999967366456985 8.7499938011169416 5.9999971389770499 7.7499960958957672 6.9999960809946051 9.249991223216055 5.4999897330999366 5.7499800473451605 5.2499852180481019 4.999989375472067 6.9999751597642916 5.9999923557043138 5.7499940544366828 9.4999893903732282 5.9999908506870261 8.2499921619892103 7.9999885112047195 5.2499832957982999 4.9999929219484329 6.4999976307153693 4.9999964684247971 6.9999724328517896 5.9999874383211118 5.4999942034482938 7.4999828487634659 4.9999976754188529 9.4999958872795123 7.4999926239252082 5.4999827146530151 7.4999944269657188 8.4999776035547239 8.4999921321868879 5.4999945461750013 5.7499932050704956 8.999968156218527 6.7499794811010352 5.4999927133321762 5.7499970644712439 5.4999984055757514 5.2499943226575851 4.9999961405992561 8.4999938756227476 4.9999962598085395 5.4999900758266449 6.2499903440475446 8.9999966174364108 6.4999948889017096 8.2499944716691953 6.2499954849481574 4.9999926686286953 4.9999968707561475 6.2499916851520538 5.7499942481517792 7.7499911338090897 5.2499847859144211
leaf_count=28 20 22 20 20 37 23 39 28 26 20 21 20 20 20 35 25 28 20 34 32 20 32 28 29 26 20 24 29 20 35 24 31 28 37 22 23 21 20 28 24 23 38 24 33 32 21 20 26 20 28 24 22 30 20 38 30 22 30 34 34 22 23 36 27 22 23 22 21 20 34 20 22 25 36 26 33 25 20 20 25 23 31 21
internal_value=0 0.000604311 0.000791626 -0.00151174 0.000594448 0.000444119 0.00116279 0.000536296 0.000834218 0.000850696 0.000327828 8.50695e-05 -0.000667055 0.000623123 0.000831237 0.000309305 0.000145825 -0.000963879 0.000368947 0.000589381 0.00106745 0.000863438 -1.21946e-06 0.00126125 0.00104763 0.000798597 0.000120388 -0.000389314 4.58116e-05 -0.000400582 0.000619418 -0.0011472 -0.000921371 0.000743738 0.000998132 0.00143003 0.00146169 0.00137146 0.00148198 0.000882238 0.00108534 0.00114451 0.000566935 0.000243729 0.000921218 0.00139687 0.0010216 -0.00117163 -0.000273308 0.00126084 0.00103717 0.00108407 0.000738078 -0.00181855 -0.00168623 -0.00135202 0.00159634 -0.00140885 0.0016266 -0.00162813 0.00130268 0.00110955 0.00179297 0.00184096 0.000816483 -0.00194069 -0.00144566 0.00082697 -0.0018695 -0.00192152 -0.00197703 0.00199684 -0.00199827 -0.00199869 -0.00199816 -0.00199887 -0.0019983 -0.00199806 -0.00199825 -0.0019981 -0.00199846 -0.00199784 0.00199645
internal_weight=0 390.249 360.499 156 221.5 180.75 139 162.75 66.9999 67.9999 95.7499 52.25 12 47.9999 35.9999 40.25 34 56 27 22 50.4999 37 12 40.7499 30.5 22.5 16.5 18 10.75 13.75 43.5 42.25 28.75 38.25 14 33.4999 70.9998 60.7498 50.4999 32.25 23 18.75 27.25 14.25 13 19.9999 10.25 21.75 11 31.2499 18.75 17.5 13.5 99.9999 48 17 12.5 15.25 13.5 13.5 17.25 11.25 14.7499 19.2499 11 52 29.75 10.25 31 26 47 12.5 42 24.25 36.25 17.25 17.5 29.75 15.75 11.25 10.75 14 10.25
internal_count=2185 1561 1442 624 886 723 556 651 268 272 383 209 48 192 144 161 136 224 108 88 202 148 48 163 122 90 66 72 43 55 174 169 115 153 56 134 284 243 202 129 92 75 109 57 52 80 41 87 44 125 75 70 54 400 192 68 50 61 54 54 69 45 59 77 44 208 119 41 124 104 188 50 168 97 145 69 70 119 63 45 43 56 41
cat_boundaries=0 1
cat_threshold=8
is_linear=0
shrinkage=0.001


Tree=3
num_leaves=83
num_cat=1
split_feature=11 1 10 1 7 1 3 2 7 6 7 6 6 2 3 10 1 3 6 6 8 1 1 7 2 10 6 8 6 9 6 7 3 2 9 2 3 1 10 3 4 10 9 10 3 2 8 8 10 1 10 2 3 3 4 7 3 8 2 6 1 4 10 1 8 4 9 3 6 1 8 9 1 6 10 10 3 10 10 2 3 7
split_gain=221.255 45.1175 30.1097 13.8086 13.1094 12.4007 11.1698 9.79154 9.79068 9.37946 10.586 10.0199 9.1948 10.8816 8.22773 6.93607 7.49808 6.80485 10.8354 6.68606 7.73955 6.53575 6.43425 5.81816 5.76541 8.45374 6.5538 5.63998 6.46368 7.35869 5.59358 5.24063 7.94528 5.20692 7.53008 5.1889 5.17925 5.17294 4.90311 4.80693 4.80681 5.20956 4.68839 6.29758 4.32507 4.26998 4.26216 6.04556 5.91581 4.15672 4.1425 4.12338 4.06607 3.51173 3.29835 3.27629 2.99677 4.2057 2.8879 2.75516 5.15071 2.3705 1.75113 1.73366 1.69162 1.67449 1.63244 3.22249 1.91468 2.42038 1.8219 1.5996 0.924304 0.657966 0.405881 3.51365e-06 1.44395e-06 1.52054e-06 1.98139e-06 1.42828e-06 1.14141e-06 5.68082e-07
threshold=0 15575.600000000002 -0.053326926546838342 94028.450000000026 0.61312100000000014 121814.50000000001 0.11914247913137734 1613690.0000000002 0.61704650000000016 0.89492550000000015 0.78910200000000008 0.91696850000000019 0.84843200000000019 786878.00000000012 0.22289710575483632 -0.5301044343581679 94949.650000000009 0.073552091455517651 0.83764050000000012 0.94914350000000014 0.81080150000000006 57567.200000000004 26095.300000000007 0.73237050000000015 1541490.0000000002 -0.46814908286008 0.94436800000000021 0.84363250000000012 0.87897850000000011 0.55203750000000007 0.79428850000000006 0.61864950000000019 0.022469040807987496 528647.50000000012 0.42832050000000005 663535.50000000012 0.074542745465116481 80138.85000000002 1.2361029966300485 0.26789873217349042 0.56242816163464926 -0.53342180171930831 0.57384150000000012 -0.27048422371035596 0.22605086280350206 776188.00000000012 0.73830050000000014 0.81268800000000019 -0.46120540975506241 55564.650000000001 -0.053326926546838342 631766.50000000012 0.11535273638425365 0.23967498156027953 0.79986269242945041 0.54893700000000012 0.20369561628315122 0.73830050000000014 442740.50000000006 0.87047050000000004 57997.150000000009 0.87930609200267917 0.98998951476728791 64929.950000000004 0.7596940000000002 0.75965717195311488 0.63425300000000007 0.17218505277788457 0.89492550000000015 73845.60000000002 0.79791650000000014 0.61017400000000011 63687.05000000001 0.9111760000000001 -0.53342180171930831 0.10862216428835066 0.1336891856594016 -0.3822182168760484 -0.50866851195592633 976949.50000000012 0.091671456276145175 0.51789900000000011
decision_type=9 2 2 2 2 2 2 2 2 2 2 2 2 2 2 2 2 2 2 2 2 2 2 2 2 2 2 2 2 2 2 2 2 2 2 2 2 2 2 2 2 2 2 2 2 2 2 2 2 2 2 2 2 2 2 2 2 2 2 2 2 2 2 2 2 2 2 2 2 2 2 2 2 2 2 2 2 2 2 2 2 2
left_child=73 50 4 7 5 6 19 22 -6 10 12 40 42 65 52 21 49 18 30 20 35 -12 -4 27 25 33 39 28 29 38 -5 32 -24 61 -35 36 -3 51 -19 56 -11 -42 46 -44 -26 -36 48 -48 -10 -17 74 58 55 59 -47 -7 57 -27 -34 60 62 -8 -53 -22 -39 -14 67 68 69 70 -33 -31 -43 75 -2 76 80 78 81 -77 -1 -78
right_child=1 2 3 17 8 14 24 -9 9 11 15 -13 13 -15 -16 16 -18 23 -20 -21 63 -23 31 -25 44 26 -28 -29 -30 71 -32 66 37 34 45 -37 -38 64 -40 -41 41 72 43 -45 -46 54 47 -49 -50 -51 -52 53 -54 -55 -56 -57 -58 -59 -60 -61 -62 -63 -64 -65 -66 -67 -68 -69 -70 -71 -72 -73 -74 -75 -76 79 77 -79 -80 -81 -82 -83
leaf_value=-0.0019962079956699096 -0.0019971756293785102 -0.0011502077621712711 0.00010882851993153024 -0.00025048694048940815 0.001633269410724872 -0.0010761435128732715 -0.0010302043052922687 -0.00026709072975252972 -0.0012303063956235552 0.00025842040859364707 -0.00078266396945519175 -0.00016328385745220954 -0.0018083087658772908 0.00022128037861896801 0.00019289190959762961 0.00082998998706781697 7.8492437597909521e-05 -0.00016369737185123532 0.00075672699687520878 0.00039934026100187271 -0.00085621177319372666 0.00056158012973160718 -0.00039985350579705347 0.0012470728891435857 0.00036972141567438737 -0.00028611431907934993 0.0013816237043015997 -0.00045302685134423234 -0.00037149128068527764 0.0017967435547543667 -0.0015987890334228762 0.0018221292272382567 0.00077890156122126361 -0.0009989651934058175 0.00099880035891502009 0.00031508995522514167 8.6129620275329527e-05 0.0018411598299739912 0.00099701615142413374 0.00096581124914133551 0.0005581230943705333 0.0019958440471353287 0.0010513775556744288 -0.00024110813793186585 0.0015968188822168539 0.00049958771143290175 0.00083710919899776667 -0.00049992788198994619 6.3315277975194471e-05 0.0019952670952435307 -0.00072718580626417075 0.00017964015733016128 -0.001485849724641201 0.0012687541838418347 -0.00060013854278508051 5.6688891988998499e-07 -0.00045181959553644726 0.00073541497176060925 0.0018047309809406432 0.00089372025140191521 -0.00060840681001419995 -0.00018265877262374638 0.00099732810567664388 -0.0016510241277843422 0.0010876213497827871 -0.00099969851939046015 0.0018047249340624376 0.00061745968172662307 0.0017598033760998567 0.00059607653724482877 0.00099675866343768905 0.00099684249941499217 0.0014448908503382032 -0.0016331106982104386 -0.0015990712966159654 -0.0019971636659653659 -0.0019960967099362744 -0.0019959387642789345 -0.0019970387625559425 -0.0019964399922631692 -0.0019956938477061776 -0.001996506979465771
leaf_weight=9.7499616742134112 5.249986305832862 8.2499865740537661 8.9999752044677717 7.9999790489673632 5.4999794065952292 6.4999895840883308 8.2499895989894849 7.4999880641698828 6.4999881088733646 5.7499799728393581 5.749986618757247 9.2499751597642881 5.2499936223030108 6.7499933242797843 7.7499823719263068 5.9999716877937335 6.2499835789203635 9.2499681264162117 7.2499731779098502 8.7499812841415388 5.2499943077564222 9.7499594986438733 4.9999900609254828 7.9999672919511786 6.7499837428331357 6.9999816417694189 6.4999783188104621 7.7499862015247336 6.7499798089265814 4.9999784678220731 4.9999882280826569 5.7499721348285728 5.7499716877937299 4.9999931603670147 6.9999894052743938 9.499982073903082 5.7499888241291037 6.4999544173479062 5.9999793767929068 7.7499826550483695 6.2499790489673641 5.2499724030494672 9.4999825209379178 6.2499911785125724 4.9999849945306778 5.9999890029430372 7.7499871253967267 5.9999904185533524 7.7499851882457778 6.249961793422699 5.4999876320362082 5.499984249472627 9.7499833405017835 5.4999748915433875 4.9999952018260956 4.9999906122684479 7.7499851137399665 9.499980151653288 5.2499657571315765 7.2499725669622412 5.7499894499778739 5.4999948590993872 4.9999890476465225 5.7499912679195404 5.4999750256538391 4.9999947547912598 5.2499664872884741 7.2499656081199637 8.4999412000179273 4.9999762922525397 4.9999766796827316 4.9999745786190033 7.2499704957008362 5.4999835342168799 4.999994456768035 5.999984607100485 6.7499725371599215 6.4999708235263851 4.9999879002571097 4.9999816864728928 7.7499631047248831 6.7499773055315018
leaf_count=39 21 33 36 32 22 26 33 30 26 23 23 37 21 27 31 24 25 37 29 35 21 39 20 32 27 28 26 31 27 20 20 23 23 20 28 38 23 26 24 31 25 21 38 25 20 24 31 24 31 25 22 22 39 22 20 20 31 38 21 29 23 22 20 23 22 20 21 29 34 20 20 20 29 22 20 24 27 26 20 20 31 27
internal_value=0 0.000232852 0.000293247 0.000617375 9.62275e-05 -9.77206e-05 3.39517e-05 0.000835963 0.000326722 0.0002708 0.000109555 0.000723479 -0.000140503 -0.000764616 -0.000689111 0.000556353 0.000969779 0.000262975 -0.000222794 -0.000381385 -0.000579395 6.29084e-05 0.000916478 0.000468981 0.000240427 0.000138703 0.000466172 0.000312384 0.000497758 0.000730131 -0.000769065 0.000994013 0.000804168 -0.000204359 8.66785e-05 -0.000255345 -0.000642426 0.00091994 0.000292977 0.000280221 0.00105828 0.00130357 0.000102009 0.000538486 0.00089189 0.000388246 -0.00014351 0.000253675 -0.000526758 0.00142452 -0.0014273 0.000747186 -0.00101078 0.000549446 -2.88097e-07 -0.000608009 6.11151e-05 0.000302039 0.0012685 0.000381097 0.000152389 -0.000691186 0.000569016 -0.00127168 0.00149579 -0.00141386 0.00128847 0.00120242 0.00137731 0.00117088 0.00143824 0.00139679 0.00167629 -0.00167805 -0.00180298 -0.00199633 -0.0019962 -0.00199635 -0.0019965 -0.00199683 -0.00199598 -0.0019963
internal_weight=0 487.249 471.499 178.249 293.249 159.25 130.25 110.25 134 128.5 94.7498 33.7499 60.7499 17 28.9999 33.9999 18.4999 67.9998 20.2499 43.2499 34.4999 15.4999 102.75 47.7498 86.9998 75.2499 38.4999 39.7499 31.9999 25.2499 13 93.7496 56.9998 36.75 23 23.5 14 51.9998 15.2499 31.9999 24.4999 18.7499 43.7499 15.75 11.75 18 28 13.75 14.25 12.2499 15.75 39.9998 21.25 28.9999 11 11.5 24.2499 16.5 10.9999 23.4999 16.25 13.75 10.5 11 11.9999 10.25 36.7498 31.4998 24.2499 15.7499 10.7499 9.99995 12.4999 58.9998 10.25 53.4998 42.4998 24.9999 18.4999 11 17.4999 13.4999
internal_count=2185 1949 1886 713 1173 637 521 441 536 514 379 135 243 68 116 136 74 272 81 173 138 62 411 191 348 301 154 159 128 101 52 375 228 147 92 94 56 208 61 128 98 75 175 63 47 72 112 55 57 49 63 160 85 116 44 46 97 66 44 94 65 55 42 44 48 41 147 126 97 63 43 40 50 236 41 214 170 100 74 44 70 54
cat_boundaries=0 1
cat_threshold=8
is_linear=0
shrinkage=0.001


Tree=4
num_leaves=80
num_cat=0
split_feature=0 1 1 0 10 0 7 10 0 0 5 2 2 9 6 1 5 0 2 9 8 7 1 10 7 7 8 2 3 10 5 1 10 3 1 0 10 9 2 1 10 2 5 3 5 7 2 5 3 1 10 6 10 0 3 5 3 10 7 1 7 7 2 0 2 7 2 2 5 8 6 1 1 10 9 5 6 2 3
split_gain=497.722 94.812 40.9479 26.1627 25.7351 20.9161 15.6325 14.9854 12.6798 11.5521 8.58595 10.3442 8.27511 9.08351 8.71647 7.53917 7.08237 7.08062 6.97794 6.04973 7.18835 5.87322 6.37512 6.54731 5.76369 5.48683 5.2128 5.00005 4.57391 5.57563 4.56526 4.34671 4.27038 4.01245 7.8982 3.87773 3.54961 3.48571 3.47695 4.07107 3.3917 4.06904 3.76163 3.32057 3.29738 4.45882 2.90766 2.86494 2.81189 2.78395 2.72001 2.49578 2.20402 1.61307 2.93377 3.52412 1.59681 1.54002 1.4592 1.38737 2.46025 2.33314 1.08751 0.910305 0.643761 0.517527 0.491095 0.434534 0.314836 0.177007 0.137479 3.92716e-05 1.74249e-05 1.01016e-05 7.48657e-06 4.87906e-06 6.14462e-06 4.13832e-06 2.20895e-06
threshold=2395.9950000000003 171493.50000000003 15575.600000000002 3232.7500000000005 -0.053326926546838342 1662.8600000000004 0.74705100000000013 0.099496092722980739 1318.4650000000004 951.59250000000009 1144544.0000000002 502668.00000000006 990635.50000000012 0.54296250000000013 0.80694500000000013 227488.00000000003 1303968.0000000002 831.28450000000009 625186.00000000012 0.46981500000000004 0.73655900000000007 0.70387600000000006 93066.150000000009 0.73063343693722971 0.67910900000000007 0.70387600000000006 0.76491750000000003 628437.00000000012 0.094380525348812097 0.36215184906399034 914112.00000000012 120560.50000000001 -0.36457663768326803 0.16931625161720032 81711.250000000015 2073.3000000000006 -0.12749238414028466 0.63715450000000018 1436850.0000000002 39142.150000000009 -0.30966388066027761 899493.00000000012 755584.00000000012 0.20186009899128879 1183520.0000000002 0.54893700000000012 1357030.0000000002 1303968.0000000002 0.11730075651367984 85230.35000000002 1.8123305109356762 0.82802300000000006 -0.49873282441146954 4086.9050000000002 0.20606057280241566 1220864.0000000002 0.1765774370361223 -0.39999253103657767 0.50104100000000007 66848.150000000009 0.54381500000000005 0.59256600000000015 1004345.0000000001 739.495 423446.00000000006 0.62455250000000018 661416.00000000012 407547.50000000006 1252128.0000000002 0.86126500000000006 0.90082450000000014 168404.00000000003 121814.50000000001 -0.36457663768326803 0.47740250000000006 957024.00000000012 0.80694500000000013 776188.00000000012 0.11914247913137734
decision_type=2 2 2 2 2 2 2 2 2 2 2 2 2 2 2 2 2 2 2 2 2 2 2 2 2 2 2 2 2 2 2 2 2 2 2 2 2 2 2 2 2 2 2 2 2 2 2 2 2 2 2 2 2 2 2 2 2 2 2 2 2 2 2 2 2 2 2 2 2 2 2 2 2 2 2 2 2 2 2
left_child=1 2 32 24 5 6 10 15 -9 38 11 17 13 25 -14 26 -15 -4 51 35 -21 22 44 -24 28 31 -3 -26 58 47 -22 43 -1 34 -8 -7 40 46 39 -6 41 42 52 -12 45 -20 -16 57 -23 -18 -46 -11 -13 54 67 -56 -32 -30 -2 70 -61 -62 -63 -44 -55 -17 -35 -5 72 71 77 73 78 74 -66 -75 -77 -41 -69
right_child=3 7 4 53 9 19 33 8 -10 18 12 36 14 16 37 65 49 -19 21 20 30 48 23 -25 27 -27 -28 -29 29 -31 56 -33 -34 66 -36 -37 -38 -39 -40 59 -42 -43 63 -45 50 -47 -48 -49 -50 -51 -52 -53 -54 64 55 -57 -58 -59 -60 60 61 62 -64 -65 69 -67 -68 68 -70 -71 -72 -73 -74 75 -76 76 -78 -79 -80
leaf_value=-0.0018063146688190707 -0.001197024446876612 -0.0014265900384568533 0.00093962924279463161 -0.0015971248669668667 0.00093651985249949875 0.0010326875337147131 0.0004582829344598287 0.00091998444500845597 -0.0011982048758569471 0.0010480145775146508 0.00070423850239712785 0.00049774522418198478 -6.5315030794092625e-05 0.0012802977661976642 0.0018634340822278571 -0.0019952932579169421 -0.0003084135691035785 -0.00031669293056672219 0.00061241570376100092 -0.00097393235613951116 0.00056237423147648623 0.0018206721819916797 -0.00066773048310905781 0.00071810750076903849 -0.0011978740299809091 -0.0010392942012664593 1.128736723843e-07 5.5699551908577911e-05 -0.0010942290095982423 -0.00014380106031092196 -0.00079887170091848898 -0.00079983988367530838 -0.00054542550169344914 0.0016192054825648963 0.0017669967164324312 -9.5796259083863971e-05 0.00039761704295145962 0.00047333229724931617 0.00081147147290845959 0.0019935792799709389 0.0018708453387708975 0.00036160815849857486 0.0014246649984402369 -0.00017334339348106174 -9.7978437361525254e-05 0.0018213103044196698 0.00099674606630460109 -0.0006139831869514255 0.00079529019329327465 0.00057900943044329734 0.00085421463869612003 0.0017777631199065865 0.001396712197616806 -0.0015971103620699648 -0.00094563115058548012 -0.0018626074078153115 3.3205229933685382e-07 -0.0017298782596145788 -0.0018778408229555416 0.0019942044651897811 0.00092803203071345562 0.0014059875329220511 0.0019937347892578965 0.0019948502832893796 -0.0019947878401938381 -0.0015959745552742797 0.0019933224607937314 -0.0019960533986784043 -0.0017611315126314275 -0.0017966722293592909 0.0017935032251234905 -0.0019938901761401215 -0.00199433555785084 -0.0019974289159061828 -0.0019962125168470723 -0.0019955173964416356 -0.0019970184081996175 0.0019948205236157029 -0.0019969374984009141
leaf_weight=5.2499829679727554 4.999986231327056 5.2499775886535662 8.4999812543392199 4.9999846667051342 8.4999490678310377 7.2499860525131208 9.7499580085277575 6.4999561458826047 4.9999758452177048 9.4999343156814593 8.4999817609787076 5.9999857097864151 7.749988645315173 9.7499767392873782 7.4999750107526797 9.2499396651983243 6.4999930560588819 9.4999803006649 6.4999736696481722 9.7499804645776766 9.7499740272760409 5.7499548494815809 7.4999857991933805 6.2499871701002121 4.999986231327056 6.2499914467334738 4.9999842047691345 8.7499856948852521 7.7499777227640152 6.9999883323907843 4.9999901205301267 4.9999885261058798 5.4999918043613416 7.9999238550662977 8.7499487996101362 5.2499923557043076 4.999981850385665 5.2499801665544501 6.7499703466892234 5.2499444335699064 7.9999542236328116 5.4999787360429755 5.2499693483114225 8.7499834597110731 5.2499848604202253 5.7499635368585587 7.9999663382768631 6.4999895095825186 4.9999668151140213 7.7499840259552002 6.9999801814556122 9.2499114125967008 4.9999808967113548 4.9999855905771247 9.4999820888042468 7.4999603182077399 4.9999881982803345 7.4999703466892296 8.4999525994062406 9.2499106377363223 7.4999395459890392 8.499922037124632 4.9999479651451102 5.9999541938304901 6.2499534785747484 4.9999618232250205 6.2499264925718307 6.4999714791774803 8.499963626265524 4.9999823719263068 4.9999451637268058 9.2499076128005964 5.9999482631683341 6.4999857246875825 8.99996370077133 4.9999728649854642 5.9999828487634659 5.4999589473009109 4.9999853223562241
leaf_count=21 20 21 34 20 34 29 39 26 20 38 34 24 31 39 30 37 26 38 26 39 39 23 30 25 20 25 20 35 31 28 20 20 22 32 35 21 20 21 27 21 32 22 21 35 21 23 32 26 20 31 28 37 20 20 38 30 20 30 34 37 30 34 20 24 25 20 25 26 34 20 20 37 24 26 36 20 24 22 20
internal_value=0 0.000603518 0.000760647 -0.00150976 0.000820792 0.000608526 0.00076261 -0.00094268 -9.68431e-07 0.00117375 0.00061688 0.000907924 0.000405784 0.000170286 0.000839597 -0.00138471 0.000623564 0.00027657 0.000889213 -2.43176e-05 -0.000271369 0.00069069 0.000507151 -3.78042e-05 -0.00096251 -0.000211422 -0.000730637 -0.000400145 -0.00114553 -0.000920064 7.54657e-05 2.11269e-05 -0.00116121 0.00138447 0.00107727 0.000558724 0.0011868 0.00117758 0.00148848 0.00157233 0.00129718 0.0011318 0.00132218 0.000259088 0.000812993 0.00117986 0.00141611 -0.0011699 0.00134375 0.00017422 0.000446132 0.00140802 0.000906366 -0.00181622 -0.00168403 -0.00135018 -0.00039927 -0.00140684 -0.00162569 0.00168982 0.0015645 0.00137523 0.00162367 0.00172876 -0.00193824 -0.00185518 0.00178329 -0.00186711 -0.00191903 -0.00197454 0.0019305 -0.00199571 -0.00199572 -0.00199622 -0.00199563 -0.00199674 -0.00199634 0.00199421 -0.00199644
internal_weight=0 390.248 354.248 155.999 343.498 214.499 172.499 35.9998 11.4999 128.999 139.75 58.7498 80.9998 52.4999 28.4999 24.4999 24 18 67.7496 41.9999 29.4999 48.9998 38.2499 13.75 55.9998 28.4999 10.25 13.75 42.2499 28.7499 19.75 22.25 10.75 32.7498 18.4999 12.5 40.7498 20.7499 61.2495 54.4995 35.7498 27.7499 22.2499 17.25 24.4999 12.2499 15.4999 21.7499 10.7499 14.25 12.25 18.7498 11 99.9995 47.9998 16.9999 9.99998 15.2499 13.4999 45.9996 30.2497 20.9998 13.4999 11.2499 51.9997 14.2499 14.2499 30.9999 25.9999 46.9997 15.7498 41.9998 17.4999 32.7499 15.2499 17.4999 11 10.7499 11.5
internal_count=2185 1561 1417 624 1374 858 690 144 46 516 559 235 324 210 114 98 96 72 271 168 118 196 153 55 224 114 41 55 169 115 79 89 43 131 74 50 163 83 245 218 143 111 89 69 98 49 62 87 43 57 49 75 44 400 192 68 40 61 54 184 121 84 54 45 208 57 57 124 104 188 63 168 70 131 61 70 44 43 46
is_linear=0
shrinkage=0.001


Tree=5
num_leaves=81
num_cat=0
split_feature=1 1 10 4 2 5 1 3 10 2 1 2 4 7 6 10 10 1 1 2 8 10 2 2 3 9 9 8 4 7 3 1 3 8 10 1 10 4 5 10 2 8 6 5 5 2 7 10 1 8 2 1 7 9 5 5 4 9 9 10 8 2 1 4 8 8 10 4 9 2 9 7 9 2 6 9 7 4 10 9
split_gain=126.618 45.3365 38.0702 18.2323 15.0427 20.3567 16.1498 13.8356 15.1369 12.7935 13.5405 10.5269 10.8852 10.1146 9.30988 8.99455 9.95833 8.82835 8.50596 8.27124 8.09198 10.3431 8.03613 7.89255 7.63935 7.04035 6.47688 6.03548 7.66514 5.78681 8.56467 6.17238 5.68519 6.44802 6.37737 5.84798 5.44555 7.06066 5.19438 8.4643 5.17439 4.73494 4.90707 4.70895 4.68639 6.39382 4.416 4.33637 4.28663 4.05774 3.87515 3.87354 5.33098 5.2723 3.82559 3.79017 3.69318 3.63552 3.32744 3.15587 3.09718 3.62708 3.00278 2.95147 2.6635 2.65221 2.54066 2.43893 2.14795 2.12135 1.70691 1.61362 1.52532 1.24796 0.811303 0.595428 0.435717 0.100162 1.92426e-05 3.41673e-06
threshold=171493.50000000003 15575.600000000002 -0.030254914420748444 0.39724041318432007 547454.00000000012 1155584.0000000002 100434.50000000001 0.07740854053345006 -0.63800473465259688 580052.50000000012 94028.450000000026 1756210.0000000002 0.73359768174921147 0.50104100000000007 0.78772400000000009 -0.58391930008878268 -0.63491318703044697 26095.300000000007 89428.300000000017 802694.50000000012 0.71508650000000007 -0.50187491668205519 390302.00000000006 1613690.0000000002 0.026565358386357995 0.44581300000000007 0.54688700000000012 0.85666550000000008 0.3585135432012751 0.61864950000000019 0.073552091455517651 80138.85000000002 0.18048589331540665 0.67650850000000007 -0.49311859012711606 62467.950000000004 -0.49873282441146954 0.32546693772784713 1140960.0000000002 -0.43547092045786245 622583.50000000012 0.7915270000000002 0.87047050000000004 983840.00000000012 764800.00000000012 163009.50000000003 0.65117100000000006 -0.053326926546838342 90583.10000000002 0.7934405000000001 813174.50000000012 243848.00000000003 0.55296200000000006 0.58138450000000008 1297504.0000000002 749088.00000000012 0.21117304089813713 0.55057600000000007 0.51079250000000009 0.51325827662906021 0.78509150000000016 744933.50000000012 78087.700000000012 0.72923028240460253 0.7049565000000001 0.73130600000000012 0.67696320084766182 0.83670978369242255 0.62269800000000008 429450.00000000006 0.49260200000000004 0.65677550000000007 0.57575150000000008 708752.00000000012 0.83916850000000009 0.44581300000000007 0.63788000000000011 0.5816650226721839 0.02296072477507816 0.53623300000000007
decision_type=2 2 2 2 2 2 2 2 2 2 2 2 2 2 2 2 2 2 2 2 2 2 2 2 2 2 2 2 2 2 2 2 2 2 2 2 2 2 2 2 2 2 2 2 2 2 2 2 2 2 2 2 2 2 2 2 2 2 2 2 2 2 2 2 2 2 2 2 2 2 2 2 2 2 2 2 2 2 2 2
left_child=1 47 4 14 7 6 32 22 -9 44 17 12 13 58 -2 16 54 -11 38 40 -20 -22 -3 29 -12 -17 -27 28 43 30 -19 57 33 -6 35 -35 -21 62 41 -40 -15 42 -10 -26 56 -46 -39 76 -28 64 55 52 -5 -54 -14 -34 -4 66 -7 70 61 -36 -38 -30 -8 -16 -32 77 -59 -47 -31 -18 -51 -42 -58 -53 -1 -24 79 -77
right_child=3 2 9 51 5 11 49 8 18 10 24 -13 15 19 65 25 71 23 20 36 21 -23 67 -25 27 26 48 -29 63 59 31 -33 50 34 60 -37 37 46 39 -41 73 -43 -44 -45 45 69 -48 -49 -50 72 -52 75 53 -55 -56 -57 74 68 -60 -61 -62 -63 -64 -65 -66 -67 -68 -69 -70 -71 -72 -73 -74 -75 -76 78 -78 -79 -80 -81
leaf_value=-0.0019945938138075342 0.00028555689614983003 -0.00018140097544715845 0.0007778146409942768 -0.0019938078848135824 0.0014444913483348401 -0.00059911665440101603 -0.00020820361196047428 -0.0014469692584814522 0.001688948890875658 -0.00034669731696616363 -0.0010886240274214181 0.00096851934900510719 0.00090702204566363873 7.2032660591795071e-08 -0.00059758154896615923 0.0011776569946824666 -0.00066551548051905823 -0.00025135431979540513 -0.0012834192411139084 -0.00066600186052999627 -0.0008945939720137908 0.00070065561256773645 -0.001596255441122538 -0.00022261401337850801 0.0004972273372778126 -0.00046138407209504392 0.0010561224420924649 -0.00072019226074663168 0.0011759239066262946 0.0012365828664584529 0.00074620639902813694 0.0017170656767146377 0.00092817976434067073 -0.00099830455397437287 0.00091940546107636045 0.00039788205949488358 -0.00080099772918304534 0.00028343393618180377 -0.00085631214789068117 0.00078113937940779113 -0.0015975026824959029 0.00015268239367345954 0.00046017857565414208 -0.00066708150308924098 -0.00020266470206620549 0.00071562080588909378 0.0015965800834368959 -0.00072541104153221931 -6.1296373663184312e-07 -0.00095548421104909437 0.00047183501596420911 -0.0016128647575614371 -0.0015106846773239721 -0.00030644078880520795 -0.00025954897914512746 0.0018847959041448864 0.0013951340507524809 0.0015955422175885879 -0.0016329531445026932 0.00080515576690715226 0.0011960262482126895 -0.00018399454496868556 0.00023871562498874955 0.00030598597805315891 0.00066470932592358346 -0.0016152427371159783 -7.1120142149446277e-05 -0.00085463933109379022 0.0007161861212332802 0.0015315771807298557 0.0018673762735688716 -0.0014246563322695286 -0.00020027384791946863 -0.00090721551608527354 0.001890587282745796 -0.0019919743980110196 -0.0015948884542666788 -0.0017964178720550263 -0.0019946869956548904 -0.0019930416033186083
leaf_weight=5.9999501556158084 8.7499339133501071 8.249964967370035 5.7499252557754543 7.9999072849750545 7.2499555647373191 4.9999764114618293 7.2499521821737307 7.2499714940786353 6.4999693036079425 7.2499671876430503 5.4999591559171668 8.7499508410692197 5.4999777376651782 4.9999689459800711 4.9999525099992734 9.7499556988477689 5.9999814331531507 7.9999542981386176 6.9999684989452389 7.4999727010726884 7.2499545812606856 9.2499480545520747 4.9999718964099866 6.7499786168336859 5.9999625235796001 9.7499547451734561 8.4999561011791211 6.2499812543392173 9.7499256432056445 9.2498692721128517 7.9999253153800982 7.2498896420001975 7.4999188333749833 4.9999799281358701 6.4999457001686114 7.4999580681324005 4.9999886453151792 5.2499703615903837 6.9999801218509674 5.7499726414680463 4.9999790936708433 9.7499404251575452 6.4999582469463348 8.2499493956565839 4.9999606162309673 6.2499329745769483 4.9999791830778122 5.4999776482582083 6.9999732524156562 5.7499634623527509 5.2499489784240714 5.2499384433031109 8.2499238550662977 6.499947875738143 5.7499706298112869 9.2498737573623639 4.9999545812606803 4.9999613314867002 8.2499607652425748 9.2499041706323606 8.7499309182167035 5.4999638050794601 6.2499730288982391 6.499963864684104 6.7499619275331497 5.2499595731496811 7.249957337975502 5.2499736398458472 6.2499494552612305 6.4999099969863892 7.9998718053102484 5.2499634623527527 4.9999611526727676 5.4999787658452988 9.749857157468794 5.2499138116836566 4.9999576210975647 4.9999705255031586 6.7499428391456595 6.9999086111783981
leaf_count=24 35 33 23 32 29 20 29 29 26 29 22 35 22 20 20 39 24 32 28 30 29 37 20 27 24 39 34 25 39 37 32 29 30 20 26 30 20 21 28 23 20 39 26 33 20 25 20 22 28 23 21 21 33 26 23 37 20 20 33 37 35 22 25 26 27 21 29 21 25 26 32 21 20 22 39 21 20 20 27 28
internal_value=0 0.00017848 0.000236436 -0.00129872 2.57529e-05 0.000171467 0.000541538 -0.000317222 -8.33794e-05 0.000626087 0.000470681 -8.89256e-05 -0.000169209 -0.000475868 -0.000472069 0.000138784 -0.000354503 0.000707045 8.41806e-05 -0.000247505 -0.000382497 -2.87132e-07 -0.000976458 0.000808907 1.05432e-05 0.000455897 0.000177198 0.000175044 0.000358495 0.000910927 0.000678939 0.000899454 0.000812277 0.000589988 0.000403668 -0.000160593 6.76857e-05 0.000323623 0.000393108 -0.000117854 -0.000837216 0.000679472 0.00107456 -0.000176846 0.00113192 0.000755748 0.000923994 -0.00145041 0.000578887 -0.000142145 0.00122149 -0.0016329 -0.0013365 -0.000980001 0.000310775 0.00145646 0.00145763 0.00067577 -0.00124283 0.00127642 0.000743585 0.00041368 -0.00022338 0.000827948 0.000212665 -0.00111882 0.000357641 -0.00140657 0.00110701 0.0011316 0.00152912 -0.00101978 -0.000604224 -0.00123592 0.00172264 -0.00191096 -0.00181291 -0.00169634 -0.00199333 -0.00199258
internal_weight=0 480.247 463.747 65.9993 300.998 211.249 87.2493 89.7495 66.2497 162.749 124.499 123.999 115.249 57.7497 18.9998 57.4997 22.4999 82.2492 58.9997 44.4998 23.4999 16.4999 23.4999 74.9993 42.2497 34.9998 25.2499 36.7498 30.4998 68.2493 41.7496 33.7497 62.4995 40.4997 33.2498 12.4999 28.9999 21.4999 35.4998 12.75 15.4999 22.7499 12.9999 14.2499 38.2495 17.7498 10.2499 16.4999 15.4999 24.7498 21.9997 46.9995 22.7498 14.7499 11.2499 16.7498 20.4997 26.4998 13.2499 26.4996 20.7498 11.9999 11.25 16.2499 13.9999 10.2499 15.2499 15.2499 11.2499 12.7498 17.2497 11.2499 10.7499 10.5 14.7498 24.2497 10.9999 9.99994 18.9998 12.2498
internal_count=2185 1921 1855 264 1204 845 349 359 265 651 498 496 461 231 76 230 90 329 236 178 94 66 94 300 169 140 101 147 122 273 167 135 250 162 133 50 116 86 142 51 62 91 52 57 153 71 41 66 62 99 88 188 91 59 45 67 82 106 53 106 83 48 45 65 56 41 61 61 45 51 69 45 43 42 59 97 44 40 76 49
is_linear=0
shrinkage=0.001


Tree=6
num_leaves=84
num_cat=1
split_feature=0 11 1 0 10 0 5 0 2 2 2 6 6 6 2 2 5 3 0 1 10 3 2 10 3 2 1 2 5 1 10 1 0 1 5 1 10 8 8 6 0 3 0 0 10 6 9 9 2 5 5 3 9 1 0 3 2 0 9 5 2 3 10 2 10 1 2 0 5 8 0 1 1 1 6 10 2 1 1 10 9 5 6
split_gain=496.417 171.696 39.2692 26.0972 22.1291 16.3742 13.6951 12.0713 9.28236 8.04582 7.35319 7.26941 10.1708 5.961 7.3644 5.92653 6.69308 5.57713 5.135 5.83676 5.38923 5.06093 5.31743 5.74187 5.03554 6.50072 5.09639 5.60011 4.86357 4.44863 3.95249 3.70971 4.25356 3.65283 3.59536 3.54689 3.64452 3.26699 3.24781 3.24218 3.18558 2.75594 3.49902 4.66205 2.63478 2.33832 2.16664 1.98654 1.9403 2.05224 2.60482 1.8744 2.19515 1.79604 1.60924 2.92847 3.51774 1.44861 1.22005 1.32682 1.18975 1.18596 0.90268 0.641744 0.586272 0.563046 0.433072 0.399633 0.31429 0.176643 0.147512 8.12044e-05 4.80667e-05 3.27841e-05 2.14733e-05 2.07748e-05 1.29695e-05 1.05381e-05 9.90557e-06 7.89105e-06 7.35605e-06 3.69379e-06 1.39286e-06
threshold=2395.9950000000003 0 15575.600000000002 3232.7500000000005 -0.033909971777196617 1662.8600000000004 1144544.0000000002 1042.9900000000002 513225.50000000006 291192.00000000006 625186.00000000012 0.80694500000000013 0.8543225000000001 0.75403650000000011 490173.00000000006 876974.00000000012 1239904.0000000002 0.14349239290383192 1253.7950000000003 89805.750000000015 0.56654521968082017 0.064779189950994312 663535.50000000012 -0.56399124569709447 0.086476608962196264 543672.50000000012 110730.50000000001 854516.00000000012 1327296.0000000002 131351.00000000003 -0.48367331158853855 119251.00000000001 506.11900000000009 118528.50000000001 1216416.0000000002 39142.150000000009 2.3444333694264867 0.73747450000000014 0.72199800000000003 0.80416150000000008 1622.7100000000003 0.17079554433440208 1242.6950000000004 942.94200000000012 -0.32801012916820088 0.83764050000000012 0.56255200000000005 0.52520250000000013 961442.00000000012 941920.00000000012 1094976.0000000002 -0.0069582909010807098 0.49789850000000008 61047.100000000006 4086.9050000000002 0.20606057280241566 765609.00000000012 1088.4350000000002 0.56220100000000006 749088.00000000012 679090.00000000012 0.11347984598024953 -0.31526536081369777 423446.00000000006 0.15156949040871531 61389.600000000006 407547.50000000006 1234.5800000000002 1252128.0000000002 0.86126500000000006 821.23400000000004 168404.00000000003 221916.50000000003 129685.50000000001 0.83117250000000009 -0.15789943883176671 658783.50000000012 85699.800000000003 101197.00000000001 -0.56779092277777099 0.54296250000000013 1249056.0000000002 0.82514700000000019
decision_type=2 9 2 2 2 2 2 2 2 2 2 2 2 2 2 2 2 2 2 2 2 2 2 2 2 2 2 2 2 2 2 2 2 2 2 2 2 2 2 2 2 2 2 2 2 2 2 2 2 2 2 2 2 2 2 2 2 2 2 2 2 2 2 2 2 2 2 2 2 2 2 2 2 2 2 2 2 2 2 2 2 2 2
left_child=1 64 44 24 5 6 8 35 9 -4 40 13 31 14 -8 16 -14 -11 39 20 65 -7 23 -23 51 46 27 -27 -16 41 -24 32 -13 -21 -28 61 48 -18 -15 -12 67 42 43 45 -3 -10 -26 -47 49 60 -51 -2 -53 -34 55 66 -57 -55 59 -43 77 -6 -32 -56 72 -20 -5 -9 73 71 74 75 79 76 -50 80 -68 -37 -77 -1 81 -65 -74
right_child=3 2 4 54 7 21 11 10 29 17 18 12 15 38 28 -17 37 -19 19 33 -22 22 30 -25 25 26 34 -29 -30 -31 62 -33 53 -35 -36 36 -38 -39 -40 -41 -42 58 -44 -45 -46 47 -48 -49 70 50 -52 52 -54 57 63 56 -58 -59 -60 -61 -62 -63 -64 69 -66 -67 68 -69 -70 -71 -72 -73 82 -75 -76 78 -78 -79 -80 -81 -82 -83 -84
leaf_value=-0.0019929737237712 -0.00090454702332020895 -0.0016127327431157998 0.0013893758098628274 -0.0015952103195488599 0.00059412900238429945 -0.0005882583770570204 -0.00047498861626802042 0.0015916923195034209 0.00077765040602570639 -0.00051885996926715123 0.00066362382253793318 0.00052969593948699509 0.00062644423159184963 0.00019855536339607327 0.00033175636892276831 0.0010308660191865749 -0.0010904502367303059 0.00066362055151307042 0.0018390076759796127 -0.0002627751515174148 0.00062713430466107122 -9.6341331446323422e-05 0.00045059999320466758 0.001219592051996121 -0.0016318133434355673 0.00072619171731214539 -0.001596364628602778 -0.00055460527909173541 0.0016336339799212546 0.00049722663456913034 -0.00080129329582668272 0.00028298439096076454 0.0010480433644355714 0.00079662300880049494 -0.00039713483506359726 0.0019897591391502861 0.00099333793902407893 -4.9540831829455862e-07 -0.00085668806311408089 -0.00040235546469179402 0.00096538493241957407 0.0011594768981916901 0.0017661070699367409 0.00030459969236673926 -0.00059842307454404308 0.0011607466661845264 -0.00079757376685043037 0.0019927845706908314 0.0019933396149672631 0.000720412276090437 0.0015810953314405261 -0.0011628822538789418 -0.0019941893755649242 0.0018766220886566745 -0.0015951405341483151 -0.0009440951676423214 -0.0018602434040280139 0.0012561096672887124 0.0019915582475276104 0.001824519933228082 0.0013933476872582309 0.0012670531980919027 -0.00020039945117596524 -0.001993294224913384 -0.001630730958218277 0.0013926505382323233 -0.0019928522052449511 0.001991512365975326 -0.0017588123342305955 -0.0017942938446733035 0.0017913415524315655 -0.0019905108568279459 -0.0019906482202075122 -0.0019911044264194931 0.0019908197477257836 -0.001995721240610147 -0.0019949457285984239 0.0019918122623919167 -0.0019938641906426273 -0.0019946524914686297 -0.0019939375332204664 -0.0019921725980944155 -0.0019913153327466046
leaf_weight=5.2499312162399292 5.4999474585056332 5.2499424070119858 8.2499371916055697 4.9999624490737942 4.9999494850635511 8.4999775290489179 5.249988302588469 4.999904930591585 5.749957323074347 6.7499834001064327 5.2499795109033567 7.4999584853649131 8.7499665915966087 4.9999896138906461 5.9999835491180402 7.2499627023935309 5.499983608722685 9.7499415725469571 6.4999072700738925 5.7499799281358701 9.4999407827854139 5.249982386827468 7.7499793022871044 8.9999662488698977 8.2499366551637632 5.4999853372573879 4.9999695718288404 8.9999688267707807 5.4999778419733047 5.9999681860208502 4.9999853819608697 5.249977394938468 9.4999260902404803 7.4999623894691467 4.9999676495790482 4.9998651295900363 8.9998790025711042 5.4999821931123734 6.9999867975711823 6.2499778717756271 8.7498965561389905 5.9999108761549014 8.7499174773693067 6.4999723285436621 4.9999869614839536 5.9999378025531751 4.9999757260084143 5.4999216198921204 5.9999211579561251 5.4999266117811194 9.7498049885034543 5.9999618381261808 6.7499263137578964 8.499918654561041 4.9999639242887488 9.4999493509531039 7.4999070316553107 6.749969244003295 8.2498403340578061 5.9998738467693329 4.9999329000711432 5.4999511688947678 4.9999786168336842 5.9999251365661603 5.4999472796916953 4.9999169707298279 4.9999292641878181 4.9999062716960907 8.4999094754457456 4.9999534934759131 4.9999013841152182 9.2497833371162397 5.2498830109834653 5.2498891949653617 7.7498257756233215 6.7499613314867037 7.2499484419822693 4.9999110996723175 4.9999466240406036 5.9999516904354149 9.2499050199985486 5.7499080747365952 7.749851256608963
leaf_count=21 22 21 33 20 20 34 21 20 23 27 21 30 35 20 24 29 22 39 26 23 38 21 31 36 33 22 20 36 22 24 20 21 38 30 20 20 36 22 28 25 35 24 35 26 20 24 20 22 24 22 39 24 27 34 20 38 30 27 33 24 20 22 20 24 22 20 20 20 34 20 20 37 21 21 31 27 29 20 20 24 37 23 31
internal_value=0 0.000602726 0.000789466 -0.00150778 0.000867826 0.000671156 0.000802573 0.00118908 0.00109674 0.000583043 0.000878612 0.000539168 0.000725577 0.000120966 0.000506378 0.000257591 -2.62693e-05 0.000179878 0.000662458 0.00085659 0.0011845 9.76301e-05 0.000279819 0.000734774 -0.000961218 -0.00075272 -0.000447546 -6.87855e-05 0.000954393 0.00131314 -8.5426e-05 0.00106253 0.00118943 0.000336884 -0.00099675 0.00148142 0.00157824 -0.000545473 -0.000417003 8.42872e-05 0.00140603 0.00140595 0.00122553 0.00102636 -0.00111795 0.00129833 -0.00131701 0.00155868 0.00168568 0.00152901 0.00127068 -0.0013925 -0.00160299 0.00138935 -0.00181386 -0.00168182 -0.00134828 0.00160197 0.00169552 0.001492 0.00179164 0.000946613 -0.000500847 -0.00193574 -0.00144109 0.00164494 -0.00186474 0.0017916 -0.00191657 -0.00197197 0.00193843 -0.00199313 -0.00199236 -0.0019932 0.00199192 -0.00199387 -0.00199409 0.00199079 -0.00199493 -0.00199387 -0.00199327 -0.00199275 -0.00199105
internal_weight=0 390.246 360.497 155.998 350.247 217.249 176.749 132.998 83.4992 24.7499 64.4994 93.2496 64.4996 28.7499 16.7499 26.9999 19.7499 16.4999 45.7497 34.2497 20.9998 40.4999 31.9999 14.2499 55.9996 37.7498 24.4999 14.5 11.5 58.7493 17.7499 37.4997 32.2498 13.2499 9.99994 68.4989 57.999 11 12 11.5 18.7497 52.7493 32.4997 23.7498 10.2499 17.2498 13.2499 11.4999 48.9991 30.2494 15.2497 18.2498 12.7499 24.7498 99.9988 47.9995 16.9999 15.2499 20.2496 11.9998 14.9997 10.4999 9.99996 51.9993 29.7496 11.4998 30.9996 9.99981 25.9997 46.9994 18.7496 41.9994 24.2496 17.4998 13.7497 32.7496 12.2499 9.99978 11.7499 11.2499 20.9997 11.7498 12.9997
internal_count=2185 1561 1442 624 1401 869 707 532 334 99 258 373 258 115 67 108 79 66 183 137 84 162 128 57 224 151 98 58 46 235 71 150 129 53 40 274 232 44 48 46 75 211 130 95 41 69 53 46 196 121 61 73 51 99 400 192 68 61 81 48 60 42 40 208 119 46 124 40 104 188 75 168 97 70 55 131 49 40 47 45 84 47 52
cat_boundaries=0 1
cat_threshold=8
is_linear=0
shrinkage=0.001


Tree=7
num_leaves=83
num_cat=1
split_feature=11 10 7 5 3 7 2 10 2 5 5 5 9 3 6 4 10 4 3 4 4 7 5 9 3 9 9 9 3 3 10 7 5 10 4 7 4 4 5 7 8 4 10 4 8 6 10 2 8 8 6 9 8 6 9 7 2 4 8 8 2 2 8 3 2 2 10 9 4 5 9 9 2 4 8 6 4 9 3 2 10 9
split_gain=219.848 33.7462 13.3751 19.1999 12.4098 9.05774 8.57726 7.55995 11.1056 7.00347 14.5394 15.914 6.90419 6.85929 6.76301 8.8529 6.59729 6.88533 6.15059 6.10603 7.17057 6.04435 5.80944 5.79233 6.04321 5.64956 7.06525 6.56797 5.22723 13.2285 7.51755 5.99244 5.03205 4.98551 4.78209 4.73071 4.51111 7.21494 5.90332 4.39569 4.50756 4.2069 4.09407 3.99597 3.87568 3.85541 3.81461 3.72265 3.63482 4.50081 3.59312 3.46928 3.32176 3.20109 3.1905 4.52814 3.57097 3.02534 5.10622 2.95223 2.90354 2.84443 2.80484 2.73505 3.13784 2.6746 2.41795 1.88994 1.74958 1.59076 1.18671 1.01395 0.896216 0.863199 0.726741 0.655706 1.61864e-05 1.05029e-05 1.02585e-05 6.72241e-06 6.20977e-06 2.67152e-06
threshold=0 -0.053326926546838342 0.61312100000000014 1235392.0000000002 0.23354412365694807 0.73237050000000015 580052.50000000012 -0.5301044343581679 536630.00000000012 1337728.0000000002 1158400.0000000002 883712.00000000012 0.47299950000000007 0.074542745465116481 0.85987400000000014 0.75423119984297615 -0.59645080422338415 0.5816650226721839 0.094380525348812097 0.086817590543201609 0.18865380447550678 0.56247900000000006 659008.00000000012 0.52861300000000011 0.16049729476338265 0.61424800000000002 0.53380450000000013 0.45345550000000007 0.19741745242445416 0.17079554433440208 -0.53617540371259753 0.52382150000000005 1129184.0000000002 -0.54760377276137973 0.67464191415738073 0.54381500000000005 0.74552691351331701 0.47435913695010251 1230592.0000000002 0.66846250000000007 0.78115250000000014 0.70529752230381282 -0.60720994556578989 0.26876518336896354 0.80840850000000009 0.82185250000000021 0.16096980058120014 192484.00000000003 0.78115250000000014 0.83749450000000014 0.83980200000000005 0.61424800000000002 0.88373050000000009 0.82185250000000021 0.42832050000000005 0.74705100000000013 661416.00000000012 0.3585135432012751 0.75112350000000017 0.74454450000000005 572574.00000000012 675161.00000000012 0.69981950000000015 0.18409825501751212 366697.50000000006 646197.50000000012 -0.59385458627754262 0.50352500000000011 0.75228805216500227 895552.00000000012 0.47847500000000004 0.57384150000000012 1266445.0000000002 0.66721098717752803 0.80604900000000013 0.9111760000000001 0.34016484140584025 0.68254250000000016 0.1336891856594016 528647.50000000012 -0.49873282441146954 0.48933200000000004
decision_type=9 2 2 2 2 2 2 2 2 2 2 2 2 2 2 2 2 2 2 2 2 2 2 2 2 2 2 2 2 2 2 2 2 2 2 2 2 2 2 2 2 2 2 2 2 2 2 2 2 2 2 2 2 2 2 2 2 2 2 2 2 2 2 2 2 2 2 2 2 2 2 2 2 2 2 2 2 2 2 2 2 2
left_child=75 2 4 7 9 6 22 8 -4 10 11 28 -6 21 33 -16 -14 -18 -15 32 -21 35 -3 24 -11 26 27 46 29 30 45 67 -20 42 -29 -8 37 65 -38 -35 70 -25 -5 -23 59 -2 -22 50 54 69 -24 57 -51 -48 -9 56 -56 -7 -59 66 -33 -40 -57 64 -49 -12 -10 -32 -13 -50 -41 -39 -27 -62 -53 76 -1 78 81 -80 -81 -78
right_child=1 5 3 14 12 51 13 48 44 23 36 68 16 18 15 -17 17 -19 19 20 25 43 47 41 -26 72 -28 34 -30 -31 31 60 -34 39 -36 -37 38 71 61 40 -42 -43 -44 -45 -46 -47 53 63 49 52 -52 74 -54 -55 55 62 -58 58 -60 -61 73 -63 -64 -65 -66 -67 -68 -69 -70 -71 -72 -73 -74 -75 -76 -77 77 -79 79 80 -82 -83
leaf_value=-0.0019915964543073656 -0.0016470239301106678 0.0017062282200453285 -0.00073478158171748494 9.4924171930092248e-05 0.0011085849490715728 0.00034769546377604185 5.4180627035146807e-05 0.0010803152867561222 0.00095046717512033271 0.0014514961794155838 -9.3607853507635079e-05 0.00059719959807591103 -0.00056330555770931368 0.0012897499065173995 -0.0014251916144352181 6.9086537352738012e-05 -0.0001632728952551231 0.0010488096777264185 0.0014928601605684684 -0.00071539383380123274 0.0014220082084477432 -0.00016753160354236743 -0.00040310494157108114 -0.00099594912644773476 2.952642082687747e-07 -3.0106727631507124e-06 0.0012768644814153216 0.00024516732209943877 -0.0011978694639100454 0.0011637698400386127 -1.03353184566423e-06 -0.0010357971537615369 0.00039553707889877966 -0.00039984889924178841 -0.0010015069603814448 -0.00097153325208878638 -0.0013017119741631201 -0.0019951575316752121 -0.00059801883183394067 0.0012699699053586096 -1.2437618797086942e-06 0.00028573292143846944 -0.0011264887719625743 0.00092737018026824527 -0.00020025281120454166 -0.00058678958678185563 0.00090447599247091574 0.0018007669996880299 0.0011940689367942738 0.00021869958377957903 0.00079575681940749238 0.0017922514703204787 0.0012656412550438043 -0.00020107751811163714 -0.00066671912300689132 0.00035886232557281371 0.00042430533351543888 0.0016281285272340036 0.00047779457921414011 0.001423069788652691 8.5417356196198932e-05 0.00043327891100302334 0.0013937323661982835 0.00039508356224438431 0.0008174757576451438 -0.001030819464867716 -3.8280968390123955e-07 0.00083142389942410786 0.001423745132320655 0.0019917626603262839 0.00059683486806161594 -0.0013961714364875109 -0.00060175129764746134 -0.00047542355195422857 0.0012654796030506269 -0.0016274494251654382 -0.0019894730073368714 -0.0019911872766746937 -0.0019909216163023031 -0.0019891916994701137 -0.001990350444207581 -0.0019886741730705273
leaf_weight=5.9998822063207617 5.7499236464500383 6.9998401701450339 9.4998893588781375 5.2499485015869141 8.9999180436134321 8.499872177839281 9.2499193996191078 8.7498662322759646 5.7499281764030474 5.4999670833349246 5.2499683648347872 4.9999352991580945 9.7499563097953779 8.4999052137136442 8.7499290853738767 7.249948874115943 9.2499458491802269 9.4998939931392652 7.9998589009046581 6.9999242126941672 5.2498966753482845 5.9999094903469068 4.9999294131994265 4.999946251511572 5.9999458193778992 4.9999398887157422 9.749854624271391 7.9998683631420118 6.2499440163373938 5.9999504536390296 4.9999460726976448 6.249944835901263 8.749865457415579 7.4999702423811021 4.9999604821205139 8.7499255388975126 5.7499592006206539 6.499933645129202 4.9999644607305509 5.4999482184648532 9.499919191002844 5.249957874417305 5.7499504834413475 7.4998653680086136 4.9999431967735282 8.4999479949474317 5.4999372959136945 5.2498852163553265 4.9999101310968417 6.7499163150787336 4.9999187141656876 4.9999043792486173 5.4999019056558609 4.9999407827854156 5.2499531209468859 5.4999107867479307 6.9999222308397293 8.2498035430908185 7.249879151582717 5.249928191304206 5.749955862760542 5.7499627470970154 4.9999074637889862 6.2498804181814185 8.4998118430376035 7.2499179244041443 4.9999371320009232 5.9999260455369949 5.2499440908432007 4.9999013394117355 4.9999593049287796 4.9999527484178543 4.9999542385339737 5.2499718517065048 5.4998874515295029 5.4998789578676215 8.4997545331716555 5.2498914152383795 6.9998487979173687 9.2497185766696948 9.2497664690017682 8.2497278153896314
leaf_count=24 23 28 38 21 36 34 37 35 23 22 21 20 39 34 35 29 37 38 32 28 21 24 20 20 24 20 39 32 25 24 20 25 35 30 20 35 23 26 20 22 38 21 23 30 20 34 22 21 20 27 20 20 22 20 21 22 28 33 29 21 23 23 20 25 34 29 20 24 21 20 20 20 20 21 22 22 34 21 28 37 37 33
internal_value=0 0.000232111 3.21014e-05 0.000260855 -0.000160551 0.0005751 0.000468354 0.000560047 0.000162383 -0.000309541 -0.000416062 -0.000123026 0.000345024 0.000330719 -0.000201655 -0.000748096 0.000103899 0.000450847 0.000485115 0.000390451 0.000230744 -6.50706e-05 0.000885909 0.000207144 0.000694349 0.000367301 0.000541245 0.000291774 -0.00033712 -0.000226199 -0.00042243 -0.000123724 0.000919631 2.54376e-05 -0.000234325 -0.00044443 -0.000886366 -0.00116309 -0.000483853 0.000253029 0.000497859 -0.000339477 -0.000543542 0.000440746 0.000568244 -0.0010146 0.000726016 0.000694502 0.000785699 0.00109512 0.000196325 0.00103689 0.000688754 0.000378022 0.000567142 0.000369768 -4.32772e-05 0.000827143 0.00109007 0.000808399 -0.00049151 -4.63943e-05 0.000851657 0.000943592 0.00119291 -0.000637189 0.000508211 0.000453034 0.00102055 0.00159292 0.000949429 -0.00173473 -0.000302381 -0.000182257 0.00151632 -0.00167273 -0.00199005 -0.00198985 -0.00198969 -0.00199009 -0.00198977 -0.00198908
internal_weight=0 487.244 303.497 138.748 164.749 183.747 149.248 84.2488 30.4996 127.249 105.499 64.9994 37.4997 112.249 54.4996 15.9999 28.4998 18.7498 80.7489 72.249 55.4993 31.4996 36.9993 21.7498 11.4999 48.4994 38.4995 28.7496 54.7495 48.4996 42.4996 28.2497 16.7497 38.4997 12.9998 17.9998 40.4997 23.9998 16.4999 27.4998 19.9998 10.2499 10.9999 13.4998 20.9997 14.2499 15.7498 29.9994 53.7492 22.2496 9.99985 34.4993 12.2498 10.4999 31.4996 22.7497 12.2499 23.9996 15.4997 15.9998 17.2499 10.7499 10.4998 19.9996 13.7497 12.4999 10.7499 10.9999 10.2499 9.99981 10.4999 11.4999 9.99989 10.9999 10.4998 58.9985 53.4986 47.4987 42.2488 25.4993 18.4995 16.7495
internal_count=2185 1949 1214 555 659 735 597 337 122 509 422 260 150 449 218 64 114 75 323 289 222 126 148 87 46 194 154 115 219 194 170 113 67 154 52 72 162 96 66 110 80 41 44 54 84 57 63 120 215 89 40 138 49 42 126 91 49 96 62 64 69 43 42 80 55 50 43 44 41 40 42 46 40 44 42 236 214 190 169 102 74 67
cat_boundaries=0 1
cat_threshold=8
is_linear=0
shrinkage=0.001


Tree=8
num_leaves=84
num_cat=1
split_feature=0 11 10 0 7 0 0 5 2 2 4 10 2 0 7 5 8 0 0 7 5 4 2 0 4 2 2 7 3 2 2 5 3 10 3 3 2 10 2 0 3 0 5 10 2 4 0 5 0 3 10 3 6 0 3 2 10 10 7 3 2 10 8 10 2 2 10 10 2 5 8 5 2 7 10 8 2 8 5 7 10 0 2
split_gain=495.128 171.068 27.2765 26.0381 22.0111 13.7913 12.8677 10.0142 11.0623 8.38455 6.74104 8.76363 6.38265 6.20804 7.78251 5.82595 6.49509 5.74922 6.40544 5.74231 5.71486 5.86839 5.46799 5.31956 5.29191 6.38085 5.07717 5.03747 5.27977 5.02922 4.97893 4.87324 4.55039 5.55322 3.925 3.44351 3.40715 3.62569 3.99324 3.29196 3.25236 3.21289 3.10684 5.73966 4.23085 2.95043 3.77866 2.85423 2.5393 2.33278 4.29272 2.11519 1.95184 1.60531 2.92052 3.5114 1.57443 1.53725 1.4548 1.45449 1.21257 1.26509 0.952873 0.86189 0.819311 0.638989 0.585006 0.514117 0.431129 0.313132 0.175598 2.85716e-05 2.84896e-05 2.08893e-05 2.14606e-05 1.13772e-05 1.47866e-05 1.00419e-05 7.02341e-06 5.93713e-06 4.59911e-06 2.24184e-06 9.46521e-07
threshold=2395.9950000000003 0 -0.053326926546838342 3232.7500000000005 0.74705100000000013 2019.1400000000001 1042.9900000000002 1144544.0000000002 470462.00000000006 625186.00000000012 0.73359768174921147 -0.51623649453625642 879748.50000000012 1253.7950000000003 0.70387600000000006 1378560.0000000002 0.84950800000000004 494.73300000000006 1415.7300000000002 0.67910900000000007 878752.00000000012 0.44885602524939849 1096375.0000000002 1608.5800000000002 0.63801340988313859 807059.50000000012 291192.00000000006 0.59256600000000015 0.17218505277788457 990635.50000000012 628437.00000000012 1196512.0000000002 0.094380525348812097 0.36215184906399034 0.069408519801185536 0.16931625161720032 376710.50000000006 1.9732641071227288 1004345.0000000001 494.73300000000006 0.31803047086232539 760.0870000000001 1105280.0000000002 1.102228579506491 823243.00000000012 0.42838005559582831 1516.6250000000002 1303968.0000000002 1030.97 0.17530509001438668 0.15156949040871531 0.1123911512570732 0.82185250000000021 4086.9050000000002 0.20606057280241566 765609.00000000012 0.1295243378806521 -0.39999253103657767 0.50104100000000007 0.13803220934824501 686639.50000000012 -0.54452032442557319 0.73130600000000012 0.67696320084766182 610424.00000000012 423446.00000000006 0.15156949040871531 2.7406026502942664 407547.50000000006 1252128.0000000002 0.86126500000000006 725056.00000000012 639410.00000000012 0.50104100000000007 -0.58741648967739624 0.68289450000000007 876974.00000000012 0.77813950000000009 724352.00000000012 0.66846250000000007 -0.56399124569709447 1269.9350000000002 940754.00000000012
decision_type=2 9 2 2 2 2 2 2 2 2 2 2 2 2 2 2 2 2 2 2 2 2 2 2 2 2 2 2 2 2 2 2 2 2 2 2 2 2 2 2 2 2 2 2 2 2 2 2 2 2 2 2 2 2 2 2 2 2 2 2 2 2 2 2 2 2 2 2 2 2 2 2 2 2 2 2 2 2 2 2 2 2 2
left_child=1 66 4 19 5 7 36 8 26 45 11 12 -9 22 42 16 17 -13 29 32 21 -10 -11 35 -23 51 -3 28 -7 -19 -21 -12 58 47 -33 41 78 38 49 -36 60 -6 44 -44 -15 -8 -47 57 -28 50 -38 -26 -52 54 68 -56 -51 -34 -2 -22 -41 -62 -37 77 -53 -55 79 -39 -5 72 71 -67 -70 -73 -75 -76 -77 -40 -4 80 -1 -82 -74
right_child=3 2 6 53 23 27 9 10 20 13 31 15 -14 14 -16 -17 -18 18 -20 30 59 24 -24 -25 25 -27 48 -29 -30 -31 -32 34 33 -35 39 62 37 67 63 40 -42 -43 43 -45 -46 46 -48 -49 -50 56 52 64 -54 65 55 -57 -58 -59 -60 -61 61 -63 -64 -65 -66 70 -68 -69 69 -71 -72 73 82 74 75 76 -78 -79 -80 -81 81 -83 -84
leaf_value=-0.0019873863796475771 -0.0011934734818857778 0.00090464074088479596 0.0019877119438610896 -0.0015934329081018508 0.0015594464611374632 -0.00060704523063836817 0.0017843537533128624 -0.0012815514938381953 -2.5988482308487908e-06 -0.00080173337087534964 -0.00028566153908928866 -0.00060001315062023779 0.00019775676802226975 0.00019595071228726914 0.0016480390321697521 0.0011958649042806164 -0.00071301271556885987 0.00048439852858638482 -0.00022313110615336214 -0.0011946096109439301 0.0011922402456709847 0.001742504466700481 0.0005674816520686932 0.00047955982839221101 0.0015324870605044356 -0.00020072055454738855 0.00016651271065905033 -0.001032153627612029 0.00079801243430788248 0.0016599484064333259 5.6318678518560292e-05 -8.8099294854718207e-07 -0.0010911820898661356 -0.00014297761392211599 0.000376157590676709 0.0014677947859420195 0.001798786678607264 0.001041521949785109 0.0019883052394266401 0.0016627248564763182 0.00043124595770719612 0.00073146785654209275 -0.00050266403148481269 0.00078276850427040406 0.0013685719949888668 0.0016084773464365197 0.00039377201401959172 -0.00061213715303364631 -0.00079841176078107806 0.0012746178626847208 0.001158231061207322 0.0010858834464495843 0.00039300973232857353 -0.0015934277827681575 -0.00094277643175088015 -0.0018581025542273313 0.0019895971346261276 -0.0017262626787215199 -0.0018732670835735878 0.0018719651330470935 0.0007780846745781832 0.0014489325652042146 0.0019889475825815369 0.0015456218401227557 0.00054004949006821444 -0.0019926143507701614 -0.0016271973059949194 0.00059346739771160961 -0.0019890392803367141 -0.0017566044845414442 -0.0017922978376136659 -0.0019889410826354477 -0.001991332944731005 -0.0019887991650304649 -0.0019901246712393122 -0.0019907768933582282 -0.001992865905661808 0.0019901212625931725 0.0019893680133668528 -0.001989122940384004 -0.0019889673313939174 -0.0019880203537341883 -0.0019919408932837384
leaf_weight=5.9997561722993877 4.9999322295188895 5.4999522566795376 5.2497952878475171 4.9999319612979916 9.2498180419206637 5.7499606758356112 9.7497171908617037 6.9999527186155301 6.4999576210975638 4.999969467520712 5.2499837130308142 4.9999819546937969 4.9999671280384064 4.9999540299177188 8.7497930824756605 6.2499378323554984 6.9999675750732413 9.2499484568834323 6.7499713748693457 4.9999335706233969 4.9999088048934928 7.9998696893453625 6.9999620020389557 7.2499576807022086 6.4999262839555803 4.9999713450670233 5.9999796748161298 7.2499618530273429 4.999979168176651 5.9999093413352957 8.7499602586030942 5.9999895840883246 7.7499037235975266 6.9999621957540503 9.2499468177556974 5.7498328983783713 5.2498371899128022 5.249944329261778 7.2497372627258319 5.9999593347311082 5.7499589025974265 9.4998945444822294 5.999967783689498 8.2499348372220975 7.9998822659254074 5.2498317509889585 4.9999336749315262 6.4999585151672354 4.9999826550483704 6.9997696280479413 5.9998753517866117 5.4999406784772855 7.4998769611120224 4.9999361485242835 9.499909311532976 7.4998325109481803 5.4998444020748138 7.4998874813318306 8.499809116125105 8.4997531473636609 5.7499519884586334 5.499947637319563 8.999694496393202 6.7498103678226462 5.4999390542507172 5.749902054667472 5.4998743683099738 4.9999324977397919 7.2497655153274598 8.4998322129249555 4.9999155700206748 9.4996926188468915 5.249886140227316 4.9998342990875235 7.7497853785753312 8.2498033344745618 5.7499173730611792 5.2498583048582077 4.9998532235622406 8.2497428655624372 4.9998388886451739 4.9998155832290649 4.9999085068702698
leaf_count=24 20 22 21 20 37 23 39 28 26 20 21 20 20 20 35 25 28 37 27 20 20 32 28 29 26 20 24 29 20 24 35 24 31 28 37 23 21 21 29 24 23 38 24 33 32 21 20 26 20 28 24 22 30 20 38 30 22 30 34 34 23 22 36 27 22 23 22 20 29 34 20 38 21 20 31 33 23 21 20 33 20 20 20
internal_value=0 0.000601946 0.000788332 -0.00150583 0.000592297 0.000442618 0.00115744 0.000534482 0.000831021 0.000846538 0.000326983 8.48812e-05 -0.000665173 0.000619875 0.00082751 0.0003085 0.000145382 0.000367929 0.000587917 -0.000959885 0.00106329 0.000860088 -3.02438e-06 0.00125621 0.00104394 0.000795563 0.000120153 -0.000387975 4.64709e-05 0.000946907 -0.000398562 0.000617782 -0.00114256 -0.00091768 0.000741785 0.0014243 0.0014552 0.00136522 0.00147528 0.000879956 0.00108257 0.00113994 0.000564041 0.000241533 0.000917562 0.00139054 0.00101593 -0.00116701 -0.000272089 0.00125458 0.00103149 0.00108022 0.000733107 -0.00181156 -0.00167969 -0.00134659 0.00158921 -0.00140352 -0.00162149 0.00162021 0.00129968 0.00110605 0.00178579 0.00183357 0.000812967 -0.0019333 -0.0014382 0.000822959 -0.00186236 -0.00191407 -0.00196945 -0.00199054 -0.00199056 -0.00199021 -0.00199067 -0.0019911 -0.00199163 0.00198907 0.00198852 -0.00198843 -0.00198808 -0.00198849 -0.00199163
internal_weight=0 390.244 360.495 155.997 221.498 180.748 138.997 162.749 66.9992 67.9989 95.7494 52.2496 11.9999 47.9995 35.9995 40.2497 33.9998 26.9998 21.9998 55.9993 50.4993 36.9996 11.9999 40.7492 30.4996 22.4998 16.4999 17.9999 10.7499 15.2499 13.7499 43.4997 42.2495 28.7497 38.2498 33.4992 70.9981 60.7485 50.4986 32.2498 22.9998 18.7497 27.2497 14.2499 12.9998 19.9995 10.2498 21.7497 11 31.2492 18.7496 17.4998 13.4998 99.9979 47.9991 16.9997 12.4996 15.2498 13.4997 13.4997 17.2499 11.2499 14.7495 19.2494 10.9999 51.9988 29.749 10.2499 30.9993 25.9994 46.9989 41.9989 17.4996 36.249 26.7493 21.7495 13.9997 12.4996 10.2496 24.2492 15.9994 9.99965 10.2498
internal_count=2185 1561 1442 624 886 723 556 651 268 272 383 209 48 192 144 161 136 108 88 224 202 148 48 163 122 90 66 72 43 61 55 174 169 115 153 134 284 243 202 129 92 75 109 57 52 80 41 87 44 125 75 70 54 400 192 68 50 61 54 54 69 45 59 77 44 208 119 41 124 104 188 168 70 145 107 87 56 50 41 97 64 40 41
cat_boundaries=0 1
cat_threshold=8
is_linear=0
shrinkage=0.001


end of trees

feature_importances:
pre_skeletal_distance_to_soma=111
nuclues_dist=98
fw_similarity=81
post_nucleus_x=72
post_skeletal_distance_to_soma=64
adp_dist=63
pre_test_score=53
post_oracle=51
pre_oracle=46
me_similarity=43
post_test_score=43
compartment=6

parameters:
[boosting: gbdt]
[objective: binary]
[metric: binary_logloss]
[tree_learner: serial]
[device_type: cpu]
[data: ]
[valid: ]
[num_iterations: 2000]
[learning_rate: 0.001]
[num_leaves: 100]
[num_threads: -1]
[deterministic: 0]
[force_col_wise: 0]
[force_row_wise: 0]
[histogram_pool_size: -1]
[max_depth: 20]
[min_data_in_leaf: 20]
[min_sum_hessian_in_leaf: 0.001]
[bagging_fraction: 0.9]
[pos_bagging_fraction: 1]
[neg_bagging_fraction: 1]
[bagging_freq: 0]
[bagging_seed: 7615]
[feature_fraction: 0.8]
[feature_fraction_bynode: 1]
[feature_fraction_seed: 21677]
[extra_trees: 0]
[extra_seed: 32374]
[early_stopping_round: 10]
[first_metric_only: 0]
[max_delta_step: 0]
[lambda_l1: 0]
[lambda_l2: 0]
[linear_lambda: 0]
[min_gain_to_split: 0]
[drop_rate: 0.1]
[max_drop: 50]
[skip_drop: 0.5]
[xgboost_dart_mode: 0]
[uniform_drop: 0]
[drop_seed: 27260]
[top_rate: 0.2]
[other_rate: 0.1]
[min_data_per_group: 100]
[max_cat_threshold: 32]
[cat_l2: 10]
[cat_smooth: 10]
[max_cat_to_onehot: 4]
[top_k: 20]
[monotone_constraints: ]
[monotone_constraints_method: basic]
[monotone_penalty: 0]
[feature_contri: ]
[forcedsplits_filename: ]
[refit_decay_rate: 0.9]
[cegb_tradeoff: 1]
[cegb_penalty_split: 0]
[cegb_penalty_feature_lazy: ]
[cegb_penalty_feature_coupled: ]
[path_smooth: 0]
[interaction_constraints: ]
[verbosity: -1]
[saved_feature_importance_type: 0]
[linear_tree: 0]
[max_bin: 255]
[max_bin_by_feature: ]
[min_data_in_bin: 3]
[bin_construct_sample_cnt: 200000]
[data_random_seed: 1064]
[is_enable_sparse: 1]
[enable_bundle: 1]
[use_missing: 1]
[zero_as_missing: 0]
[feature_pre_filter: 1]
[pre_partition: 0]
[two_round: 0]
[header: 0]
[label_column: ]
[weight_column: ]
[group_column: ]
[ignore_column: ]
[categorical_feature: 11]
[forcedbins_filename: ]
[precise_float_parser: 0]
[objective_seed: 3599]
[num_class: 1]
[is_unbalance: 0]
[scale_pos_weight: 1]
[sigmoid: 1]
[boost_from_average: 1]
[reg_sqrt: 0]
[alpha: 0.9]
[fair_c: 1]
[poisson_max_delta_step: 0.7]
[tweedie_variance_power: 1.5]
[lambdarank_truncation_level: 30]
[lambdarank_norm: 1]
[label_gain: ]
[eval_at: ]
[multi_error_top_k: 1]
[auc_mu_weights: ]
[num_machines: 1]
[local_listen_port: 12400]
[time_out: 120]
[machine_list_filename: ]
[machines: ]
[gpu_platform_id: -1]
[gpu_device_id: -1]
[gpu_use_dp: 0]
[num_gpu: 1]

end of parameters

pandas_categorical:[["apical", "apical_shaft", "apical_tuft", "axon", "basal", "oblique", "soma"]]
