tree
version=v3
num_class=1
num_tree_per_iteration=1
label_index=0
max_feature_idx=11
objective=binary sigmoid:1
feature_names=adp_dist post_skeletal_distance_to_soma pre_skeletal_distance_to_soma fw_similarity me_similarity post_nucleus_x pre_oracle pre_test_score post_oracle post_test_score nuclues_dist compartment
feature_infos=[6.03165:4998.8999999999996] [0:1308170] [0:2329630] [-0.17523579361429603:0.62789165298547855] [-0.45127373625387102:0.99106548183094345] [477312:1451840] [0.61800699999999997:0.95232499999999998] [0.38578000000000001:0.87998600000000005] [0.60007900000000003:0.97772899999999996] [0.35020000000000001:0.88167200000000001] [-0.67001864676510847:6.877537726784654] -1:4:3:5:0:2:1
tree_sizes=8379 9318 8755 8787 9158 8870 9081 9455 8856

Tree=0
num_leaves=81
num_cat=0
split_feature=0 0 0 10 7 10 6 7 8 3 9 9 4 10 2 2 0 2 0 9 10 8 6 10 5 9 8 3 5 2 3 0 2 5 2 10 3 3 10 5 4 3 5 4 6 5 4 5 8 2 4 9 6 5 2 8 8 4 10 4 4 0 6 0 9 3 5 8 4 0 2 6 7 2 2 0 6 2 0 0
split_gain=491.524 40.7365 25.1581 24.0755 16.3285 12.6679 8.88318 11.707 10.5827 7.81538 7.72149 9.07938 7.61723 7.41628 6.61906 9.49822 7.91113 6.37033 6.84294 6.31972 7.78343 6.30348 6.20155 8.70521 5.68174 5.59535 6.18002 10.8696 5.1096 6.9056 5.09697 6.4614 4.82623 10.1907 4.66667 4.58946 4.51108 6.57926 5.59051 5.88235 4.36818 4.21478 4.04739 3.65591 3.60374 3.49091 3.47887 3.47819 3.58659 6.13636 3.28407 3.00991 2.925 2.90429 2.68112 2.67885 2.62811 2.59154 2.56 2.283 3.18391 2.20126 2.04849 1.89641 3.2944 2.18669 2.17391 1.8383 1.56957 1.41551 1.15714 1.01739 0.889381 0.6482 0.561194 0.544527 0.178723 0.136704 2.84217e-14 1.42109e-14
threshold=2402.0150000000008 1780.9100000000001 3223.9500000000003 -0.045564835184119475 0.74705100000000013 -0.045564835184119475 0.83916850000000009 0.6933760000000001 0.85034250000000011 0.2702559571045195 0.39055250000000002 0.43207050000000008 0.76419497462644814 -0.62922317557844898 618020.00000000012 844737.00000000012 436.01350000000008 1432625.0000000002 1571.6650000000002 0.57339800000000019 -0.37007130378065783 0.70916950000000012 0.8543225000000001 -0.52544950437343985 725056.00000000012 0.42120050000000003 0.7466710000000002 0.18522062983539297 657280.00000000012 482369.00000000006 0.2003458897935454 1151.4950000000001 885643.50000000012 1330336.0000000002 786457.00000000012 0.52707389393728665 0.076633340403572073 0.258299887702233 0.21071096218282628 1214976.0000000002 0.21999070185359657 0.11825959604587531 1025088.0000000001 0.87367934347274712 0.78772400000000009 680832.00000000012 0.40359122551372067 1196224.0000000002 0.72340000000000015 1142340.0000000002 0.30058851627068717 0.54984400000000011 0.8675560000000001 1304448.0000000002 587107.50000000012 0.71720650000000008 0.74899450000000012 0.81089572046275815 -0.3572649238833292 0.17246731373447913 0.37246809779793522 614.63350000000014 0.79775800000000008 4077.2150000000006 0.40142450000000002 0.22131775430976072 1178016.0000000002 0.75004950000000015 0.72074910164763417 1010.5500000000001 678225.00000000012 0.83980200000000005 0.52737350000000005 424757.00000000006 963704.00000000012 3801.1200000000003 0.91696850000000019 696614.00000000012 4895.8300000000008 3561.5800000000004
decision_type=2 2 2 2 2 2 2 2 2 2 2 2 2 2 2 2 2 2 2 2 2 2 2 2 2 2 2 2 2 2 2 2 2 2 2 2 2 2 2 2 2 2 2 2 2 2 2 2 2 2 2 2 2 2 2 2 2 2 2 2 2 2 2 2 2 2 2 2 2 2 2 2 2 2 2 2 2 2 2 2
left_child=1 3 28 4 6 13 9 8 19 10 -1 -12 -10 -3 45 16 -16 18 47 20 22 -18 56 43 -7 -15 52 58 -2 71 31 68 33 41 -9 -26 -31 38 39 -38 -19 54 -33 -24 -43 -5 -34 72 -49 -50 -23 -37 -27 -11 -13 -22 -8 61 -28 -47 -61 -21 -42 64 -4 75 -67 -32 -6 -62 -70 -30 -17 -65 -74 79 78 -77 -75 -66
right_child=2 5 63 14 30 24 7 34 12 53 11 32 -14 25 15 17 21 40 -20 57 55 50 23 -25 35 26 27 -29 29 36 67 42 46 -35 -36 51 37 -39 -40 -41 62 44 -44 -45 -46 59 -48 48 49 -51 -52 -53 -54 -55 -56 -57 -58 -59 -60 60 69 -63 -64 73 65 66 -68 -69 70 -71 -72 -73 74 76 -76 77 -78 -79 -80 -81
leaf_value=0.010906181364440638 0.0009061789802542777 -0.015093824834443898 -0.0086590406915761538 0.020906183748626999 0.0092395143004095678 0.014906182318115172 0.0069931369532372795 -0.0095700139936552436 -0.0066800297249905473 0.014506182222747729 -0.013093824357606627 0.0009061789802542777 0.0087322678026609934 0.0065061803153986398 0.014980256409849887 0.014906182318115172 0.010535810905767063 0.01490618231811518 0.0037633225185932377 0.0075728472363785137 0.019306183367157184 -0.0057604892758699629 0.011873923530652227 -0.0053795368040914287 0.0083347521799355707 -0.012843824298001962 -0.0014938215919504476 0.010906181364440638 -0.019093825788118444 -0.013688419093963653 0.012906181841277911 0.0094776095952711584 0.0017061791709891865 0.013763324902779598 0.0037633225185932369 0.0035148752543898501 -0.012035000575751584 -0.015457461284777946 0.0052540061038135648 -0.00027029188847352943 0.0075728472363785181 -0.0010293053521688877 -0.0030938219734202655 0.0009061789802542777 0.0083347521799355742 0.01823951644617729 -0.0081847322780969588 0.018147562401265235 0.0009061789802542777 0.015906182556533813 0.0037633225185932369 -0.0070938229270948085 -0.0030938219734202655 0.0045425434835947714 -0.0074809197935794425 0.010136950411810916 0.01690618279495245 0.020906183748626999 -0.011093823880769351 0.0049061799339288189 0.017706182985687366 0.015906182556533813 -0.0010938214965829939 -0.015093824834443898 -0.019093825788118426 -0.0086590406915761555 -0.017354694938694723 0.020906183748626996 0.0125728484284717 0.010906181364440637 0.019001421389734353 -0.013093824357606624 0.016906182794952443 -0.01909382578811844 0.020906183748626999 -0.01735469493869473 -0.017093825311281171 -0.015093824834443895 -0.01909382578811844 -0.01909382578811844
leaf_weight=6.9999983310699454 4.9999988079071036 4.9999988079071036 5.7499986290931693 8.9999978542327863 5.9999985694885316 4.9999988079071072 5.7499986290931684 5.2499987483024579 7.2499982714652997 6.2499985098838788 4.9999988079071036 7.4999982118606585 5.7499986290931702 6.2499985098838797 6.7499983906745937 4.9999988079071072 6.7499983906745937 4.9999988079071036 5.2499987483024588 5.2499987483024615 6.2499985098838788 7.499998211860655 7.7499981522560066 8.7499979138374382 8.7499979138374346 7.999998092651369 6.2499985098838815 5.9999985694885245 6.4999984502792341 9.2499977946281415 4.9999988079071027 5.2499987483024579 6.2499985098838797 6.9999983310699454 5.2499987483024597 5.7499986290931684 8.4999979734420865 5.4999986886978141 5.7499986290931693 8.4999979734420759 5.9999985694885236 7.7499981522560146 4.9999988079071045 4.9999988079071045 8.7499979138374311 7.4999982118606594 8.2499980330467206 7.2499982714653042 4.9999988079071027 5.9999985694885254 6.9999983310699463 4.9999988079071045 4.9999988079071045 5.4999986886978149 7.749998152256012 6.4999984502792358 4.9999988079071045 5.2499987483024588 4.9999988079071054 4.9999988079071072 6.2499985098838788 7.9999980926513672 4.9999988079071045 4.9999988079071036 11.24999731779099 5.7499986290931684 5.7499986290931702 6.7499983906745911 5.9999985694885236 5.9999985694885254 5.2499987483024597 4.9999988079071045 4.9999988079071072 36.999991178512573 11.749997198581694 5.7499986290931684 4.9999988079071036 4.9999988079071045 4.9999988079071036 8.7499979138374311
leaf_count=28 20 20 23 36 24 20 23 21 29 25 20 30 23 25 27 20 27 20 21 21 25 30 31 35 35 32 25 24 26 37 20 21 25 28 21 23 34 22 23 34 24 31 20 20 35 30 33 29 20 24 28 20 20 22 31 26 20 21 20 20 25 32 20 20 45 23 23 27 24 24 21 20 20 148 47 23 20 20 20 35
internal_value=0.000915332 0.00685902 -0.0142237 0.00830848 0.00619523 -0.000305943 0.00480862 0.00699813 0.00835716 0.00233475 0.000982807 -0.000209701 0.000136948 -0.00367214 0.0118005 0.010374 0.00554904 0.0125797 0.0144973 0.01004 0.00801729 0.00255324 0.0054023 0.00230153 0.00539598 -0.00210752 -0.00388721 3.66136e-05 -0.00872345 -0.00970607 0.011989 0.00963345 0.00100008 0.00284166 -0.00290335 0.00295746 -0.00762716 -0.0056425 -0.00326965 -0.00615265 0.00715618 0.000433738 0.0033452 0.00757285 0.00393648 0.0155728 -0.00392141 0.0159062 0.012687 0.009088 -0.00116279 -0.0014194 -0.00909382 0.00984235 -0.00335612 0.0146317 0.0116039 0.0149602 -0.00576049 0.0136335 0.0116308 0.0126043 0.00363345 -0.0171938 -0.0157605 -0.016727 -0.0130069 0.0175019 0.01337 0.0143756 0.0155728 -0.0164851 0.0186073 -0.0185169 0.0197122 -0.0181182 -0.0188811 -0.0163031 -0.0190938 -0.0190938
internal_weight=0 392.25 154 326.25 203.25 66 164 87 76.5 77 65.25 58.25 13 41.5 123 89.25 28 61.25 45.25 63.5 45 21.25 32.25 21.5 24.5 36.5 30.25 17.25 54 49 39.25 27.5 53.25 38.75 10.5 19.5 37.5 28.25 22.75 17 16 31.75 10.25 12.75 16.5 33.75 14.5 40 18.25 11 14.5 10.75 13 11.75 15.25 12.75 10.75 18.5 11.25 24.75 17.25 13.25 11 100 48 42.25 11.5 11.75 17.25 12.25 11.25 11.5 21.75 52 16.75 30.75 47 10.75 42 20
internal_count=2185 1569 616 1305 813 264 656 348 306 308 261 233 52 166 492 357 112 245 181 254 180 85 129 86 98 146 121 69 216 196 157 110 213 155 42 78 150 113 91 68 64 127 41 51 66 135 58 160 73 44 58 43 52 47 61 51 43 74 45 99 69 53 44 400 192 169 46 47 69 49 45 46 87 208 67 123 188 43 168 80
is_linear=0
shrinkage=1


Tree=1
num_leaves=87
num_cat=1
split_feature=11 1 10 7 1 2 2 1 3 6 3 10 5 9 6 10 2 1 5 5 5 3 6 6 8 10 6 9 2 3 10 2 7 2 10 7 1 3 8 5 10 9 5 2 8 10 6 3 3 1 9 5 8 6 1 9 6 1 2 1 8 2 5 8 5 6 8 3 5 8 10 7 3 6 8 10 6 8 8 6 5 2 10 7 3 9
split_gain=231.117 55.2398 29.9483 24.5848 25.7159 15.5293 13.9654 9.54594 9.86141 9.29188 8.80325 8.36794 7.92059 7.90554 6.69168 6.29661 7.57676 5.83164 5.6864 6.68279 5.4781 5.30237 5.25349 7.81153 5.46411 5.23433 4.92707 5.56969 4.43142 4.33083 6.09042 7.18103 5.4383 4.26579 4.21841 5.38405 7.26377 5.0165 6.19946 4.75176 8.27084 4.08539 4.05431 4.00376 9.84746 4.22087 3.90241 4.09918 5.94717 3.8542 3.75249 3.56151 3.15753 3.14696 3.44253 3.42261 3.13808 3.61687 3.42349 3.62604 2.95692 2.841 2.83824 2.80994 2.61728 2.51875 2.4386 2.8671 2.40797 2.21852 2.06588 1.94484 1.60728 1.3139 0.940147 0.898439 0.493128 0.43979 0.000195055 0.000159829 9.72605e-05 0.000219895 0.000193361 0.000138856 8.78926e-05 8.5304e-05
threshold=0 15423.050000000001 -0.48126895819388243 0.73237050000000015 88400.85000000002 497649.00000000006 330644.50000000006 61887.150000000009 0.11535273638425365 0.77122400000000013 0.06743916597037844 -0.62178156439829346 1017472.0000000001 0.41879950000000005 0.83980200000000005 -0.066117083079432856 1599560.0000000002 146065.50000000003 1325216.0000000002 1235392.0000000002 1214976.0000000002 0.10452889311835696 0.89969750000000015 0.8675560000000001 0.79840900000000004 0.13243463249874005 0.89969750000000015 0.39760850000000009 747832.00000000012 0.30560808599407091 -0.33979031279249822 559254.50000000012 0.56247900000000006 1077745.0000000002 0.30911531836014544 0.50104100000000007 122063.50000000001 0.14544361156931271 0.76122350000000016 741824.00000000012 2.3444333694264867 0.55827900000000008 1196224.0000000002 596221.00000000012 0.71871800000000008 -0.11862702243735582 0.83980200000000005 0.10115120314624156 0.18777134312773361 150769.50000000003 0.46981500000000004 874976.00000000012 0.85686650000000009 0.82802300000000006 38431.30000000001 0.52754750000000017 0.75826400000000016 78981.750000000015 1038885.0000000001 53632.200000000004 0.70009500000000002 863417.50000000012 758368.00000000012 0.70916950000000012 785856.00000000012 0.8543225000000001 0.79172350000000014 0.14782127971836537 843232.00000000012 0.81657650000000015 -0.077151956061127555 0.58595750000000013 0.15345615718269853 0.69436900000000013 0.73165200000000008 -0.23389904981390838 0.9111760000000001 0.75826100000000018 0.69765750000000015 0.76292750000000009 1280352.0000000002 642773.00000000012 -0.527844417782935 0.66846250000000007 0.20186009899128879 0.60471700000000006
decision_type=9 2 2 2 2 2 2 2 2 2 2 2 2 2 2 2 2 2 2 2 2 2 2 2 2 2 2 2 2 2 2 2 2 2 2 2 2 2 2 2 2 2 2 2 2 2 2 2 2 2 2 2 2 2 2 2 2 2 2 2 2 2 2 2 2 2 2 2 2 2 2 2 2 2 2 2 2 2 2 2 2 2 2 2 2 2
left_child=76 70 5 4 15 9 64 8 -7 73 12 -11 62 42 50 26 25 22 19 49 51 -13 23 24 60 63 27 -4 -28 30 65 -32 75 -14 35 36 -12 38 -37 -36 41 -41 -9 -39 -45 -46 56 -48 -49 53 -10 -16 -26 55 -55 -5 -27 58 59 -58 -15 68 -8 -17 -6 66 67 -29 74 -65 77 -52 -24 -3 -56 -33 78 -2 84 -80 81 85 -82 -83 -1 -81
right_child=1 2 3 18 6 7 10 13 14 11 34 21 33 17 20 16 -18 -19 -20 -21 -22 -23 72 -25 52 46 28 29 -30 -31 31 32 -34 -35 39 37 -38 43 -40 40 -42 -43 -44 44 45 -47 47 48 -50 -51 71 -53 -54 54 61 -57 57 -59 -60 -61 -62 -63 -64 69 -66 -67 -68 -69 -70 -71 -72 -73 -74 -75 -76 -77 -78 -79 79 80 82 83 -84 -85 -86 -87
leaf_value=-0.019897859813988669 -0.019940987934589278 -0.011084585543151892 0.010632203399536012 0.0021970946608694292 0.013260961855730646 -0.011546718940850667 -0.0059746619309127089 -0.010470703683938624 0.0099784427164446108 -0.012285454238659987 -1.1598121637975542e-05 -0.0066576061043695121 -0.017156167497925281 0.0057205802377036739 -0.005986085488683973 0.019856614603269127 -0.0012622397933135113 -0.0047101739956634039 0.018521698621409372 -3.6612564803115052e-05 -0.01195280089583289 0.0059251304665387762 0.0085684183462658246 -0.0055953802668663368 -0.0030503252761210731 0.0034184846326013253 0.016296786218837213 0.0085824952172420723 0.0036022780112984769 0.0095018417829208276 -0.013943556454647246 -0.0019710899953066848 0.0066484589702577651 -0.0054769228304909039 -0.0048021501074687542 -0.0020469949734402545 -0.016118497635672378 0.0042623147390520857 0.010540731750987199 0.005435169373950003 -0.0047731777310804756 0.016415880114246363 0.0018152617081434836 0.0045269425821741916 -0.0049793465246063002 -0.016359515320925569 0.010316037442414945 -0.0061902281389396461 0.0077716972215362895 0.002018979855238245 0.0047310829239493035 0.0059497870266472267 0.0072449081813978338 0.0060253174554723548 0.011919385459324338 0.011735186089945981 0.010509200785202049 0.018079979007437623 0.013750859835883721 0.00069169578439802666 0.014386573037865766 0.018848429003291044 0.004327311264186424 0.0075533752127064768 0.0045910861542629742 -0.0019647849088750015 0.011939637034856371 -0.0019984671846008249 0.007147310811555071 0.016089286347115296 -0.0104911255186881 -0.0039835108691225413 0.016304070221523779 -0.017848139682828869 0.017978454722717731 -0.0079660005855388578 -0.01709100863454855 -0.01592524091839179 -0.019879795612735812 -0.019940596203290903 -0.019861431357047297 -0.019940033659213745 -0.019947357045620347 -0.020008127241963207 -0.019845300197083315 -0.019884118339104112
leaf_weight=8.7495362609624845 5.9998393952846545 6.7496929317712766 7.4997032582759848 6.7497550547122946 7.4995736479759199 9.4995912760496122 4.9997923076152819 5.2498349100351316 6.9998039156198528 6.4997909367084494 5.9997679591178876 5.2498280405998257 7.2496333569288236 6.9997100085020092 4.9998294711112994 5.2496795803308514 7.9997257739305487 5.2497653961181632 7.2496749758720389 6.9997340589761725 6.2497413903474799 9.249758303165434 5.2497948706150037 6.2497970610857001 6.4996646046638471 7.249682590365409 5.4997245073318464 5.2499108314514142 5.4997178912162781 5.7497955709695807 4.9997531473636689 4.9998248219490051 6.7498278915882102 5.4997604638338089 5.2497147023677853 7.2497311830520621 5.2497287541627884 6.999710455536845 8.4996471256017667 8.2496687322855013 5.2497805655002585 5.7496809065341941 5.4997964948415756 7.7497175782918957 7.9996896386146528 5.4998327046632767 6.2495355308055904 6.499624237418173 5.7496692389249802 4.9997215867042533 5.2497945725917798 4.9998391568660736 5.4997822940349579 5.7497400641441372 4.9997916370630318 8.4995979070663434 8.4995302259922081 5.499766767024993 9.7495807558298093 6.7496721446514121 8.9996102601289731 9.7493944317102414 5.7496780902147293 7.2496372908353788 6.4997037798166275 4.9998257458209983 4.9998533427715293 4.9997909814119339 6.2496662288904181 5.2496924251317978 5.2497130632400504 4.999842569231987 5.4998122453689575 4.9996659010648727 5.2497017830610275 4.9997903257608431 6.9997269660234442 4.9997821003198624 7.2495866864919654 4.9998478442430514 4.9996944814920425 6.2497797608375532 5.4998276829719526 5.7498398274183273 4.9996532201766959 5.7497314959764481
leaf_count=35 24 27 30 27 30 38 20 21 28 26 24 21 29 28 20 21 32 21 29 28 25 37 21 25 26 29 22 21 22 23 20 20 27 22 21 29 21 28 34 33 21 23 22 31 32 22 25 26 23 20 21 20 22 23 20 34 34 22 39 27 36 39 23 29 26 20 20 20 25 21 21 20 22 20 21 20 28 20 29 20 20 25 22 23 20 23
internal_value=0 0.00242388 0.00310224 0.0047245 0.00336258 -0.000836241 -0.000137028 0.00105484 -0.0025537 -0.0068415 -0.00140789 -0.00285714 -0.0067871 0.00359857 -3.46025e-06 0.0061304 0.00798288 0.00526369 0.010162 0.00913903 -0.00460837 0.00136933 0.00642731 0.00451304 0.00676942 0.00898238 0.00383754 0.0026207 0.00994954 0.00136235 0.000248019 -0.00342642 -0.000287023 -0.012118 0.000177199 -0.00135436 -0.0075281 0.000224145 0.00474637 0.00363104 0.00593098 0.00994506 -0.00418488 -0.00229709 -0.00445782 -0.00961573 0.00748833 0.00372569 0.00036333 0.0103683 0.00433448 -1.81435e-05 0.00166835 0.0112518 0.0130335 0.00751338 0.00933224 0.010738 0.00912273 0.00616373 0.0105952 0.0145686 -0.000464341 0.013717 0.00923564 0.00419461 0.00621407 0.00342112 0.0120397 0.0111384 -0.0156524 0.000480045 0.0125262 -0.0139627 0.0150228 -0.00496853 -0.0168395 -0.0181157 -0.0199113 -0.0199223 -0.0199316 -0.0199432 -0.0199064 -0.0199727 -0.0198787 -0.0199104
internal_weight=0 484.979 468.73 331.985 265.488 136.745 117.245 103.996 42.9984 32.7487 103.246 20.9994 23.4989 60.9976 33.4989 148.243 81.9958 50.2479 66.4968 59.2471 16.2494 14.4996 44.9982 34.2486 27.9988 73.9961 66.2475 55.2481 10.9994 47.7484 41.9986 21.7492 16.7494 12.7494 79.7467 55.2478 11.2495 43.9983 15.7494 24.4988 19.2491 13.9993 10.7496 28.249 21.2492 13.4995 56.2471 18.4988 12.2493 52.2474 17.2494 9.99967 11.9994 47.2476 31.9983 15.2494 37.7482 30.4985 24.9988 15.2492 15.9993 26.2486 10.7495 17.749 13.9993 20.2494 15.2496 10.2497 16.4992 12.4993 16.2493 10.2496 10.7496 11.7494 10.2495 9.99962 61.2472 10.9996 54.2475 40.4983 33.2487 22.7492 10.4995 11.9996 13.7492 10.7496
internal_count=2185 1940 1875 1328 1062 547 469 416 172 131 413 84 94 244 134 593 328 201 266 237 65 58 180 137 112 296 265 221 44 191 168 87 67 51 319 221 45 176 63 98 77 56 43 113 85 54 225 74 49 209 69 40 48 189 128 61 151 122 100 61 64 105 43 71 56 81 61 41 66 50 65 41 43 47 41 40 245 44 217 162 133 91 42 48 55 43
cat_boundaries=0 1
cat_threshold=8
is_linear=0
shrinkage=0.01


Tree=2
num_leaves=82
num_cat=1
split_feature=0 11 10 0 0 7 6 7 0 7 2 6 10 0 3 5 7 0 8 8 7 3 5 2 5 7 8 10 4 5 2 2 10 2 3 5 7 8 10 0 7 5 0 3 3 2 2 4 6 10 4 5 0 3 5 4 8 3 2 6 2 4 2 8 4 6 2 5 5 5 8 2 2 2 0 7 10 3 0 3 6
split_gain=478.703 172.982 25.5824 24.5434 23.7651 18.6214 7.11474 10.2287 8.43839 7.17374 6.78609 6.61887 8.09546 6.48507 6.42175 5.51501 6.18141 5.45962 5.04678 8.05227 6.07097 7.5777 4.94556 6.715 4.39609 4.45192 4.06916 4.02389 6.15102 4.01521 4.00845 4.00612 3.96055 5.7429 4.8218 4.60716 3.44213 4.87902 3.33882 4.24344 7.28679 3.20542 3.58924 4.5821 4.59148 3.11846 5.58988 3.41585 2.93926 2.74133 2.53069 2.34912 1.85116 2.73845 3.80622 1.70994 1.67068 1.58487 1.51934 2.13131 1.44196 1.21454 1.15583 1.02368 0.963013 0.650283 0.622119 0.53938 0.509858 0.367768 0.177239 0.0968192 0.000262528 0.000250586 0.000233925 0.000228289 0.000226115 0.000203844 0.000195178 9.92589e-05 7.03496e-05
threshold=2402.0150000000008 0 -0.05611200865522336 3223.9500000000003 1694.1750000000002 0.74705100000000013 0.83916850000000009 0.6933760000000001 451.81100000000009 0.61312100000000014 1738410.0000000002 0.86338450000000011 -0.46588850846378577 901.54750000000013 0.049806002426594928 704320.00000000012 0.70387600000000006 205.12400000000005 0.73655900000000007 0.68127800000000016 0.63788000000000011 0.17281452869021335 657280.00000000012 482369.00000000006 1349024.0000000002 0.62455250000000018 0.77479750000000014 -0.527844417782935 0.88776955235118471 1245824.0000000002 847281.50000000012 382534.00000000006 2.3444333694264867 979729.50000000012 0.1874385138581213 818656.00000000012 0.64654500000000015 0.68736400000000009 1.0226077506594862 1667.6450000000002 0.50787000000000015 704320.00000000012 586.48800000000017 0.18057434480175719 0.086142240882600585 715527.50000000012 470561.00000000006 0.44249714635330045 0.76449350000000005 -0.46588850846378577 0.37246809779793522 1044096.0000000001 4077.2150000000006 0.20474438285320717 1220736.0000000002 0.69420824816300286 0.7466710000000002 0.1459824434896051 649977.00000000012 0.89969750000000015 622583.50000000012 0.57833758213344455 438478.50000000006 0.78615550000000012 0.67837054823418586 0.89918400000000009 424757.00000000006 1140960.0000000002 1245248.0000000002 1249920.0000000002 0.88045600000000013 582462.00000000012 1099445.0000000002 640903.00000000012 1805.5750000000003 0.54381500000000005 -0.38626092571219711 0.14081893360711323 3734.2400000000002 0.15479167358644355 0.86006600000000011
decision_type=2 9 2 2 2 2 2 2 2 2 2 2 2 2 2 2 2 2 2 2 2 2 2 2 2 2 2 2 2 2 2 2 2 2 2 2 2 2 2 2 2 2 2 2 2 2 2 2 2 2 2 2 2 2 2 2 2 2 2 2 2 2 2 2 2 2 2 2 2 2 2 2 2 2 2 2 2 2 2 2 2
left_child=1 65 4 22 5 6 8 9 17 10 11 -8 27 31 -10 60 36 -3 19 -6 21 -20 -2 63 25 30 -27 28 -13 58 -25 -4 33 34 35 -33 37 -17 39 40 -39 71 -43 44 -44 46 -16 -47 -48 -49 -18 -14 53 62 -55 -19 -36 -40 -11 -60 -15 -37 -5 -24 -32 74 -54 -35 -69 73 72 -7 75 -64 77 80 -77 -1 -75 -78 -68
right_child=3 2 13 52 18 41 7 -9 14 29 -12 12 51 15 45 16 50 55 20 -21 -22 -23 23 24 -26 26 -28 -29 -30 -31 64 32 -34 67 56 61 -38 38 57 -41 -42 42 43 -45 -46 47 48 49 -50 -51 -52 -53 66 54 -56 -57 -58 -59 59 -61 -62 -63 69 -65 -66 -67 70 68 -70 -71 -72 -73 -74 78 -76 76 79 -79 -80 -81 -82
leaf_value=-0.019771812135749106 -3.4743527309806824e-05 0.0049464813170074775 0.019728588306181054 -0.013777707661436038 0.001855701611337223 0.017802317058148002 -0.0040234906066149555 -0.0021701494258750719 -0.0021624118789411099 0.019820406931221484 0.017790349676755638 0.011111678244309416 0.0090968398981722317 0.017398960639672726 0.002972918620629531 0.013533352869607076 0.0078530946385642376 -0.010857705110429008 -0.0076841004305098024 -0.01191532504317964 0.0085152610817524812 0.0072152058502959514 -0.019777874786825824 -0.0074485024533524052 -0.00076915538044116695 -0.010995590538772509 9.0283201823606631e-05 -0.0047531617094470338 -0.002818832024033375 0.0070297698328223267 -0.019861872848417575 0.00066717252637117554 0.0055877991841549284 0.019707715243744667 0.019745469692803132 0.0081467382521305774 -8.0845294206860225e-05 -0.010061002916535593 0.0058913751564648896 0.0091239552304011231 0.0059970498884438506 0.018274770140301672 0.012561567695302525 0.01659951870201486 -8.8381313287393579e-05 0.0092414973017023432 0.0084888342298743442 0.005381996598903073 0.017362078907010633 -0.0047206351494482133 0.016642878110195634 0.016855942478153054 -0.015829034421205746 -0.0087742814337275384 -0.018420713212403798 -0.0028787855086904019 0.01184117570144892 0.013853763231905118 0.018076684889088809 0.0094662382522986959 0.0112695859514152 0.014578702665378909 -0.019730197680950117 -0.013758793761131148 -0.013860909137751582 -0.015841651775787155 -0.019689010694376032 0.014053362888100893 0.018243644268174944 -0.017187595116570888 -0.017759539415648114 0.019770398138167101 -0.019796876569377866 -0.019770703919378654 -0.019738989055800165 -0.019715778233575589 -0.019760942698188257 -0.019839120200955528 -0.019853140791251975 -0.019819928228848444 -0.01973557395457369
leaf_weight=8.9987099468708127 4.9998913854360572 5.9996427446603802 9.2481384426355344 4.9991437345743206 8.2496362179517764 4.9993343800306302 6.2496609240770331 8.9996393471956235 8.9994779229164106 6.4993292242288652 4.9993910789489737 7.9993698298931069 9.2492483407259005 8.4984677881002408 8.2496539056301135 9.499204605817793 4.9995991736650458 5.4997391253709775 8.999407574534418 8.7492771744728071 8.7493899613618833 5.499567672610282 6.4989286810159665 7.2491085082292619 6.2496266961097708 6.7494793981313688 6.4994189888238907 5.2497663348913219 5.2498588114976883 6.9994325637817374 5.7494618594646436 6.2495010495185914 6.9994584172964087 8.2479643970727938 5.7489468753337842 5.9992655515670759 7.4995891749858847 4.9997600913047844 4.9996519386768323 6.4995460063219062 6.4992063343524933 6.7488440126180675 5.4992238134145754 6.2491143345832816 5.999727338552475 7.4996566325426128 6.9996796548366529 5.4996905475854883 7.9994748681783676 5.2497947365045521 9.4987543970346433 6.7492404133081427 4.9994839429855338 8.9993764013052004 7.4985442459583274 5.2497712522745132 4.9994694143533707 4.9995601177215576 5.7494345754384977 5.7494617253541946 6.9991837292909613 5.7492325901985168 6.9985181838274064 4.9989954084157944 4.999564528465271 4.9995830059051505 8.4977105259895307 5.2490280419588071 6.4990712702274323 7.7486540526151648 4.9990713745355597 4.9991848170757294 9.7487894743680936 6.748892202973364 7.498540222644805 6.9983705878257707 6.2488979697227531 8.9992678165435773 4.9996232241392136 5.2493724972009659 5.2489027827978125
leaf_count=36 20 24 37 20 33 20 25 36 36 26 20 32 37 34 33 38 20 22 36 35 35 22 26 29 25 27 26 21 21 28 23 25 28 33 23 24 30 20 20 26 26 27 22 25 24 30 28 22 32 21 38 27 20 36 30 21 20 20 23 23 28 23 28 20 20 20 34 21 26 31 20 20 39 27 30 28 25 36 20 21 21
internal_value=0 0.00586584 0.00775949 -0.0149414 0.00586096 0.00740267 0.00585093 0.00787125 0.00345514 0.00914866 0.0067947 0.00544561 0.00716106 0.0113211 0.00549526 0.00931738 0.00793331 -0.00269568 -0.00109101 -0.00523219 0.00193697 -0.00203268 -0.0095086 -0.0104754 -0.00842537 -0.00995667 -0.00555727 0.00265609 0.00559187 0.0134565 -0.0131952 0.0136332 0.0126219 0.013632 0.0107692 0.00760419 0.00610364 0.00734057 0.00523945 0.0026655 -0.000985005 0.0140149 0.0120674 0.00970702 0.00596129 0.00715595 0.00958467 0.00406184 0.0132212 0.00044811 0.0136118 0.0123702 -0.0178754 -0.0164591 -0.0131587 -0.00696102 0.0160689 0.00987253 0.0159558 0.0137715 0.0146308 0.0112943 -0.018188 -0.0171609 -0.0170707 -0.0144131 -0.0191827 0.0177476 0.0163714 -0.0190201 -0.0195395 0.0187863 -0.0197514 -0.0197776 -0.0197859 -0.0197377 -0.0197606 -0.0198055 -0.0198058 -0.0197879 -0.0197068
internal_weight=0 392.212 361.716 153.978 221.733 181.486 146.99 79.7438 67.2466 70.7442 45.7465 40.7471 34.4975 139.983 50.4974 74.9925 59.4949 16.7492 40.2473 16.9989 23.2484 14.499 53.9945 48.9946 37.4967 31.247 13.2489 18.499 13.2492 24.9977 17.9981 64.9901 55.7419 48.7425 28.7464 17.998 44.9965 37.4969 27.9977 17.9985 11.499 34.4954 24.4969 17.7481 11.499 41.498 23.2488 18.2491 14.9992 10.7495 14.4984 15.9985 99.9834 47.9928 16.4979 10.7495 10.7484 9.99921 17.9982 11.4989 15.4977 11.7485 31.4948 11.4979 10.749 30.4961 51.9906 19.9961 11.7481 26.4957 46.9911 9.99852 41.992 18.747 25.4965 32.2433 18.4966 17.998 11.7485 11.4983 13.7466
internal_count=2185 1569 1447 616 887 726 588 319 269 283 183 163 138 560 202 300 238 67 161 68 93 58 216 196 150 125 53 74 53 100 72 260 223 195 115 72 180 150 112 72 46 138 98 71 46 166 93 73 60 43 58 64 400 192 66 43 43 40 72 46 62 47 126 46 43 122 208 80 47 106 188 40 168 75 102 129 74 72 47 46 55
cat_boundaries=0 1
cat_threshold=8
is_linear=0
shrinkage=0.01


Tree=3
num_leaves=82
num_cat=1
split_feature=11 1 10 7 1 2 2 4 1 3 6 3 10 9 6 4 10 2 1 7 3 6 6 4 4 2 10 2 4 4 10 7 2 8 2 8 2 4 1 8 2 9 2 6 3 3 9 7 8 3 6 3 1 2 3 9 4 2 4 6 1 2 1 8 9 2 8 10 7 4 4 1 6 8 8 8 3 4 3 9 4
split_gain=222.502 53.7999 28.9039 23.6911 24.9284 15.064 13.5471 10.3525 9.26817 9.60078 9.00037 8.54678 8.15307 7.65398 6.54079 6.3889 6.048 7.37669 5.65487 5.2871 5.17115 5.13572 7.58561 6.97315 5.13225 9.06522 5.07584 4.95602 4.86628 8.89422 7.61501 6.72612 7.22595 7.24448 6.58346 7.76574 5.28993 4.28576 4.14325 3.9319 3.89514 6.76529 4.65898 3.76206 3.99062 5.78296 3.66507 3.50824 3.47094 4.94606 3.3458 4.34399 3.17688 5.49103 3.69502 5.20456 3.32026 3.09312 3.08357 3.03374 3.52956 3.30386 3.53897 2.69085 2.48995 2.41851 2.13452 1.99885 1.8941 1.89065 1.38285 1.33079 0.473787 0.432227 0.425436 0.000161545 0.000105218 8.97054e-05 0.000122732 7.79128e-05 7.22317e-05
threshold=0 15423.050000000001 -0.48126895819388243 0.73237050000000015 88400.85000000002 497649.00000000006 330644.50000000006 -0.074211783879490054 61887.150000000009 0.11535273638425365 0.77122400000000013 0.06743916597037844 -0.62178156439829346 0.41879950000000005 0.83980200000000005 0.7149816037291864 -0.066117083079432856 1599560.0000000002 146065.50000000003 0.64654500000000015 0.10452889311835696 0.89969750000000015 0.8675560000000001 0.63742616585194389 0.36676828417857021 1007875.0000000001 0.13243463249874005 969316.50000000012 0.077284463538618245 0.22711897129578493 0.30911531836014544 0.61312100000000014 649977.00000000012 0.76773500000000017 792287.00000000012 0.71871800000000008 798094.00000000012 0.55430641062915564 45572.600000000013 0.75574900000000012 885643.50000000012 0.49225900000000006 465058.50000000006 0.83980200000000005 0.10115120314624156 0.18777134312773361 0.46981500000000004 0.60165700000000022 0.77952200000000016 0.14404348158264188 0.83916850000000009 0.14081893360711323 38431.30000000001 863417.50000000012 0.14681561683984631 0.52454250000000013 0.40975941323150894 699273.00000000012 0.72074910164763417 0.75826400000000016 78981.750000000015 1038885.0000000001 53632.200000000004 0.70916950000000012 0.55289700000000008 678225.00000000012 0.81657650000000015 -0.077151956061127555 0.58595750000000013 0.77955794944147816 0.87693425320420926 98830.800000000017 0.9111760000000001 0.75826100000000018 0.78615550000000012 0.73817200000000016 0.22858699857450429 0.66721098717752803 0.18522062983539297 0.60471700000000006 0.67201362588506763
decision_type=9 2 2 2 2 2 2 2 2 2 2 2 2 2 2 2 2 2 2 2 2 2 2 2 2 2 2 2 2 2 2 2 2 2 2 2 2 2 2 2 2 2 2 2 2 2 2 2 2 2 2 2 2 2 2 2 2 2 2 2 2 2 2 2 2 2 2 2 2 2 2 2 2 2 2 2 2 2 2 2 2
left_child=72 67 5 4 16 10 15 -5 9 -7 70 19 -12 47 46 -6 24 26 21 27 -14 22 23 -15 25 39 63 37 57 -30 31 32 33 -31 -34 -36 -33 -8 -16 -4 42 -42 -26 59 -45 -46 -11 -10 49 -44 51 -25 -9 54 56 -56 -54 -13 -32 -28 61 62 -61 -18 -43 -58 -65 73 -48 -23 -3 -55 75 -2 -57 76 80 79 -79 -77 -1
right_child=1 2 3 7 6 8 11 52 13 14 12 28 20 18 38 -17 17 -19 -20 -21 -22 69 -24 50 40 -27 43 -29 29 30 58 36 34 -35 35 -37 -38 -39 -40 -41 41 64 48 44 45 -47 68 -49 -50 -51 -52 -53 53 71 55 74 65 -59 -60 60 -62 -63 -64 66 -66 -67 -68 -69 -70 -71 -72 -73 -74 -75 -76 77 -78 78 -80 -81 -82
leaf_value=-0.019512355125789065 -0.019696526093574633 -0.016700357691377649 0.0011977708125775306 -0.0015243477097962714 0.0038576129354733302 -0.011389552327037446 -0.014512357562033944 0.0056728133642030007 -0.0094392698684591242 0.0098681824165314288 -0.012123034334448042 0.011107673477393146 -0.0065712715794257401 -0.0040417293665020579 -0.00042841687663818325 0.017813547202056086 0.019505500162776912 -0.0012771289947597865 -0.0046362382514503909 -0.015818644870506222 0.0058554713755808513 0.016273875270429547 -0.0055225140219271399 0.00068883660559594293 4.7714120135463803e-06 0.0102440521264342 0.0033564474567116987 0.0018685252572493082 -0.010536260014473523 -0.006580403425671566 0.010120202838508575 -0.0020882900409733992 -0.016488149897155802 0.0092148303400585475 0.006009301036838677 -0.0096145495064192642 0.012285128316855017 -0.0018516005525718096 -0.010736388215432364 -0.0085029124894461742 0.010275304316923041 -0.0079742943291473134 1.3430044881828326e-05 0.010169377740838934 -0.0061145361352387155 0.0076545275375390597 0.0046760564581337502 0.0020148751478903208 0.015799611825212792 0.012333470036543889 0.014473527410900669 0.011299916534876539 0.013762188593196374 0.01959566808732224 0.0065033115168865556 0.019679469243402876 -0.00012518933789426492 0.0016649226476253833 0.00079382330461189932 0.010344661966907275 0.017807952173246103 0.013505403219848746 0.00064491428568223905 0.0074552979905495595 0.0017771566052451066 0.0085882225430396822 0.015829296307397933 -0.010386128347032248 -0.0039244933087731696 0.0078648803689264132 -0.0097605440044526131 0.013754601686343916 -0.016777445953116431 -0.015714917364484916 0.015648292817378399 -0.019592686427787873 -0.019481999731518217 -0.019514881008709972 -0.019568727917048077 -0.019548191907947716 -0.019554862545035256
leaf_weight=7.9948263764381426 5.998183488845827 6.7472726255655271 7.9982360452413621 6.9987416863441458 8.7477837949991208 9.4977586120367032 5.7479847967624718 8.4977663159370405 5.7490910887718183 6.9990913569927242 6.4988777935504904 5.748582959175109 5.2492454797029522 4.9987645000219372 9.7476217299699801 5.2482574284076682 5.246538162231448 7.9987850636243811 5.2491048127412787 4.9990452677011481 9.2488027662038785 5.7485391795635206 6.2492056190967551 7.2487056255340603 5.499118626117709 6.2487824559211722 7.2488190084695807 7.7485276311635962 8.4987806081771833 5.2489409446716326 9.2481823414564115 4.9987521171569806 5.9988278597593334 6.4989549517631531 4.999326989054679 8.7482423037290555 5.2494981586933136 4.9989123642444611 6.4993195235729209 8.7485226243734342 6.2490246593952206 4.9990424513816816 5.4990315884351748 6.2478733062744167 6.4987530559301359 5.7483847290277481 5.24926510453224 4.9992813616991043 7.4984887689352027 7.9982584118843079 7.4982900172471991 8.2479809224605543 4.9988086670637157 9.2454735487699491 6.7480924427509335 5.4981942623853666 6.4982975721359235 8.7477861046791059 5.7487611621618262 8.4974871873855644 5.4978180527687064 9.7464466094970685 6.7488907128572455 7.2483556866645795 5.4987470954656601 6.2484034299850464 5.2476948499679565 5.2488255798816672 4.9994195252656937 4.9988027065992355 4.9983870685100555 6.7470520585775366 6.9973270893096915 4.9984279870986938 4.9976945221424103 8.9958645403385145 5.2462306916713706 8.9942879676818865 7.9958622157573691 6.9960661828517905 7.9955306500196457
leaf_count=32 24 27 32 28 35 38 23 34 23 28 26 23 21 20 39 21 21 32 21 20 37 23 25 29 22 25 29 31 34 21 37 20 24 26 20 35 21 20 26 35 25 20 22 25 26 23 21 20 30 32 30 33 20 37 27 22 26 35 23 34 22 39 27 29 22 25 21 21 20 20 20 27 28 20 20 36 21 36 32 28 32
internal_value=0 0.00237824 0.00304747 0.00464139 0.00330437 -0.00082201 -0.000141493 0.00997988 0.00104064 -0.00251524 -0.00673719 -0.00139323 -0.00281585 0.0035473 1.15596e-06 0.00909083 0.00602978 0.00784559 0.0051859 -0.00669403 0.00135617 0.00633186 0.00443906 0.00666284 0.00378252 -3.45726e-05 0.00883199 -0.00422777 0.00016869 -0.000995848 0.000433173 -0.00176269 -0.00405251 0.00215755 -0.00774711 -0.00393291 0.00527426 -0.00862321 -0.00455195 -0.00386988 0.00581241 0.00203734 0.00819854 0.00736065 0.00366592 0.000348188 0.00429006 -0.00411172 0.0103446 0.00731407 0.00898985 0.00633649 0.0113335 0.0122771 0.0100583 0.0133549 0.0068549 0.00540948 0.00654513 0.00917133 0.0105538 0.008958 0.00605102 0.0134953 -0.00286648 0.00414611 0.0109719 -0.0154633 0.000480615 0.0123627 -0.0137471 0.0171314 -0.0165266 -0.0178867 0.01776 -0.0195424 -0.0195209 -0.0195562 -0.0195402 -0.0195732 -0.0195336
internal_weight=0 484.885 468.64 331.917 265.438 136.723 117.225 66.4785 103.98 42.9925 32.7426 103.229 20.9969 60.9878 33.4947 13.996 148.213 81.9758 50.2394 23.4945 14.498 44.9903 34.2429 27.9937 66.2373 22.9955 73.9771 18.4954 79.7346 65.2383 56.7395 41.7425 31.4943 11.7479 19.7464 13.7476 10.2483 10.7469 16.2469 16.7468 43.2417 16.7468 26.4949 56.2345 18.495 12.2471 17.2478 10.7484 20.9958 13.4973 22.995 15.4967 59.4798 50.982 34.9895 17.244 17.7455 14.4964 14.9969 37.7395 30.4906 24.9928 15.2464 17.7426 10.4978 12.7467 12.4961 16.2454 10.2487 10.7473 11.7457 15.9925 61.216 10.9966 10.4959 54.2187 21.2366 32.9821 16.9902 15.9919 15.9904
internal_count=2185 1940 1875 1328 1062 547 469 266 416 172 131 413 84 244 134 56 593 328 201 94 58 180 137 112 265 92 296 74 319 261 227 167 126 47 79 55 41 43 65 67 173 67 106 225 74 49 69 43 84 54 92 62 238 204 140 69 71 58 60 151 122 100 61 71 42 51 50 65 41 43 47 64 245 44 42 217 85 132 68 64 64
cat_boundaries=0 1
cat_threshold=8
is_linear=0
shrinkage=0.01


Tree=4
num_leaves=86
num_cat=0
split_feature=0 1 1 0 0 10 10 6 1 0 10 8 3 1 6 2 5 10 1 6 5 0 9 0 7 3 10 2 6 6 5 1 9 6 5 9 3 10 5 3 3 2 10 2 2 6 7 0 9 5 10 7 2 9 9 0 9 3 5 8 9 3 2 9 10 7 1 1 8 2 0 0 1 8 5 9 2 1 1 10 1 10 1 7 3
split_gain=466.464 83.2202 52.8075 24.573 23.9482 14.7549 12.6871 12.1717 10.9698 10.5363 11.0001 8.40351 7.02134 10.5573 6.96648 6.96165 6.07684 5.97498 8.74793 5.70693 4.87542 10.3845 6.69986 4.86447 4.79227 5.32634 5.94281 4.71684 4.90319 4.52325 6.27079 4.34346 4.17344 4.16856 4.08835 4.67236 5.95787 4.17983 3.75041 5.18468 3.46394 4.8053 3.45713 3.36014 5.86428 3.1637 2.94821 2.46159 2.20105 2.18053 2.12007 1.86827 6.28503 2.04726 3.69046 1.80357 3.1299 2.09382 2.00633 1.78352 1.76728 3.54716 1.60346 1.58085 1.54853 1.0928 2.30464 0.982039 0.876127 0.599793 0.515841 0.46624 0.447365 0.174955 0.148382 0.143517 0.11044 0.00343669 0.00214845 0.00146353 0.000881839 0.000993446 0.000764626 0.000407623 0.000236671
threshold=2402.0150000000008 192956.50000000003 15423.050000000001 1667.6450000000002 3223.9500000000003 -0.48126895819388243 -0.045564835184119475 0.83764050000000012 88400.85000000002 1475.7450000000001 0.098773573409342078 0.88696850000000016 0.14161024219187202 49941.400000000009 0.81245950000000011 909843.00000000012 1154592.0000000002 -0.62042148150545762 100153.00000000001 0.83117250000000009 1228416.0000000002 1359.3750000000002 0.67470700000000006 333.07400000000001 0.67910900000000007 0.11047341265627687 0.36180176993177704 451551.00000000006 0.86006600000000011 0.88977750000000011 758368.00000000012 244476.00000000003 0.47914100000000009 0.89969750000000015 1245824.0000000002 0.52179900000000001 0.2003458897935454 -0.17794214184185839 1129184.0000000002 0.1124819514435132 0.10268724980206857 838830.00000000012 0.52707389393728665 497649.00000000006 783238.00000000012 0.82802300000000006 0.54893700000000012 2725.0050000000006 0.5420060000000001 1305856.0000000002 -0.36231811634394678 0.57357500000000006 686015.50000000012 0.60993600000000014 0.66162450000000017 4077.2150000000006 0.40142450000000002 0.22131775430976072 1178016.0000000002 0.77527050000000008 0.52998000000000012 0.14681561683984631 530132.00000000012 0.50507250000000015 -0.57975512179111954 0.6933760000000001 64605.600000000013 85073.150000000009 0.73655900000000007 424757.00000000006 3801.1200000000003 586.48800000000017 311891.50000000006 0.88045600000000013 1072256.0000000002 0.43497800000000003 576247.50000000012 188462.50000000003 122063.50000000001 -0.045564835184119475 117338.00000000001 -0.47410237510981063 64605.600000000013 0.5152405000000001 0.15479167358644355
decision_type=2 2 2 2 2 2 2 2 2 2 2 2 2 2 2 2 2 2 2 2 2 2 2 2 2 2 2 2 2 2 2 2 2 2 2 2 2 2 2 2 2 2 2 2 2 2 2 2 2 2 2 2 2 2 2 2 2 2 2 2 2 2 2 2 2 2 2 2 2 2 2 2 2 2 2 2 2 2 2 2 2 2 2 2 2
left_child=1 2 50 5 24 12 17 8 14 10 31 34 13 -4 38 -16 42 -5 29 -20 51 22 40 -14 25 68 46 -25 63 30 -19 -3 -32 -30 35 -10 -37 -36 60 -40 -22 -42 -8 -15 45 -45 59 -26 -41 -18 -1 52 62 65 -55 56 -6 70 -59 -27 61 -7 -9 -29 -65 75 -67 -48 -2 -57 78 -68 -11 77 -72 -53 -62 80 82 -77 81 -71 -58 -83 -85
right_child=4 9 3 6 55 7 16 20 11 72 -12 -13 23 43 15 -17 49 18 19 -21 21 -23 -24 27 47 26 -28 28 33 -31 32 -33 -34 -35 37 36 -38 -39 39 48 41 -43 -44 44 -46 -47 67 -49 -50 -51 -52 53 -54 54 -56 69 57 58 -60 -61 76 -63 -64 64 -66 66 71 -69 -70 73 74 -73 -74 -75 -76 79 -78 -79 -80 -81 -82 83 -84 84 -86
leaf_value=-0.017906343874242021 -0.019631862172210045 -0.0053402150100744748 -0.0083193739262773271 -0.010602006867371042 -0.0093307972036272731 0.017279812466185138 0.016966981201918505 0.012800429967922111 0.013599317892475307 -0.019523726502031068 0.0042773674348040571 -0.0079366411269322125 -8.5523089754666929e-05 -0.0017841906959321597 -0.00080006983754015782 0.01210929394962963 -0.0019998132958176005 -0.0078954387466072112 0.001052755968022146 -0.012506380288330189 0.019624815795604104 -0.0029895301075144125 0.0019107692163243609 0.00086948173886010837 0.0010328272699989178 -0.0034844935545701706 0.00012430383161419071 0.010401036240484874 -0.00082657787436914187 0.012227877901252274 0.012220398260614185 -0.017773994194933175 0.0011097238840129461 0.010277778880061286 -0.0058954114957101133 -0.00012867206255188669 0.012770695727802012 0.0059908637179439082 0.0021659757852843051 0.0089261801665188011 0.003765628257480788 0.016122493726377096 0.0072810815658967097 0.0053845008426095286 -0.00080523928411815133 0.015520609066646691 -0.017826319524229858 -0.0075843799423128203 0.016941419963435959 0.0064838291237866094 -0.0094073950037521902 0.017504655212020312 0.0026596210224281553 0.0056078343503961027 0.016274432627579577 -0.015648920743551228 -0.019486787329438992 -0.0093780277393550847 -0.017734027060393311 -0.011738097107990593 0.01758228914318918 0.0069712837454192177 0.019692280148437595 0.019684690276665247 0.01240789065997981 0.0095903256960914816 0.01542859627751284 -0.011701658614311286 -0.014304154388698231 -0.019490005674661467 -0.017886514659911441 0.019492061557187558 -0.015543490863397527 -0.017523910197827387 -0.015530376323693362 0.019648233632331126 0.019636267309677494 -0.019316813770827189 -0.019366438718251604 0.019419531793579869 -0.019462391698528529 -0.019552807335535077 -0.019644474457557758 -0.019615916729229233 -0.019709087616349468
leaf_weight=5.996843159198761 5.2473582625389081 5.4982569813728386 7.7490699440240887 5.4974350631237021 5.7485536038875571 8.4962653815746325 7.4965095967054385 8.7461508959531802 9.7471262812614459 6.4947917461395246 6.9958642423152915 4.9984171986579886 6.4990098029375067 5.4992830902338055 8.7472726404666918 7.9959078282117835 5.498221740126608 4.9988811910152497 5.747753292322157 6.7489342242479324 8.7458001226186806 5.2491693943738928 4.9992363899946204 5.7488804161548606 5.2489867508411399 5.4982854872942024 5.9984231889247885 7.4975019991397884 5.2492841929197303 5.2490316778421393 5.2493567764759055 5.7451850175857544 9.497311517596243 9.4967090338468534 4.9989310801029205 9.4973339438438398 5.7474257797002783 7.2479483038187009 6.248102247714999 6.4978282898664457 4.9985084980726233 8.4963279217481595 7.2476507425308228 5.499148905277254 6.2475044727325431 6.997806042432785 5.4977146536111814 8.9971146583557111 7.2473428547382355 6.7480472475290298 5.7486937940120679 4.9964630901813534 5.2488518655300131 4.997226506471633 9.2432405203580839 4.9978534281253806 4.9963114857673698 5.7487051188945753 5.7451698780059814 4.9980691969394684 4.9974350333213788 5.4980936646461478 5.4980313926935187 6.2474894523620579 5.4979741573333749 4.9966087192297008 4.9954212605953199 4.9979605078697205 7.4959902763366699 8.4935121238231606 5.7471930384635908 6.4950515925884247 4.9961313307285309 4.9963878095149985 4.9967349469661713 5.9977731704711923 5.4976000487804413 7.9895551502704611 6.9918691217899314 5.2449872344732258 8.9923244267702085 5.4967773258686163 7.9969930648803711 5.9974358528852445 4.9987379908561707
leaf_count=24 21 22 31 22 23 34 30 35 39 26 28 20 26 22 35 32 22 20 23 27 35 21 20 23 21 22 24 30 21 21 21 23 38 38 20 38 23 29 25 26 20 34 29 22 25 28 22 36 29 27 23 20 21 20 37 20 20 23 23 20 20 22 22 25 22 20 20 20 30 34 23 26 20 20 20 24 22 32 28 21 36 22 32 24 20
internal_value=0 0.00579096 0.00711057 0.00780927 -0.0147525 0.00913123 0.00250773 0.0105567 0.00815859 -0.010293 -0.0055678 0.00423823 0.00544294 0.00184137 0.0108631 0.00536495 0.00788137 -0.000866107 0.000561491 -0.00626996 0.0130642 0.00988946 0.0123713 0.00793499 -0.00938543 -0.0111695 -0.00865378 0.00924672 0.0106636 0.00397705 0.00178371 -0.0116936 0.00506478 0.00632485 0.00587242 0.00819189 0.00473452 0.00113912 0.0129326 0.00971898 0.0147226 0.0115455 0.0122058 0.00508906 0.00710555 0.0110603 -0.0111621 -0.00440936 0.0131523 0.00267492 -0.0137466 0.0146162 0.0120137 0.0156964 0.0125313 -0.0176516 -0.0162534 -0.0171959 -0.0135547 -0.00741463 0.0155562 0.0132298 0.0154606 0.0139885 0.0162785 0.0170736 0.01526 -0.0149098 -0.016498 -0.0189424 -0.0185578 0.0177255 -0.0177932 -0.0192928 -0.0167907 0.0189148 0.0186582 -0.0195034 -0.0195078 0.0195415 -0.0195473 -0.0195779 -0.0195838 -0.0196231 -0.0196583
internal_weight=0 392.096 362.366 350.621 153.914 280.642 69.9791 202.412 103.463 29.7302 18.2393 42.2372 78.2297 31.9928 61.2258 16.7432 26.9904 42.9887 37.4913 12.4967 98.9488 32.489 27.2399 46.2368 53.9799 39.7338 26.9905 39.7378 33.989 24.9946 19.7455 11.2434 14.7467 14.746 37.2388 24.9919 15.2448 12.2469 44.4827 19.9933 22.2406 13.4948 14.7442 24.2437 18.7445 12.497 20.992 14.2461 13.7452 12.2463 11.7455 66.4598 19.493 46.9668 14.2405 99.9341 47.9715 42.223 11.4939 10.4964 24.4894 13.9944 14.2442 19.243 11.7455 32.7263 16.4871 10.4957 12.7433 51.9626 30.7291 11.4905 11.4909 46.9647 10.7439 16.2392 10.495 41.9683 19.9852 11.2428 33.9788 24.9865 12.9933 16.493 10.9962
internal_count=2185 1569 1450 1403 616 1123 280 810 414 119 73 169 313 128 245 67 108 172 150 50 396 130 109 185 216 159 108 159 136 100 79 45 59 59 149 100 61 49 178 80 89 54 59 97 75 50 84 57 55 49 47 266 78 188 57 400 192 169 46 42 98 56 57 77 47 131 66 42 51 208 123 46 46 188 43 65 42 168 80 45 136 100 52 66 44
is_linear=0
shrinkage=0.01


Tree=5
num_leaves=83
num_cat=0
split_feature=1 1 10 1 7 3 2 5 6 4 5 5 2 6 10 2 6 3 9 2 2 3 7 2 5 2 7 5 7 6 3 1 2 1 10 4 4 8 2 4 1 7 9 5 2 8 4 10 9 7 5 1 8 10 5 1 10 7 1 1 1 5 3 10 10 2 8 6 8 5 3 1 10 10 1 9 5 8 9 5 10 7
split_gain=110.98 50.9906 32.7492 21.486 18.1506 14.6828 13.0432 11.0616 10.8297 10.4346 10.1734 9.81933 9.28896 10.5645 9.00741 10.0418 9.00256 8.51476 8.20117 7.73819 8.68312 6.99691 7.76764 6.89992 6.47646 8.37684 6.29759 8.43423 5.7207 5.57648 5.54311 5.34505 5.30582 4.96339 4.9468 6.11283 4.81734 4.71114 5.26941 4.65333 4.63229 6.41576 10.8423 4.41434 4.18838 5.02513 4.03454 3.89636 6.95889 5.53364 5.37185 7.0557 5.49168 4.96324 3.79089 4.7172 4.67685 3.78757 4.3328 5.31513 3.55263 3.54905 3.30813 4.2692 3.14706 3.36541 3.13816 3.7587 2.87765 2.87595 2.52031 2.2745 2.04365 1.63075 1.58889 1.5368 1.51454 1.01858 0.547719 0.456264 0.00107668 7.65422e-05
threshold=170747.50000000003 15423.050000000001 -0.48126895819388243 91929.300000000017 0.74794850000000013 0.14161024219187202 330644.50000000006 1378784.0000000002 0.81245950000000011 0.39509242870914058 1017472.0000000001 1172992.0000000002 465058.50000000006 0.75403650000000011 -0.062148091191808773 1599560.0000000002 0.77968550000000014 0.13144766709345404 0.41782600000000009 786457.00000000012 661959.50000000012 0.2702559571045195 0.57357500000000006 1095760.0000000002 1144544.0000000002 1084975.0000000002 0.51789900000000011 831360.00000000012 0.65948400000000007 0.78772400000000009 0.17740551485282638 72972.35000000002 820077.50000000012 29771.650000000005 -0.61551443237810044 0.74375788603090054 0.41515943100821612 0.65340900000000013 177852.50000000003 0.89539904673626036 244476.00000000003 0.55296200000000006 0.57924350000000013 1299392.0000000002 640903.00000000012 0.73165200000000008 0.53140258102427562 -0.024448734597855355 0.38582700000000009 0.50104100000000007 971872.00000000012 111498.00000000001 0.70763300000000007 -0.11271614139178571 1072256.0000000002 73349.250000000015 -0.26417522976758084 0.70103700000000002 108776.00000000001 60713.100000000013 74524.950000000012 764800.00000000012 0.093730415796916752 -0.32152199092270922 -0.024448734597855355 876816.00000000012 0.82873200000000014 0.82185250000000021 0.77801200000000004 886944.00000000012 0.24601175148671398 44406.250000000007 -0.077151956061127555 0.29390818184327078 82661.500000000015 0.38175250000000005 1310432.0000000002 0.70599250000000013 0.47143150000000006 1230592.0000000002 -1.0000000180025095e-35 0.55296200000000006
decision_type=2 2 2 2 2 2 2 2 2 2 2 2 2 2 2 2 2 2 2 2 2 2 2 2 2 2 2 2 2 2 2 2 2 2 2 2 2 2 2 2 2 2 2 2 2 2 2 2 2 2 2 2 2 2 2 2 2 2 2 2 2 2 2 2 2 2 2 2 2 2 2 2 2 2 2 2 2 2 2 2 2 2
left_child=1 72 5 11 6 8 46 47 34 10 -2 21 39 -14 19 33 -15 57 75 20 30 22 26 76 28 31 44 36 -20 -12 -13 70 61 -16 -3 -36 -28 -24 -39 -7 41 -11 -43 -25 45 -4 -5 48 -8 -50 51 -49 -52 62 55 56 -40 58 59 -10 73 -6 -51 -64 -58 -66 67 -54 -59 -46 -26 -23 79 -35 -62 -18 -21 -75 -42 -1 81 -80
right_child=9 2 3 4 32 12 7 -9 17 40 29 14 13 16 15 -17 18 -19 24 23 -22 71 37 43 25 -27 27 -29 -30 -31 -32 -33 -34 60 35 -37 -38 38 54 -41 78 42 -44 -45 69 -47 -48 50 49 53 52 -53 66 -55 -56 -57 64 68 -60 -61 74 -63 63 -65 65 -67 -68 -69 -70 -71 -72 -73 -74 77 -76 -77 -78 -79 80 -81 -82 -83
leaf_value=-0.019366948694571402 0.0017805277426282914 -0.017134541213603579 0.0033808356468856202 0.0034451826388623469 0.011549760988342444 -0.011704118777392981 0.0058903811059113952 0.011192526865301118 -0.001616220495552906 -0.019331467630212811 -0.0036856763541749968 -0.0060978128284388698 0.012892156466581237 -0.011730819272361609 -0.00024365645706957457 -0.0050342103285420763 -0.0019196935115634553 -0.014129237150153696 0.016603278341960067 0.006052165180488238 -0.014623309235817044 0.009551821373975606 0.016890636500654303 -0.0066477843545742956 -0.0017044162855921602 0.010440805189775342 0.00042912153562083623 0.0090687128739209873 0.0040560236039857327 -0.017001464676607358 0.0064977425056732246 0.0037192779665747985 0.016577605695048941 0.016129940635573048 -0.013886464444454934 -0.00054461653566180445 -0.011114813455111181 0.017660622557280525 -0.0010332516973406277 0.00011381661633412766 -0.015538095467594016 -0.014209400112614401 0.0039909193999312954 0.0045927158152308401 0.0083226362651704962 0.015395844225210713 0.015705410930273899 -0.0040473193048454334 -0.013280113820300164 -0.009674190629511345 -0.011204252878300167 0.010041931431575281 -0.002500043780011495 -0.012822268361604992 -0.00011490417332779492 0.01552486141015302 0.01477541119221777 2.2643920318012855e-05 -0.0054268598804661341 0.0093576036788853116 0.0016819567842321327 -9.6058063081280075e-05 -0.0054405645533707279 0.004172771564846741 0.0017438497756114375 0.011226577777266935 -0.0071718600417214401 0.0083922747019086058 -0.010462854397423445 -0.0018145382076139131 -0.011175199109561542 0.018153264539913703 -0.010162707553920323 0.007486684797885077 0.0096571753785842339 -0.0097618527848348634 0.013020823083325295 0.013660022884739496 -0.019170466643516675 -0.015379088242701238 -0.019369948367046971 -0.019223896620535471
leaf_weight=6.7422350943088549 8.7444623559713381 8.2433417141437548 5.4962959140539196 5.4966743737459165 4.9949622750282305 7.4951620548963529 4.9989664405584326 5.7478914111852637 8.2466562539339119 7.4891767501831081 4.9960385710000983 7.246669530868532 8.7451691776514036 4.9966732263565055 4.9970571398735038 5.9982151389122 4.9978542476892454 5.2479853183031073 6.4966031312942496 6.4979995638132113 5.7479970455169669 4.9963745325803739 7.7426360994577399 6.7470793426036817 5.497841224074369 7.4960047751665106 9.7445890754461306 7.4948404729366294 8.2458444684743863 8.4888022541999799 6.7470317184925079 9.2447370141744596 7.2404609322547904 8.9911359548568779 6.9945210963487607 6.7462901473045349 5.7468024492263785 5.4949042648077002 6.2454457581043199 5.998177170753479 5.2425650954246548 9.4892910271882993 4.9965739846229544 7.245764821767807 5.2475634068250638 9.4933780580759031 5.245552271604538 6.247488632798194 9.492917984724043 4.9965618699789038 6.9950834214687374 8.2455015182495099 7.9960127323865908 5.7471611499786439 5.9955270588397971 7.4925699532032004 6.2447764724493018 4.9984608888626081 6.2470707893371573 9.495917007327078 4.9962735027074796 5.4962379932403564 8.9954153001308459 9.4962945580482465 7.7453397810459226 7.2419093102216721 5.4980816543102256 5.2469923198223114 5.494329646229744 5.9969716519117355 5.7470479905605316 7.9914253950119019 5.2473307996988288 5.7466018199920637 4.9961057007312775 4.9977089315652847 5.9971069395542145 4.9966372847557068 5.2400219887495076 4.9942484050989151 5.4934030771255467 5.4906793981790543
leaf_count=27 35 33 22 22 20 30 20 23 33 30 20 29 35 20 20 24 20 21 26 26 23 20 31 27 22 30 39 30 33 34 27 37 29 36 28 27 23 22 25 24 21 38 20 29 21 38 21 25 38 20 28 33 32 23 24 30 25 20 25 38 20 22 36 38 31 29 22 21 22 24 23 32 21 23 20 20 24 20 21 20 22 22
internal_value=0 0.00166745 0.00229142 0.00405638 0.000665387 -0.00171433 -0.000981197 -0.00222819 -0.00537869 -0.0121928 -0.00662036 0.00602695 0.00111394 0.00264966 0.00348443 0.00691374 0.00109783 -0.00226261 0.00231361 0.00046368 -0.00427537 0.00792604 0.00705725 0.00399574 0.00422119 0.00139547 0.00418135 0.000360021 0.00958526 -0.0120681 -2.4894e-05 -0.00191371 0.00999298 0.00897764 -0.0110102 -0.00733605 -0.0038533 0.00966879 0.00846527 -0.00645071 -0.0150442 -0.0118167 -0.00793161 -0.000827236 0.00752958 0.0109903 0.00943199 -0.00314701 -0.00521333 -0.00664657 -0.000901017 0.00396848 -0.00364321 -0.00449262 0.00723185 0.00849143 0.00657355 -0.000456596 0.00173528 0.00425703 0.0105277 0.00544863 -0.0024545 -0.0005037 0.00881111 0.00632595 -0.000821065 0.00181559 -0.00546787 0.00291625 -0.00654475 0.0148443 -0.0153505 0.0129877 0.0056695 -0.00584072 0.00939682 0.0103579 -0.0183481 -0.01767 -0.0192561 -0.0191978
internal_weight=0 480.198 463.215 321.541 118.178 141.673 100.447 89.7044 61.7146 65.671 22.2293 203.363 79.9588 66.4655 86.9517 40.722 57.7203 39.7304 52.7236 46.2296 19.7417 116.411 103.424 26.488 42.7281 27.9856 49.2204 22.9862 14.7424 13.4848 13.9937 20.4896 17.7317 34.7238 21.9842 13.7408 15.4914 54.2031 46.4605 13.4933 43.4417 21.975 14.4859 13.9928 26.2342 14.9897 10.7422 83.9565 43.7273 38.7284 40.2292 14.493 25.7362 29.2354 40.9656 34.97 27.4775 34.4824 23.9896 17.7426 29.7268 10.4912 23.4883 18.4917 21.232 14.9872 18.7411 13.243 10.4928 11.2445 11.2449 12.9878 16.9838 19.7344 9.99238 9.99556 12.4951 10.7432 21.4667 11.7365 16.2241 10.7307
internal_count=2185 1922 1854 1287 473 567 402 359 247 263 89 814 320 266 348 163 231 159 211 185 79 466 414 106 171 112 197 92 59 54 56 82 71 139 88 55 62 217 186 54 174 88 58 56 105 60 43 336 175 155 161 58 103 117 164 140 110 138 96 71 119 42 94 74 85 60 75 53 42 45 45 52 68 79 40 40 50 43 86 47 65 43
is_linear=0
shrinkage=0.01


Tree=6
num_leaves=85
num_cat=1
split_feature=0 11 1 0 0 5 10 10 2 2 2 10 3 5 10 1 0 10 9 8 8 10 2 1 6 10 1 1 5 2 9 3 3 10 5 5 8 1 9 9 1 5 8 9 3 0 0 10 0 0 1 0 9 3 5 6 0 2 3 2 5 3 1 10 6 2 0 8 5 10 1 1 1 10 10 6 10 10 0 2 1 10 1 0
split_gain=454.313 163.148 51.0413 23.3741 19.5403 12.656 8.79897 8.39414 6.12173 5.80206 7.36893 7.05391 5.92633 5.55296 6.85874 5.35624 5.32718 6.25222 5.4617 9.84274 7.95189 5.28595 6.94631 5.03234 8.15483 6.39408 4.92683 4.79342 4.73095 6.49182 4.32362 4.23173 6.3171 5.25504 5.63087 3.60752 3.48188 9.38221 6.23706 5.49766 4.47492 3.02776 3.00223 2.40094 2.34777 2.30416 2.04283 1.91242 1.77214 4.08918 2.06852 1.76935 3.04288 2.05745 1.9373 1.56908 1.49259 1.44927 1.4218 1.18583 1.14107 1.07459 1.01521 0.823495 0.622049 0.578458 0.501495 0.165995 0.150172 0.129008 0.00646979 0.003699 0.00286278 0.00162421 0.00161179 0.00138819 0.00100587 0.000986168 0.000944854 0.000833217 0.00083282 0.000656393 0.000620917 0.000511053
threshold=2402.0150000000008 0 15423.050000000001 3223.9500000000003 1667.6450000000002 1154592.0000000002 -0.034508797782689525 -0.045564835184119475 1755275.0000000002 282814.00000000006 477971.00000000006 0.034753005816526107 0.14404348158264188 709888.00000000012 0.52707389393728665 104431.50000000001 499.78900000000004 -0.2432387990754333 0.54296250000000013 0.83041550000000008 0.66622300000000012 -0.31114171696222426 674222.50000000012 100153.00000000001 0.83117250000000009 -0.56230346483036242 43347.150000000009 138145.50000000003 657280.00000000012 482369.00000000006 0.45247450000000006 0.076633340403572073 0.258299887702233 0.21071096218282628 1214976.0000000002 1158400.0000000002 0.8086310000000001 90089.450000000012 0.52998000000000012 0.61354100000000011 36527.80000000001 1172992.0000000002 0.62674950000000018 0.59203400000000006 0.21213398166893357 249.40550000000002 1130.0250000000003 -0.36231811634394678 946.36300000000017 1091.9150000000002 91929.300000000017 4077.2150000000006 0.40142450000000002 0.22131775430976072 1178016.0000000002 0.81543300000000019 1010.5500000000001 1191785.0000000002 0.13265605879941786 816394.50000000012 1350592.0000000002 0.18387407192314428 91660.000000000015 -0.37782476723549413 0.89918400000000009 424757.00000000006 3801.1200000000003 0.88045600000000013 1072256.0000000002 -0.31114171696222426 168112.50000000003 122063.50000000001 215912.00000000003 -0.045564835184119475 -0.38265771458666115 0.84581450000000014 -0.030254914420748444 -0.44994914076199405 633.42200000000014 726684.50000000012 114876.00000000001 -0.49479387277193504 241704.00000000003 4628.0600000000004
decision_type=2 9 2 2 2 2 2 2 2 2 2 2 2 2 2 2 2 2 2 2 2 2 2 2 2 2 2 2 2 2 2 2 2 2 2 2 2 2 2 2 2 2 2 2 2 2 2 2 2 2 2 2 2 2 2 2 2 2 2 2 2 2 2 2 2 2 2 2 2 2 2 2 2 2 2 2 2 2 2 2 2 2 2 2
left_child=1 64 47 28 5 9 8 23 16 43 11 12 -11 -9 35 26 21 18 20 55 -18 22 -7 25 -25 -6 -8 -17 -2 62 -22 -31 33 34 -33 -15 40 38 -38 -39 -12 -27 -42 73 -32 -44 60 -3 58 -50 59 52 -5 66 -55 -20 -19 -16 63 -51 78 -40 -30 -47 72 -53 71 70 -68 -60 74 77 81 -4 79 -71 -74 -54 -28 -67 83 -1 -72 -76
right_child=3 2 4 51 7 6 15 13 -10 10 36 -13 -14 14 57 27 17 56 19 -21 30 -23 -24 24 -26 41 46 -29 29 31 44 32 -34 -35 -36 -37 37 39 61 -41 42 -43 45 -45 -46 48 -48 -49 49 50 -52 65 53 54 -56 -57 -58 -59 69 -61 -62 -63 -64 -65 -66 67 68 -69 -70 75 82 -73 76 -75 80 -77 -78 -79 -80 -81 -82 -83 -84 -85
leaf_value=-0.01926664011440879 5.2546307737783328e-06 -0.017434451808938392 0.019434801677398281 -0.0092182647150428516 -0.0037016488148949832 -0.0034087057984295605 0.0072222750347783436 0.017383827416040071 0.015810811011630514 -0.0079873423737789155 0.0063375547899303655 0.01268363546013928 0.0063791889482748033 0.017518662314151751 -0.0024818498324163862 -0.0021769985621413641 -0.0067434664781243978 0.016352905397754698 0.010743522684289006 0.00048279275584658374 0.011041061137475185 -0.0061948209772438199 0.0095187679409903664 0.0048862864113201898 -0.011481285866435558 0.010747913250196171 0.019242320846498299 0.011672628940793357 -0.019392123362067592 -0.014065444218838445 0.0060201195254778843 -0.012498216727700752 -0.015890763236920676 0.0043207252128017824 -0.00098450724889143711 0.0056451198020586067 0.0035373041886610779 0.0085717842134949759 0.014077798327635621 -0.0042303368298826456 0.0067456992253493841 0.0025409532507972765 0.0081028484905604475 0.011803427843461736 -0.0024015895325926375 0.011671869146297956 0.01048628870868787 -0.0091819401549357582 0.0057037331104062283 0.01949703045384046 0.011147110956523857 -0.015473908857936383 -0.019267932553346603 -0.0092600325450213836 -0.017473682457004657 0.018002739033703943 0.0092910254546506796 0.0045246020017754773 0.017388480328395822 0.013477846504556454 0.013674957724179333 0.01927417358211898 -0.013394708549795615 0.016627298293303922 -0.015362258686199667 -0.019161310034795442 -0.017684925026922104 -0.017329694463526241 -0.015313802715302314 0.019439008272062533 -0.019115083392446448 -0.019076677676820929 -0.01906700760621954 0.019203691558142947 -0.019378943078514701 0.019216197144027839 -0.019240474544615156 -0.019442753584835076 0.019426870565576022 -0.019323155525655215 -0.019274606407895818 -0.019421232296148699 -0.018957276881937338 -0.019503145683190209
leaf_weight=5.4915416240692139 4.9990882575511923 5.4915198534727097 5.2446917444467553 5.7471897453069678 9.2452681958675367 7.2476571798324647 9.7425471395254153 4.9940431714057949 5.4949358701705924 4.9987679123878497 8.9949284940958005 7.4907120317220679 6.7466218322515488 5.2446840852499026 6.7477294504642469 4.9987947493791562 7.4973526895046261 6.245747506618498 5.4982242435216921 8.2473942488431913 7.9981654137372997 7.2477467954158774 9.7454412728548032 5.2482720613479596 7.2476898580789566 8.7472930699586922 6.2397632002830559 4.9972786158323288 6.4924140870571119 9.2407346367835981 6.4977779239416105 8.4933885484933942 5.4955774098634711 5.7486892491579047 8.4970781207084638 4.9968058466911316 4.9954857677221325 7.2433152347803098 9.2416682243347186 6.2477281987667084 5.4944431930780402 9.2477743625640851 5.2447218298912039 6.4934592545032492 6.7477599084377289 6.2465348988771439 5.4961250722408286 5.7466410249471647 5.7460555136203793 9.4918168634176272 8.2445323914289457 4.9955729544162741 5.9907151460647583 5.747270390391348 5.7391784489154816 6.4949983954429626 5.7468488067388535 5.2486317157745361 4.9939744621515265 4.9955908507108679 5.244040682911872 6.9893169552087775 4.9931488633155823 7.240750804543497 4.994012549519538 6.487047538161276 5.7437086552381498 4.9928552061319342 4.9929334670305252 5.245082616806032 4.9887861758470518 6.9825330674648276 9.2275549322366732 7.236941024661065 8.9895946085453087 5.9891533404588699 5.2416282594203905 6.9937037080526405 4.9949631839990616 6.2414947301149368 4.9922371208667746 5.4946988970041328 4.9846312999725342 5.246229648590087
leaf_count=22 20 22 21 23 37 29 39 20 22 20 36 30 27 21 27 20 30 25 22 33 32 29 39 21 29 35 25 20 26 37 26 34 22 23 34 20 20 29 37 25 22 37 21 26 27 25 22 23 23 38 33 20 24 23 23 26 23 21 20 20 21 28 20 29 20 26 23 20 20 21 20 28 37 29 36 24 21 28 20 25 20 22 20 21
internal_value=0 0.00571574 0.00755407 -0.0145642 0.00843614 0.00958457 0.00732857 0.00357821 0.00558056 0.0115649 0.010821 0.00510085 0.000264879 0.00785491 0.00571496 0.0111298 0.00492088 0.00649737 0.0049129 0.00889201 0.00211064 0.000955452 0.00400512 0.000647326 -0.00460695 0.00305762 0.0131415 0.00474676 -0.00926129 -0.0102074 0.00523545 -0.00819157 -0.00626916 -0.00394382 -0.00674011 0.0117256 0.0117978 0.0091638 0.0133082 0.0026431 0.0129713 0.00653031 0.013837 0.0167351 0.00172979 0.0144511 0.0157657 -0.0132145 0.0150233 0.0132407 0.0151459 -0.0174298 -0.0160445 -0.0169744 -0.013364 0.0146748 0.0129689 0.000583603 0.0167316 0.0174215 0.0175266 0.0163154 -0.0167849 0.0143322 -0.0139935 -0.0187089 -0.0183251 -0.0190533 -0.0165823 0.0187258 -0.0192586 -0.0192623 -0.0192223 0.0193008 -0.019328 0.0193202 -0.0191298 -0.0193621 0.0193244 -0.0192407 -0.0193857 -0.019344 -0.0190362 -0.0194247
internal_weight=0 391.936 361.486 153.816 350.248 283.28 132.424 66.9682 90.7101 150.856 131.881 19.2361 11.7454 27.2319 22.2379 41.7135 85.2151 60.9743 48.9817 20.2406 28.7411 24.2408 16.9931 39.7363 12.496 27.2403 31.7174 9.99607 53.9601 48.961 21.2437 37.4755 28.2347 22.7392 16.9905 10.2415 112.645 34.7175 21.2265 13.491 77.9276 17.9951 68.9327 18.9751 13.2455 63.4382 21.9749 11.2382 58.1935 28.478 22.7319 99.8557 47.9372 42.19 11.4864 11.9932 11.9926 11.9964 29.7155 14.4874 16.4788 16.231 11.4856 13.4873 30.4494 51.9184 30.7036 46.9229 10.7366 16.2282 41.93 19.967 25.4554 12.4816 31.9566 11.2342 14.4692 12.9844 11.2347 12.7285 19.2281 10.9862 9.97342 14.2358
internal_count=2185 1569 1447 616 1402 1134 530 268 363 604 528 77 47 109 89 167 341 244 196 81 115 97 68 159 50 109 127 40 216 196 85 150 113 91 68 41 451 139 85 54 312 72 276 76 53 254 88 45 233 114 91 400 192 169 46 48 48 48 119 58 66 65 46 54 122 208 123 188 43 65 168 80 102 50 128 45 58 52 45 51 77 44 40 57
cat_boundaries=0 1
cat_threshold=8
is_linear=0
shrinkage=0.01


Tree=7
num_leaves=88
num_cat=1
split_feature=11 10 7 2 5 5 2 2 8 8 6 4 3 7 10 2 2 9 6 6 7 6 3 3 10 5 4 5 9 6 7 10 6 3 4 3 4 3 5 8 9 10 5 3 6 9 3 9 8 4 5 10 7 8 8 2 2 7 8 9 3 2 8 10 10 3 3 9 10 4 10 5 4 4 3 7 4 6 10 10 5 10 3 2 3 10 6
split_gain=209.171 31.7735 23.1754 16.1408 12.2834 12.1759 9.05016 9.63841 8.30624 8.38843 12.4969 8.20451 7.86883 7.82506 7.65562 8.20901 10.2017 8.52174 7.37062 8.21884 7.35412 6.87149 9.94176 6.44333 9.63785 6.14264 4.98345 4.9421 7.04964 4.91924 4.88949 4.81461 5.94767 5.91476 4.7 4.60484 7.27305 4.28697 4.24019 6.83996 4.07023 4.03944 4.02265 5.87486 3.71019 3.58221 6.15666 3.5397 3.52513 3.45803 3.40701 3.38424 3.38358 3.22171 6.64054 4.64286 6.20589 4.1196 3.09067 2.89839 4.71022 3.80616 3.27574 2.67668 2.55098 2.47623 2.13644 2.37415 1.7926 1.69823 1.66294 1.56405 1.42222 1.39703 1.08658 1.06572 0.781346 0.443318 0.38622 0.000643933 0.000514346 0.000717667 0.000553913 0.000342392 0.000376342 0.000261781 6.73886e-05
threshold=0 -0.48126895819388243 0.73237050000000015 503615.00000000006 982112.00000000012 1378784.0000000002 1723405.0000000002 822519.50000000012 0.64668850000000011 0.68127800000000016 0.89969750000000015 -0.074211783879490054 0.17489620025986444 0.63788000000000011 -0.05611200865522336 959114.50000000012 618020.00000000012 0.57768600000000003 0.77122400000000013 0.87897850000000011 0.50104100000000007 0.76292750000000009 0.11914247913137734 0.24315335047825404 0.2821195705757385 796128.00000000012 0.63742616585194389 1235392.0000000002 0.37292400000000009 0.82185250000000021 0.56247900000000006 -0.63768433215178144 0.81543300000000019 0.17664135158237751 0.37928662356775072 0.084172449613543296 0.13097992993414329 0.093730415796916752 856704.00000000012 0.73923700000000014 0.49802400000000008 0.4046752074875572 1160320.0000000002 0.19131394556965631 0.94914350000000014 0.49982450000000006 0.17740551485282638 0.53591850000000008 0.85034250000000011 0.32365186269524565 749504.00000000012 -0.28214221697550051 0.63788000000000011 0.68514450000000016 0.63700650000000014 1001335.0000000001 703519.00000000012 0.66846250000000007 0.75782150000000004 0.51654400000000011 0.14681561683984631 873147.50000000012 0.76244650000000014 -0.42183274341231036 1.7600602409806949 0.18332934120981598 0.10866485556696144 0.43386900000000006 0.0071560040588066216 0.67201362588506763 -0.59310890953904338 882976.00000000012 0.59983156645908819 0.87693425320420926 0.12095913359147252 0.52166750000000006 0.57833758213344455 0.9111760000000001 -0.16638912829672076 1.3279370209369565 1262272.0000000002 -0.40600112607953048 0.18522062983539297 844737.00000000012 0.084172449613543296 -0.40600112607953048 0.82391000000000014
decision_type=9 2 2 2 2 2 2 2 2 2 2 2 2 2 2 2 2 2 2 2 2 2 2 2 2 2 2 2 2 2 2 2 2 2 2 2 2 2 2 2 2 2 2 2 2 2 2 2 2 2 2 2 2 2 2 2 2 2 2 2 2 2 2 2 2 2 2 2 2 2 2 2 2 2 2 2 2 2 2 2 2 2 2 2 2 2 2
left_child=77 3 4 18 14 20 7 8 -5 -10 26 -4 13 47 34 16 17 25 73 45 23 22 -22 24 51 75 -11 35 -29 50 -24 -28 33 -33 78 -23 -37 69 39 -39 -14 -31 43 -38 -12 -20 -47 -9 53 -19 -18 -6 -42 54 -30 56 -55 64 -44 62 61 68 66 -41 -57 -7 76 -68 -61 -36 -34 72 -62 -2 -17 -16 -13 79 -3 80 82 86 83 84 -1 -84 -82
right_child=1 2 11 6 5 65 -8 12 9 10 44 59 40 -15 15 74 29 49 19 -21 21 27 30 -25 -26 -27 31 28 48 41 -32 32 70 -35 37 36 42 38 -40 63 52 -43 58 -45 -46 46 -48 -49 -50 -51 -52 -53 -54 55 -56 57 -58 -59 -60 60 71 -63 -64 -65 -66 -67 67 -69 -70 -71 -72 -73 -74 -75 -76 -77 -78 -79 -80 -81 81 -83 85 -85 -86 -87 -88
leaf_value=-0.019043656443042702 -0.016436649929607802 -0.0058917496669887628 -0.00087340894937289421 -0.0073409866041726545 -0.0064340607345069649 0.0067362785897980742 0.012595652307761409 -0.018042598600747209 0.014732711849448089 -0.0099291975929564642 0.017598274752905044 0.010303212610355722 -0.0051513971995410888 0.00011449293774767986 0.013398113368848066 0.011799101285741458 -0.00021257215562839386 -0.0028187376583299344 0.0067175482531648114 -0.012327844668498813 -0.011968781850693418 -0.001899976287670197 0.0088756097238332186 0.0057736712990671991 0.0025544229611414388 0.0043596724439755805 -0.0074448133436208399 0.01098491695037977 0.0051646091419694021 0.0013514110760992316 -0.0046226168823749955 2.0592848706419784e-05 0.0028720224703832104 0.01461901174048069 0.0036044387199461497 0.017464498465677492 0.0073347703771232788 -0.0058823046723000772 0.014090779569959777 0.013632556631182883 0.010212615361822915 -0.010448620155648262 0.012836616909280263 -0.0061175501867896491 0.0059659426629455545 -0.0099658403462867702 0.0047301256234633148 -0.0077963549972959404 -0.0066845396491628239 0.0080391303880250151 0.011467502287783047 -0.015789002883155056 -0.00089612991225539076 0.0038168338143682828 -0.0087878988191806701 -0.0024198751716948451 -0.0098323773520065608 0.011879596882003712 0.00312962976330535 0.001412391074624959 0.009511267539594425 0.015456043436932482 0.0019121596527957674 0.0042427886457154316 0.0069219530874825132 0.015609270096523849 0.011455123664612569 0.0017029144528127183 0.0095239914281795637 -0.0036175118790444877 -0.0042129870769601211 0.019274992432311591 0.017061462277953722 -0.0095606450025751393 0.017643342430078528 0.019190706038524005 0.015638199551309597 -0.016297584689263307 -0.0019595688291117416 -0.019068045327598787 -0.018841852521853813 -0.01899519240836172 -0.019099468377887757 -0.018893609957873314 -0.018937244565381685 -0.018997004703246743 -0.018892032710201921
leaf_weight=5.9838296622037941 7.2351143509149534 4.9958372712135315 7.2451944947242728 7.9932623058557501 7.4929878562688863 8.4911282211542112 5.7440756112337104 6.7432963550090808 5.9966784566640845 4.9974185824394217 5.2443538606166822 5.4923454821109825 7.4935812056064632 6.9951510429382315 4.9920672178268495 6.491586968302725 4.9970754981040972 5.7452185899019224 5.2473568320274415 8.2414579987525922 8.9924473911523837 7.7365938872098914 5.4948419630527479 4.9958106875419608 7.4914366155862799 5.2439877092838278 5.7429224103689149 5.7451774924993506 5.4964696466922751 6.4902330189943296 5.2451812028884888 4.9969366639852613 5.2457771301269505 6.2427458018064499 5.4956076145172101 5.2420376241207149 6.4915720373392123 4.9945902079343858 5.4933980256319037 4.9949192255735397 5.2458950579166395 5.2458894997835159 7.2433110475540143 6.4940513670444489 5.746451660990715 6.2424196898937208 5.246622771024704 6.7431518584489822 8.2470291852951032 5.9927511960268021 4.9923786669969559 7.9912236928939837 5.7441638261079788 7.4939444065094012 8.9909709244966489 6.2447134405374545 5.9966758787631989 6.492805913090705 5.9947410821914673 5.9949128180742282 4.992694705724718 5.2399476021528235 6.7410795390605918 7.7405983209609968 5.495469331741333 4.9956698119640341 4.9918606579303724 4.9934607297182083 4.9938501715660095 7.9898161590099335 8.9904356002807617 7.7361043393611899 4.9868289232254028 4.9946838766336441 6.2387112379074097 8.7312713861465436 5.4885269403457642 6.98526906967163 4.9955921620130521 6.4835812896490088 5.2299297600984591 7.4778940081596366 4.9882421344518661 5.9787786751985541 7.4757274687290192 4.9855091869831067 5.4808328300714493
leaf_count=24 29 20 29 32 30 34 23 27 24 20 21 22 30 28 20 26 20 23 21 33 36 31 22 20 30 21 23 23 22 26 21 20 21 25 22 21 26 20 22 20 21 21 29 26 23 25 21 27 33 24 20 32 23 30 36 25 24 26 24 24 20 21 27 31 22 20 20 20 20 32 36 31 20 20 25 35 22 28 20 26 21 30 20 24 30 20 22
internal_value=0 0.00230563 0.00401142 -0.00160192 0.00270116 0.000929076 0.000388648 -0.000311396 0.00216388 0.00359189 0.00217667 0.00919299 -0.00419896 -0.00846798 0.00524528 0.00745998 0.00571103 0.00942143 -0.00726779 -0.00415343 9.5363e-05 0.00117873 -0.00421159 -0.00451901 -0.00675705 0.0135657 -0.000657723 0.00224874 0.000449469 0.000467032 0.00228339 0.000826428 0.00269098 0.00812885 0.00215509 0.00501189 0.00671134 0.00381017 0.00641427 0.00403582 0.000531518 -0.00392304 0.00456181 0.000607326 0.0115164 -0.000128128 -0.00325473 -0.0129195 -0.000661992 0.00272468 0.00562472 -0.011262 0.00440642 0.000412819 -0.00349438 0.00219715 -0.00225034 0.00548785 0.00844089 0.010376 0.0123349 0.0084429 0.00797608 0.00792549 0.00195295 0.0100229 0.00992575 0.00657824 0.00509871 -0.000674408 -0.00160229 0.0159002 0.0132841 -0.0136285 0.0146632 0.0170836 0.0129698 -0.0160416 -0.00392571 -0.0189746 -0.0189618 -0.01892 -0.0189877 -0.0189566 -0.0189846 -0.0190483 -0.0188675
internal_weight=0 484.469 341.355 143.114 272.458 160.596 105.906 100.162 61.197 53.2037 47.207 68.8968 38.9652 20.4816 111.862 65.1612 52.4309 30.7053 37.2077 24.9779 147.109 119.138 19.7325 27.9715 22.9756 18.9673 36.2162 99.4056 60.2033 21.7256 10.74 31.2188 25.4759 11.2397 46.7004 39.2023 31.4657 36.7089 23.2235 17.7301 18.4836 11.7361 26.2237 12.9856 10.9908 16.7364 11.489 13.4864 54.4581 11.738 9.98945 15.4842 10.9901 46.211 14.4874 31.7236 13.4906 18.233 13.2381 61.6516 33.9443 16.2287 27.7073 12.7355 11.7402 13.4868 20.9662 9.98532 10.9888 13.4854 14.2362 17.7156 9.97952 12.2298 12.7303 13.7233 10.9809 61.0696 9.99143 54.0843 47.6007 18.1887 29.4121 19.4383 13.4596 9.97375 10.7108
internal_count=2185 1940 1367 573 1091 643 424 401 245 213 189 276 156 82 448 261 210 123 149 100 589 477 79 112 92 76 145 398 241 87 43 125 102 45 187 157 126 147 93 71 74 47 105 52 44 67 46 54 218 47 40 62 44 185 58 127 54 73 53 247 136 65 111 51 47 54 84 40 44 54 57 71 40 49 51 55 44 245 40 217 191 73 118 78 54 40 43
cat_boundaries=0 1
cat_threshold=8
is_linear=0
shrinkage=0.01


Tree=8
num_leaves=83
num_cat=1
split_feature=0 11 10 0 0 7 6 7 0 7 2 6 10 0 3 0 5 7 8 8 7 3 7 3 10 10 4 5 2 10 2 3 5 8 3 5 2 5 0 3 3 2 2 4 7 6 10 4 0 5 4 0 3 5 8 5 8 2 6 2 4 2 2 8 6 6 5 5 5 2 2 0 2 5 10 8 4 7 3 0 10 3
split_gain=442.574 157.342 23.0184 22.8282 21.9232 17.2913 6.6721 9.65988 7.98721 6.72524 6.31312 6.32154 7.45152 6.07692 5.96333 5.27282 5.12553 5.74354 4.8506 7.64676 5.68346 7.07443 4.6271 5.0874 5.69451 3.93962 5.73767 3.79106 3.76242 3.7896 5.53285 4.5716 4.361 3.28186 5.40642 5.88332 4.72241 3.0167 3.42537 4.25003 4.36809 3.01658 5.25675 3.30144 2.84745 2.75066 2.62039 2.41139 2.38976 2.28697 2.17082 1.74161 2.58444 3.49243 1.73174 1.59898 1.58271 1.42768 2.0516 1.39084 1.14995 1.10522 0.945609 0.85067 0.607949 0.560868 0.4949 0.510681 0.372411 0.144844 0.086433 0.00278603 0.00228852 0.0023569 0.00175527 0.00219111 0.000926342 0.000716785 0.000669368 0.000635635 0.000330167 0.000398076
threshold=2402.0150000000008 0 -0.05611200865522336 3223.9500000000003 1694.1750000000002 0.74705100000000013 0.83916850000000009 0.6933760000000001 451.81100000000009 0.61312100000000014 1738410.0000000002 0.86338450000000011 -0.46588850846378577 901.54750000000013 0.049806002426594928 205.12400000000005 704320.00000000012 0.70387600000000006 0.73655900000000007 0.68127800000000016 0.63788000000000011 0.17281452869021335 0.67910900000000007 0.11047341265627687 0.36180176993177704 -0.527844417782935 0.88776955235118471 1245824.0000000002 382534.00000000006 2.3444333694264867 979729.50000000012 0.1874385138581213 818656.00000000012 0.79247600000000007 0.14161024219187202 1154592.0000000002 1012610.0000000001 704320.00000000012 586.48800000000017 0.18057434480175719 0.086142240882600585 715527.50000000012 470561.00000000006 0.44249714635330045 0.54893700000000012 0.76449350000000005 -0.46588850846378577 0.37246809779793522 2725.0050000000006 1044096.0000000001 0.36676828417857021 4077.2150000000006 0.20474438285320717 1220736.0000000002 0.77527050000000008 1308992.0000000002 0.7466710000000002 649977.00000000012 0.89969750000000015 622583.50000000012 0.57833758213344455 438478.50000000006 726684.50000000012 0.73655900000000007 0.89918400000000009 0.93741000000000019 1140960.0000000002 1245248.0000000002 1249920.0000000002 443506.00000000006 582462.00000000012 3734.2400000000002 1099445.0000000002 1211744.0000000002 -0.36567286267460652 0.72340000000000015 0.53140258102427562 0.66846250000000007 0.082432882717468306 640.51900000000012 -0.030254914420748444 0.14081893360711323
decision_type=2 9 2 2 2 2 2 2 2 2 2 2 2 2 2 2 2 2 2 2 2 2 2 2 2 2 2 2 2 2 2 2 2 2 2 2 2 2 2 2 2 2 2 2 2 2 2 2 2 2 2 2 2 2 2 2 2 2 2 2 2 2 2 2 2 2 2 2 2 2 2 2 2 2 2 2 2 2 2 2 2 2
left_child=1 64 4 22 5 6 8 9 15 10 11 -8 25 28 -10 -3 59 33 19 -6 21 -20 23 63 44 26 -13 57 -4 30 31 32 -30 34 35 -18 -35 70 -39 40 -40 42 -16 -43 54 -44 -45 -19 -24 -14 -36 52 61 -54 -25 -17 -33 -11 -59 -15 -34 -5 -46 -2 79 69 -32 -68 71 -53 -7 78 73 74 -71 -76 -74 -75 -63 -1 81 -81
right_child=3 2 13 51 18 37 7 -9 14 27 -12 12 49 16 41 55 17 47 20 -21 -22 -23 48 24 -26 -27 -28 -29 29 -31 66 56 60 36 50 -37 -38 38 39 -41 -42 43 45 46 62 -47 -48 -49 -50 -51 -52 65 53 -55 -56 -57 -58 58 -60 -61 -62 68 -64 -65 -66 -67 67 -69 -70 72 -72 -73 76 77 75 -77 -78 -79 -80 80 -82 -83
leaf_value=-0.018971918481698293 -0.019197448758015309 0.0048403611101186447 0.018986403718486596 -0.013205857886546289 0.001815185501233186 0.017210908540835554 -0.0040032356164061752 -0.0021679469571149064 -0.0020820201543473023 0.019188654847715925 0.017169767672643169 0.010847064060917148 0.0087003756939580817 0.016740367870999962 0.0028772375905128014 -0.0029173265311766491 0.010554875561870158 0.0074109241271177262 -0.0073670676968612802 -0.011608541278808247 0.0083051164172354957 0.0070331661610628631 0.0011133471199481697 -0.0033352381187335078 0.00015897640750910523 -0.0047247838154210854 -0.0026116583637331237 0.0067615701859914494 0.00043528485318035609 0.0052067909798919898 0.019004682251015034 0.019018920236428375 0.0077153353269576314 -0.0034526349061087679 0.0077203036086751324 -0.0020386868976382528 0.0074226192177778384 0.017687455668482767 0.012146865864040485 0.015956338285499062 -0.00019780696497380279 0.0089499761507717303 0.0082399110883629827 0.0051288832931376607 -0.017442213927387467 0.016827869815195337 -0.0047504151869761733 0.015996930249492711 -0.0073794195871760004 0.016360958657635812 0.015682451134957368 -0.017224550978727941 -0.0084327475455549476 -0.017682142986685054 -0.01147108217861406 -0.010634832809470132 0.011317855268649204 0.017547652742008757 0.0090946857368320328 0.010714788188598334 0.0139786358249855 -0.019080032075415004 -0.011428955808539068 -0.013943638732653356 -0.015057852599629416 -0.015383503092531413 0.013483182004895638 0.017680564691414793 -0.016491192402720893 -0.01891537199223815 0.019072490437763281 -0.019242077762000539 -0.019244913441562869 -0.018840466169163177 -0.018980832943905814 -0.019262041303893754 -0.019056636929441352 -0.018986313255666055 -0.018921592308266115 -0.018775187308609532 -0.018920820556172807 -0.018878424193690842
leaf_weight=5.4832655638456407 5.2386181652545911 5.996133521199229 9.2225877195596677 4.9889290779829052 8.2465016245841998 4.9892761260271055 6.2466294169425955 8.99663397669792 8.9952221810817701 6.4874799996614518 4.9901999384164801 7.9934027343988365 9.2393048107624072 8.4777278453111631 8.2459532171487826 5.2485345453023893 6.7423876076936748 4.9945459365844718 8.9926109015941638 8.742244213819502 8.7435676306486112 5.4969476908445349 5.2469073683023444 5.4953277260065132 5.9954280704259864 5.247802376747134 5.2467235624790192 6.9949643164873114 6.2458954453468385 6.9929155707359305 8.2252928018569964 5.7339140772819501 5.9924570471048337 7.74474874138832 5.9914345443248731 8.2469893097877485 8.2422018647193891 6.7352086305618313 5.4903523623943347 6.2358289659023276 5.9975257813930511 7.4953704178333309 6.9952348172664625 5.4960993379354486 5.4901598244905454 7.9888932406902313 5.2488402724266026 9.4791320264339429 8.9904380142688733 6.7398808747529975 7.9915880858898163 4.9902993589639655 8.9914417564868945 7.476910948753356 4.9936241656541824 5.4957592636346817 4.9921813458204269 5.7413770705461484 5.7437136024236679 6.9885040819644919 5.7385656535625458 4.9877153187990242 4.9938216656446457 7.4856140166521072 4.9873632490634909 5.2388312667608252 5.2397607713937742 6.4875074326992035 7.7292294204235068 5.2312957793474189 4.9871527552604675 7.9853858649730673 5.4904772490262967 9.461822494864462 4.9841132462024742 6.2395930141210556 4.9866974204778671 5.2336061447858802 5.7295095026493073 7.4674775004386955 4.9833088815212205 7.4727342873811722
leaf_count=22 21 24 37 20 33 20 25 36 36 26 20 32 37 34 33 21 27 20 36 35 35 22 21 22 24 21 21 28 25 28 33 23 24 31 24 33 33 27 22 25 24 30 28 22 22 32 21 38 36 27 32 20 36 30 20 22 20 23 23 28 23 20 20 30 20 21 21 26 31 21 20 32 22 38 20 25 20 21 23 30 20 30
internal_value=0 0.00564253 0.00744636 -0.014382 0.00564756 0.00712924 0.00563393 0.00759151 0.00331335 0.00883391 0.00655387 0.0052527 0.0069302 0.0108302 0.00529889 -0.00267226 0.00888962 0.00755515 -0.00103147 -0.00509253 0.0019381 -0.00190401 -0.00914037 -0.0108946 -0.00843552 0.00260752 0.00551372 0.0130076 0.0130707 0.0120903 0.0130796 0.010268 0.00718532 0.00579133 0.0077983 0.00362604 0.00215419 0.0135071 0.0116168 0.00930986 0.00570203 0.00689986 0.00928975 0.00385619 -0.0108924 0.0128186 0.000302904 0.0130341 -0.00424957 0.0119315 0.0122708 -0.017216 -0.015841 -0.0126321 -0.00720858 -0.00686487 0.0154347 0.0154386 0.0133203 0.0140177 0.0107792 -0.0175228 -0.0145779 -0.0161067 -0.013732 -0.0184858 0.0171241 0.0158052 -0.0183376 -0.0188345 0.0181415 -0.0191007 -0.0190275 -0.0189845 -0.0190667 -0.0191372 -0.0191553 -0.0188924 -0.0189953 -0.0188766 -0.0188503 -0.0188268
internal_weight=0 391.696 361.302 153.676 221.531 181.309 146.874 79.6681 67.206 70.6715 45.7039 40.7137 34.4671 139.77 50.4656 16.7404 74.8993 59.433 40.2219 16.9887 23.2331 14.4896 53.9299 39.6926 26.9684 18.4879 13.2401 24.9675 64.8711 55.6485 48.6556 28.703 17.9769 44.9594 28.9724 14.9894 15.987 34.4353 24.4589 17.7237 11.4879 41.4704 23.2301 18.2403 20.9729 14.9841 10.7449 14.4737 14.2373 15.9792 13.983 99.7459 47.8891 16.4684 10.489 10.7443 10.7261 17.9726 11.4851 15.4662 11.731 31.4208 10.484 12.7242 30.3941 51.8567 19.9526 11.7273 26.4318 46.6179 9.97643 18.7026 41.6276 31.1504 16.455 11.2237 10.4772 14.6954 10.7172 25.4068 19.9235 14.9402
internal_count=2185 1569 1447 616 887 726 588 319 269 283 183 163 138 560 202 67 300 238 161 68 93 58 216 159 108 74 53 100 260 223 195 115 72 180 116 60 64 138 98 71 46 166 93 73 84 60 43 58 57 64 56 400 192 66 42 43 43 72 46 62 47 126 42 51 122 208 80 47 106 187 40 75 167 125 66 45 42 59 43 102 80 60
cat_boundaries=0 1
cat_threshold=8
is_linear=0
shrinkage=0.01


end of trees

feature_importances:
pre_skeletal_distance_to_soma=101
nuclues_dist=92
fw_similarity=81
post_nucleus_x=81
pre_oracle=64
post_oracle=64
post_skeletal_distance_to_soma=58
adp_dist=57
pre_test_score=50
me_similarity=48
post_test_score=46
compartment=6

parameters:
[boosting: gbdt]
[objective: binary]
[metric: binary_logloss]
[tree_learner: serial]
[device_type: cpu]
[data: ]
[valid: ]
[num_iterations: 2000]
[learning_rate: 0.01]
[num_leaves: 100]
[num_threads: -1]
[deterministic: 0]
[force_col_wise: 0]
[force_row_wise: 0]
[histogram_pool_size: -1]
[max_depth: 20]
[min_data_in_leaf: 20]
[min_sum_hessian_in_leaf: 0.001]
[bagging_fraction: 0.9]
[pos_bagging_fraction: 1]
[neg_bagging_fraction: 1]
[bagging_freq: 0]
[bagging_seed: 7615]
[feature_fraction: 0.8]
[feature_fraction_bynode: 1]
[feature_fraction_seed: 21677]
[extra_trees: 0]
[extra_seed: 32374]
[early_stopping_round: 10]
[first_metric_only: 0]
[max_delta_step: 0]
[lambda_l1: 0]
[lambda_l2: 0]
[linear_lambda: 0]
[min_gain_to_split: 0]
[drop_rate: 0.1]
[max_drop: 50]
[skip_drop: 0.5]
[xgboost_dart_mode: 0]
[uniform_drop: 0]
[drop_seed: 27260]
[top_rate: 0.2]
[other_rate: 0.1]
[min_data_per_group: 100]
[max_cat_threshold: 32]
[cat_l2: 10]
[cat_smooth: 10]
[max_cat_to_onehot: 4]
[top_k: 20]
[monotone_constraints: ]
[monotone_constraints_method: basic]
[monotone_penalty: 0]
[feature_contri: ]
[forcedsplits_filename: ]
[refit_decay_rate: 0.9]
[cegb_tradeoff: 1]
[cegb_penalty_split: 0]
[cegb_penalty_feature_lazy: ]
[cegb_penalty_feature_coupled: ]
[path_smooth: 0]
[interaction_constraints: ]
[verbosity: -1]
[saved_feature_importance_type: 0]
[linear_tree: 0]
[max_bin: 255]
[max_bin_by_feature: ]
[min_data_in_bin: 3]
[bin_construct_sample_cnt: 200000]
[data_random_seed: 1064]
[is_enable_sparse: 1]
[enable_bundle: 1]
[use_missing: 1]
[zero_as_missing: 0]
[feature_pre_filter: 1]
[pre_partition: 0]
[two_round: 0]
[header: 0]
[label_column: ]
[weight_column: ]
[group_column: ]
[ignore_column: ]
[categorical_feature: 11]
[forcedbins_filename: ]
[precise_float_parser: 0]
[objective_seed: 3599]
[num_class: 1]
[is_unbalance: 0]
[scale_pos_weight: 1]
[sigmoid: 1]
[boost_from_average: 1]
[reg_sqrt: 0]
[alpha: 0.9]
[fair_c: 1]
[poisson_max_delta_step: 0.7]
[tweedie_variance_power: 1.5]
[lambdarank_truncation_level: 30]
[lambdarank_norm: 1]
[label_gain: ]
[eval_at: ]
[multi_error_top_k: 1]
[auc_mu_weights: ]
[num_machines: 1]
[local_listen_port: 12400]
[time_out: 120]
[machine_list_filename: ]
[machines: ]
[gpu_platform_id: -1]
[gpu_device_id: -1]
[gpu_use_dp: 0]
[num_gpu: 1]

end of parameters

pandas_categorical:[["apical", "apical_shaft", "apical_tuft", "axon", "basal", "oblique", "soma"]]
