tree
version=v3
num_class=1
num_tree_per_iteration=1
label_index=0
max_feature_idx=11
objective=binary sigmoid:1
feature_names=adp_dist post_skeletal_distance_to_soma pre_skeletal_distance_to_soma fw_similarity me_similarity post_nucleus_x pre_oracle pre_test_score post_oracle post_test_score nuclues_dist compartment
feature_infos=[6.03165:4997.25] [0:1308170] [0:2313450] [-0.17523579361429603:0.55541027776061114] [-0.45127373625387102:0.99106548183094345] [477312:1452736] [0.61800699999999997:0.95232499999999998] [0.38578000000000001:0.87998600000000005] [0.60007900000000003:0.97772899999999996] [0.35020000000000001:0.88849800000000001] [-0.67001864676510847:6.877537726784654] -1:4:3:5:0:2:1
tree_sizes=8475 8760 8981 8971 8947 8898 9337 8957 9249 9254

Tree=0
num_leaves=81
num_cat=0
split_feature=0 0 10 7 0 10 0 3 6 7 7 9 9 7 7 3 2 8 2 2 5 10 4 10 8 3 10 2 4 0 4 8 5 2 5 10 4 4 8 4 5 10 7 2 8 10 5 0 0 3 10 2 2 7 2 4 3 5 3 7 0 0 3 5 7 2 9 2 0 3 5 2 0 2 5 5 6 10 0 0
split_gain=495.75 39.8112 26.3017 26.5979 24.0701 12.4841 7.65765 6.60092 6.36688 13.3913 10.1465 8.48096 6.92748 6.23738 6.22597 6.14596 5.99965 5.86268 5.48523 5.43532 5.4626 7.33554 6.93812 5.15728 4.78463 4.78082 7.74902 4.73387 4.3955 6.36517 11.4432 5.62877 4.53128 4.30978 5.7539 6.28912 4.29196 4.01536 3.91136 3.77482 3.69277 3.49058 4.45455 3.48554 3.40356 3.33626 3.5613 3.3 3.2133 3.23244 3.34072 3.1746 8.14632 2.88944 2.87419 2.79278 2.59167 2.66163 2.5 2.28148 1.86506 1.69 3.0669 4.44759 1.63093 1.37892 1.29711 1.19839 0.808421 0.773188 0.67413 0.642222 0.429501 0.4 0.241822 0.419048 0.177778 0.104762 0.102439 2.84217e-14
threshold=2407.5000000000005 1755.7350000000004 -0.059798528221399951 0.74705100000000013 3223.9500000000003 -0.014971964374560057 951.59250000000009 0.18752067860345623 0.83916850000000009 0.6933760000000001 0.61312100000000014 0.38448500000000002 0.6501745000000001 0.67910900000000007 0.55296200000000006 0.27047105475052607 697752.00000000012 0.84950800000000004 648840.00000000012 431424.00000000006 967456.00000000012 -0.47944579181409164 0.61662995500917128 -0.46617223774202482 0.71093150000000016 0.1109581551404842 0.35691492880206871 786878.00000000012 0.81653032229332989 793.11450000000013 0.35770962330382144 0.78126600000000013 1283968.0000000002 670883.50000000012 756320.00000000012 2.4107459807874725 0.47012726665462373 0.50010063128425453 0.73830050000000014 0.4392979072286381 1321792.0000000002 0.50603483821867901 0.65948400000000007 1111905.0000000002 0.77778250000000015 -0.57794989879320213 1033120.0000000001 1114.5400000000002 1352.5650000000003 0.28432734367787427 -0.52316857019707463 513225.50000000006 715750.00000000012 0.54893700000000012 616340.50000000012 0.40623769610523558 0.10204615610655922 1216416.0000000002 0.22289710575483632 0.76421950000000016 429.68550000000005 4100.0500000000002 0.20637820705542662 1220736.0000000002 0.65677550000000007 978031.50000000012 0.58138450000000008 431424.00000000006 526.55600000000015 0.15014841524602793 909184.00000000012 431424.00000000006 1316.5200000000002 412391.00000000006 1251488.0000000002 1310368.0000000002 0.93741000000000019 -0.39055903891269234 886.39650000000017 4715.2200000000003
decision_type=2 2 2 2 2 2 2 2 2 2 2 2 2 2 2 2 2 2 2 2 2 2 2 2 2 2 2 2 2 2 2 2 2 2 2 2 2 2 2 2 2 2 2 2 2 2 2 2 2 2 2 2 2 2 2 2 2 2 2 2 2 2 2 2 2 2 2 2 2 2 2 2 2 2 2 2 2 2 2 2
left_child=1 2 3 8 13 19 33 16 11 10 17 -1 15 25 18 28 -7 23 -8 -3 21 -21 36 24 -10 70 38 -11 29 32 -31 -32 -13 60 -35 56 -22 41 -27 -20 -24 64 -43 53 -18 -5 69 -48 49 50 -12 -30 -53 -25 -26 -14 68 65 -56 -15 73 62 67 -64 -16 -58 -40 -6 -36 -47 -2 -63 -39 -4 -69 -76 79 -52 -71 -73
right_child=4 5 6 45 61 7 14 -9 9 27 48 12 55 59 37 -17 44 -19 39 20 22 -23 40 43 54 26 -28 -29 51 30 31 -33 -34 34 35 -37 -38 72 66 -41 -42 42 -44 -45 -46 46 47 -49 -50 -51 77 52 -54 -55 58 -57 57 -59 -60 -61 -62 71 63 -65 -66 -67 -68 74 -70 78 -72 76 -74 -75 75 -77 -78 -79 -80 -81
leaf_value=0.0021451861067523651 -0.00048558375124127756 -0.00038993155452297283 0.0025144169640146301 0.0016240941710999742 -0.00048558375124127735 0.0020053259335469599 0.0020255279585655191 0.0023689623838810108 0.00056147532192647102 -0.00021601846958060162 0.0018709385497278552 0.00045287801096698137 0.0010682627730707571 0.0009144165825448132 0.0017715596440465 0.0015810834081572372 0.00033377128281786316 0.00051441648717735875 0.00035441644903037698 0.00038108312205487396 0.00036896190704373928 0.0017379461906542782 0.00038108312205487396 0.0026181206924432284 0.0009144165825448132 0.00017757430160476623 0.0010013731250159989 0.0011144166302285404 0.00043822599282165322 0.0020053259335469607 0.00084545104886076927 -0.00051415518662466643 -0.00075225048148624648 0.0012592442509650325 0.0024344169449411401 0.0012001309363787092 -0.00089510765840319451 0.0027239408234928215 -0.00094765282692437132 0.0014329352246878094 0.0014598712580458873 0.0020053259335469616 0.00073259835737778849 0.0012847870412183821 0.0013491992949007418 0.0023982879040692394 0.0024144169401727673 0.0013144166779122674 0.0013906071722679732 0.0015810834081572372 0.0027144170116983552 0.0023144169163309036 0.00055078013221076378 0.001641689483212912 0.0013144166779122677 0.0019447198584912869 0.0021144168686471759 0.0017565220464762963 0.0023144169163309032 9.9601573462961739e-05 0.0029144170593820851 -0.00068558379892500441 9.0886974435348583e-05 -0.00095655160546424779 0.0025507806090480354 0.0027662688759126572 -0.00028558370355754963 -0.001085583894292458 0.0029144170593820851 0.0027144170116983582 -0.00095655160546424757 -0.0010855838942924584 0.0023144169163309032 0.0021144168686471759 -0.00068558379892500463 -0.001085583894292458 -0.00088558384660873148 0.0029144170593820868 0.0029144170593820846 -0.0010855838942924584
leaf_weight=6.499998450279235 4.9999988079071027 5.7499986290931693 4.9999988079071063 7.7499981522560111 4.9999988079071036 5.4999986886978212 6.7499983906745937 5.4999986886978141 8.4999979734420759 5.7499986290931684 5.7499986290931764 6.4999984502792376 6.499998450279235 6.9999983310699445 5.249998748302465 8.2499980330467206 7.7499981522560102 7.4999982118606559 6.2499985098838788 7.4999982118606559 5.4999986886978167 8.4999979734420759 7.499998211860655 6.7499983906745964 5.4999986886978141 9.4999977350235039 5.7499986290931693 4.9999988079071045 5.2499987483024588 5.4999986886978176 7.2499982714652997 5.2499987483024597 5.9999985694885254 7.2499982714653006 6.2499985098838788 5.2499987483024588 5.2499987483024597 5.2499987483024579 7.2499982714652997 6.7499983906745911 5.4999986886978149 5.4999986886978132 5.4999986886978149 6.7499983906745902 5.7499986290931702 7.7499981522560182 5.9999985694885236 4.9999988079071045 5.2499987483024588 5.2499987483024588 4.9999988079071107 4.9999988079071027 5.4999986886978149 5.4999986886978149 4.9999988079071027 8.2499980330467206 6.2499985098838824 9.4999977350234968 4.9999988079071045 6.7499983906745911 10.749997437000273 4.9999988079071036 8.4999979734420794 7.7499981522560111 5.4999986886978149 6.7499983906745911 4.9999988079071045 18.249995648860935 7.9999980926513672 4.9999988079071027 7.749998152256012 29.249993026256561 4.9999988079071045 4.9999988079071045 4.9999988079071027 5.4999986886978149 4.9999988079071036 5.4999986886978105 5.2499987483024597 10.749997437000273
leaf_count=26 20 23 20 31 20 22 27 22 34 23 23 26 26 28 21 33 31 30 25 30 22 34 30 27 22 38 23 20 21 22 29 21 24 29 25 21 21 21 29 27 22 22 22 27 23 31 24 20 21 21 20 20 22 22 20 33 25 38 20 27 43 20 34 31 22 27 20 73 32 20 31 117 20 20 20 22 20 22 21 43
internal_value=0.000915332 0.00151225 0.00166073 0.00143811 -0.000605064 0.000828702 0.00202735 0.00140421 0.00126556 0.00144851 0.00159403 0.00105303 0.000950518 -6.70651e-05 0.00173567 0.000785976 0.00112494 0.00133026 0.00129416 0.000518812 0.000650266 0.00110192 0.000345995 0.00147256 0.00116442 -0.000265708 -3.10382e-05 0.000402789 0.000644146 0.000422613 0.000803305 0.000274416 -0.000125584 0.00224299 0.00208193 0.00222394 -0.000248374 0.00200817 -0.000303975 0.000914417 0.000837493 0.00176499 0.00136896 0.00186179 0.000766268 0.00220693 0.00236269 0.00191442 0.00209199 0.00226325 0.00248365 0.00107315 0.00139061 0.00217972 0.00149506 0.00155848 0.0023702 0.00215886 0.00181442 0.000514416 0.00262526 -0.000895584 -0.000765584 -0.000408661 0.00217023 0.00245288 -0.000677421 -0.000937436 0.00270389 0.00263664 -0.000771858 -0.00102558 0.00252417 0.00231442 -0.00101602 -0.000895108 -0.00106336 0.00281918 0.00281686 -0.00108558
internal_weight=0 392.25 322.25 200.5 154 70 121.75 24.5 163.75 88 77.25 75.75 69.25 54 51.75 54.5 19 50.5 19.75 45.5 39.75 16 23.75 43 24 40.25 27.5 10.75 46.25 30.5 18 12.5 12.5 70 49.25 42 10.75 32 21.75 13 13 21.75 11 19 13.5 36.75 29 11 26.75 21.5 16.25 15.75 10.5 12.25 15.5 14.75 36.75 22.5 10 13.75 20.75 100 50 16.25 10.75 13 12.25 33.75 14.25 18 12.75 50 10.25 10 28.75 10.5 45 10.5 10.25 40
internal_count=2185 1569 1289 802 616 280 487 98 655 352 309 303 277 216 207 218 76 202 79 182 159 64 95 172 96 161 110 43 185 122 72 50 50 280 197 168 43 128 87 52 52 87 44 76 54 147 116 44 107 86 65 63 42 49 62 59 147 90 40 55 83 400 200 65 43 52 49 135 57 72 51 200 41 40 115 42 180 42 41 160
is_linear=0
shrinkage=1


Tree=1
num_leaves=82
num_cat=1
split_feature=11 1 10 7 5 1 2 1 2 10 2 3 6 3 7 10 1 1 2 3 6 3 6 6 2 7 2 2 10 5 10 5 5 8 3 10 2 5 6 5 3 10 9 7 5 9 6 5 3 3 9 3 10 2 9 7 1 7 5 10 10 9 9 1 9 8 6 3 10 2 6 5 10 6 6 10 7 8 1 1 5
split_gain=234.369 46.8744 32.684 27.5746 17.6312 17.3616 13.2003 10.4878 9.33107 11.8049 9.25124 8.98503 10.3503 8.58977 8.07889 8.30213 7.70501 7.46726 9.11975 7.43659 7.24465 6.6214 7.2043 7.58904 6.84266 6.57312 6.48866 6.06305 5.90815 8.83487 5.7038 5.50583 10.8828 5.48781 10.9714 5.47539 5.26973 5.63162 4.89682 4.66488 4.6524 5.17939 4.61087 4.20253 4.09996 4.00027 3.71319 3.70542 3.33888 3.3366 3.38445 2.99559 2.87984 2.79198 4.07001 2.61149 2.60788 2.60437 2.45361 2.31948 3.40823 3.62716 1.86395 2.84908 1.82475 2.64922 1.75873 1.59899 1.58766 1.52845 1.52429 1.52241 1.42917 0.857372 0.506188 4.78255e-06 2.47957e-06 1.63795e-06 1.65047e-06 1.0123e-06 5.92786e-07
threshold=0 16398.200000000004 -0.047734197986069461 0.61312100000000014 1272992.0000000002 93030.400000000009 1604815.0000000002 122351.50000000001 1756210.0000000002 -0.498506002522839 744208.00000000012 0.28260354952449968 0.94436800000000021 0.19987470197414114 0.63788000000000011 -0.53204532880408795 100434.50000000001 30067.650000000005 842212.00000000012 0.21770545334456023 0.84703850000000014 0.17156038986821112 0.81245950000000011 0.88816150000000016 978031.50000000012 0.66846250000000007 536870.50000000012 706930.50000000012 -0.3150192845948328 1192320.0000000002 -0.45098888506240259 951488.00000000012 1321792.0000000002 0.79302800000000018 0.25008505136255738 -0.35222074498466133 593401.50000000012 733504.00000000012 0.81884950000000012 901728.00000000012 0.12202894419462987 -0.25788541935997206 0.51807200000000009 0.61704650000000016 1345024.0000000002 0.49635900000000005 0.72141000000000011 784352.00000000012 0.29091576439523231 0.13198625406450293 0.50871900000000014 0.035516223828848024 -0.44612982782902411 919349.00000000012 0.6290730000000001 0.55296200000000006 128607.50000000001 0.74794850000000013 1321792.0000000002 2.6056668462395218 0.35691492880206871 0.44578200000000007 0.43358400000000002 60328.850000000006 0.51646350000000008 0.72879650000000018 0.79775800000000008 0.11385549841373006 -0.40798220127176738 831275.00000000012 0.83764050000000012 1154592.0000000002 -0.44349636947366017 0.83242550000000015 0.9111760000000001 0.37475174564178571 0.59256600000000015 0.77931800000000007 246202.50000000003 242422.00000000003 1230592.0000000002
decision_type=9 2 2 2 2 2 2 2 2 2 2 2 2 2 2 2 2 2 2 2 2 2 2 2 2 2 2 2 2 2 2 2 2 2 2 2 2 2 2 2 2 2 2 2 2 2 2 2 2 2 2 2 2 2 2 2 2 2 2 2 2 2 2 2 2 2 2 2 2 2 2 2 2 2 2 2 2 2 2 2 2
left_child=74 30 3 7 14 6 17 8 9 21 19 12 28 31 -5 26 48 18 -4 72 25 22 46 -24 33 -6 -16 47 29 38 -2 36 49 34 -23 -14 67 -38 -11 -18 66 -42 -15 51 58 -43 -3 -28 53 50 -33 -19 -22 54 57 -12 -44 -17 -27 60 61 -53 -62 -64 65 -45 -30 -7 -31 -66 -32 -29 -9 -63 75 76 79 78 -78 80 -1
right_child=1 2 5 4 20 13 -8 10 -10 11 55 -13 35 42 15 16 39 43 -20 -21 52 24 23 -25 -26 44 27 71 40 68 70 32 -34 -35 -36 -37 37 -39 -40 -41 41 45 56 64 -46 -47 -48 -49 -50 -51 -52 59 -54 -55 -56 -57 -58 -59 -60 -61 62 73 63 -65 69 -67 -68 -69 -70 -71 -72 -73 -74 -75 -76 -77 77 -79 -80 -81 -82
leaf_value=-0.0019997358590924585 -0.001999925768361532 -0.00066727448678215726 0.0011650839090937895 0.0017219295356911922 -0.00066693718942065845 0.00059834425999815094 -0.00030390803099757157 -0.00028584891197543468 0.00099914782264073736 0.0015986303212015334 -0.0017333839519987585 0.0011988134917946484 0.0001528156569055642 0.00018046824683351623 -0.000667309246180973 0.00036944547927240435 -0.00025105971468535851 0.00025983726433107158 -0.00056092877065211345 0.00079884307767545324 -0.00024040899484045292 0.00083806959153516622 0.00037430525875071792 -0.0009476163092183602 0.0009080342748134108 0.00046088374785945864 0.00036225420125370056 0.00028488192137057436 -0.00060045949126918648 -0.00072064440659521376 -0.00047710516154386142 -0.00032327401119946905 0.00083759872811604201 -0.0010004425031396801 -0.00092362351655506515 0.0014274011995484438 -0.00053422635928516418 0.00078118139094240458 0.00019908361930686018 0.00083753133783904794 -0.00100015301411719 0.0008561590580217583 0.00079858426704252532 0.0015658981039133285 0.0011097508923539523 -0.00036420073371242823 -0.0017495977728659896 0.0014986008445904396 0.00043309144949684093 -1.2026104181971065e-06 -0.0012505057974111641 0.0006653443105827802 -0.0012003823863415977 0.0018444046326826469 0.0018239136061175382 -0.00080038051138933751 0.001807701575678894 0.0011774970608872061 -0.00040072808310168096 0.0016347682104169558 0.0011981528774342453 0.0013029759009075181 0.00090765520069681436 6.3281135947443982e-05 0.0013530815931998385 0.00080905930080016342 -0.0014291591776123987 0.0013980928781915361 -4.8158083564673519e-07 0.0019977286936179346 -0.0012391304621168513 -0.00047667320183612344 -0.0010002854492386561 0.0018380347676925895 -0.001714366019400508 -0.0020006792290851376 -0.0020007683737686623 -0.0019998253258362761 -0.0019999904453729934 -0.0019999434153104025 -0.0019993534612471296
leaf_weight=7.7499988228082719 7.4999985992908504 5.2499971389770526 5.9999948889017087 7.249989226460456 6.7499979287385967 4.999995023012163 8.2499944865703565 5.2499981373548534 7.9999958723783484 4.999996289610861 7.4999974966049177 7.4999958127737036 6.4999955743551254 5.4999954849481574 6.7499975264072445 6.7499962747097113 7.9999931156635267 5.749995991587638 6.2499960511922836 4.9999959468841544 6.249997466802597 7.7499972730875069 7.9999974668025997 9.4999983459711057 5.4999970197677603 9.749995946884157 5.4999955743551272 5.2499969601631147 4.9999972283840233 6.2499973177909851 5.2499966472387296 7.749995514750486 7.7499949783086768 7.999997839331626 6.4999977052211761 6.9999958574771863 7.4999953508377057 5.7499947845935822 4.9999977797269821 7.7499940395355225 4.9999982565641359 5.2499971389770526 4.999996289610861 9.2499908953905123 6.7499949038028708 5.4999971240758896 7.9999982118606567 5.9999959468841553 5.7499942779541007 7.9999931603670111 7.9999950677156448 6.7499934434890774 6.2499978095293027 6.4999940395355216 5.7499925792217246 4.999998614192009 5.2499942481517792 9.7499869316816312 4.9999969452619544 5.4999957680702201 4.9999944716691997 5.7499952763318998 8.2499925345182401 7.7499939054250708 7.7499903440475446 9.2499896138906461 5.2499981373548508 4.9999946057796478 5.9999982416629773 6.9999899119138718 5.2499958425760269 5.2499978542327881 5.9999976605176952 6.249992623925209 6.9999982416629782 9.2499955296516401 5.9999971985816973 8.2499979734420759 4.9999987185001373 9.749997675418852 8.4999979138374311
leaf_count=31 30 21 24 29 27 20 33 21 32 20 30 30 26 22 27 27 32 23 25 20 25 31 32 38 22 39 22 21 20 25 21 31 31 32 26 28 30 23 20 31 20 21 20 37 27 22 32 24 23 32 32 27 25 26 23 20 21 39 20 22 20 23 33 31 31 37 21 20 24 28 21 21 24 25 28 37 24 33 20 39 34
internal_value=0 0.000244572 0.000310684 0.000105503 0.000455542 0.000651968 0.000910184 -0.000164739 -4.85387e-05 -0.000114147 -0.000713408 0.000165248 3.9714e-05 0.000268306 0.000711651 0.000618935 0.000864142 0.00101398 0.000284465 -0.00021589 -8.65271e-05 -0.000444885 -0.000764484 -0.000343309 -9.07339e-05 0.000193946 0.000190357 0.000453504 -0.000176845 0.000201422 -0.00133387 8.1089e-05 -0.000191354 -0.00033762 3.44903e-05 0.000813712 0.000450206 3.66109e-05 0.000898857 0.000284596 -0.000500555 -0.000159304 0.000919107 0.00112005 0.000464223 0.000231789 -0.00132075 0.000955131 0.00112872 -0.000527118 -0.000794249 0.000939716 -0.000720396 0.00126784 0.00109941 -0.00136018 0.00131545 0.00084693 0.000168812 0.00102611 0.000941893 0.00125178 0.000665207 0.000498661 0.00139666 0.00118748 -0.00102492 0.000998219 -0.000367912 0.00165902 -0.000858118 -9.58957e-05 -0.000666882 0.00158165 -0.00169233 -0.00200002 -0.00199989 -0.00200016 -0.00200041 -0.00199969 -0.00199954
internal_weight=0 484.75 466.75 291.5 127 175.25 104.75 164.5 135.75 127.75 28.75 69.25 61.75 70.4999 86.2499 78.9999 50.25 96.4999 12.25 16.25 40.75 58.5 30.75 17.5 27.75 28.25 28.75 22 48.25 22.25 18 54.75 31.5 22.25 14.25 13.5 23.25 13.25 9.99999 15.75 26 15.75 15.75 84.2499 21.5 10.75 13.25 11.5 34.5 23.75 15.75 51 12.5 28.75 22.25 12.5 10.25 16.5 14.75 45.25 39.75 18.75 21 16 33.25 18.5 10.25 9.99999 12.25 14.75 10.5 10.5 11.25 12 61.5 54.5 45.25 19.25 11 26 16.25
internal_count=2185 1939 1867 1166 508 701 419 658 543 511 115 277 247 282 345 316 201 386 49 65 163 234 123 70 111 113 115 88 193 89 72 219 126 89 57 54 93 53 40 63 104 63 63 337 86 43 53 46 138 95 63 204 50 115 89 50 41 66 59 181 159 75 84 64 133 74 41 40 49 59 42 42 45 48 246 218 181 77 44 104 65
cat_boundaries=0 1
cat_threshold=8
is_linear=0
shrinkage=0.001


Tree=2
num_leaves=84
num_cat=1
split_feature=0 11 10 7 0 0 0 7 2 5 4 5 10 0 2 8 8 3 10 5 10 0 0 8 7 4 5 10 3 7 10 6 10 6 8 0 2 10 5 3 5 4 0 10 5 10 4 7 0 5 4 0 3 5 4 4 2 5 10 0 10 2 5 10 7 5 2 5 6 2 10 5 5 8 10 6 8 10 6 0 10 7 7
split_gain=494.433 178.933 28.8712 29.0462 24.0091 17.3394 8.28384 6.2147 5.80562 6.58996 8.16476 7.87301 7.21304 7.04594 6.10639 5.38835 4.77914 4.768 7.72072 4.60565 4.88024 4.59608 5.37653 8.16801 5.19392 4.58145 7.34544 5.66113 13.6215 5.62477 6.16011 4.07641 3.98266 4.05936 3.90026 3.89385 3.68153 3.70473 3.88516 3.47146 3.20389 2.97914 2.81375 2.6211 2.53627 2.50479 3.93702 2.27423 2.10874 1.89335 1.88666 1.685 3.05843 4.43009 1.49912 2.2068 2.08536 1.46399 1.78314 3.00851 1.40408 1.19483 1.18821 1.17852 1.14771 1.10621 1.06601 0.671484 0.668806 0.638857 0.459504 0.241473 0.419133 0.17756 3.62406e-06 1.87217e-06 1.78783e-06 1.85286e-06 1.65271e-06 1.1664e-06 1.15883e-06 9.92865e-07 4.73923e-07
threshold=2407.5000000000005 0 -0.059798528221399951 0.74705100000000013 3223.9500000000003 1935.0500000000002 951.59250000000009 0.67910900000000007 1775700.0000000002 1154592.0000000002 0.75023696537064277 877312.00000000012 -0.51374564747383256 429.68550000000005 884398.00000000012 0.82301450000000009 0.77778250000000015 0.1109581551404842 0.35691492880206871 1224544.0000000002 -0.62150780565502484 860.43100000000015 1125.3300000000002 0.70793250000000019 0.61312100000000014 0.46462056044821165 1128640.0000000002 0.50603483821867901 0.11234563012249786 0.61704650000000016 1.027631681066828 0.82185250000000021 -0.60634007389339051 0.91696850000000019 0.73830050000000014 2297.5450000000005 381269.00000000006 2.4107459807874725 751584.00000000012 0.098221095499442149 675712.00000000012 0.89773566737320887 1523.9200000000003 -0.29583981780344887 749088.00000000012 -0.57734042295064614 0.54829024775141533 0.76421950000000016 622.07500000000016 692288.00000000012 0.8353109647195408 4100.0500000000002 0.20637820705542662 1220736.0000000002 0.24112094412276777 0.36204600188084074 999744.00000000012 703648.00000000012 -0.31718532939446981 771.44350000000009 0.16630624107887446 431424.00000000006 1274304.0000000002 -0.34738478539976309 0.50722900000000004 1272992.0000000002 821551.00000000012 909184.00000000012 0.88977750000000011 431424.00000000006 0.6013601463730972 1251488.0000000002 1310368.0000000002 0.86966050000000006 -0.026214706000290491 0.82514700000000019 0.68193750000000009 -0.12622642177532781 0.83764050000000012 1039.5300000000002 -0.4318879019038126 0.56247900000000006 0.54893700000000012
decision_type=2 9 2 2 2 2 2 2 2 2 2 2 2 2 2 2 2 2 2 2 2 2 2 2 2 2 2 2 2 2 2 2 2 2 2 2 2 2 2 2 2 2 2 2 2 2 2 2 2 2 2 2 2 2 2 2 2 2 2 2 2 2 2 2 2 2 2 2 2 2 2 2 2 2 2 2 2 2 2 2 2 2 2
left_child=1 68 3 5 7 8 36 17 9 11 12 21 14 -14 -11 16 43 67 34 -12 -21 24 -23 -24 40 26 27 49 -29 30 -27 -25 -5 57 -19 45 -4 38 -38 -28 -3 50 -32 -15 -42 -7 -47 -9 -13 -8 -22 52 61 -54 62 -56 60 -34 59 -59 -57 -6 -40 -50 -36 -41 -31 -2 74 -53 -58 80 -73 76 75 -1 78 81 -71 -77 -63 -78 -82
right_child=4 2 6 32 51 35 25 47 -10 10 19 48 13 15 -16 -17 -18 18 -20 20 41 22 23 31 -26 29 39 28 -30 66 42 -33 33 -35 64 -37 37 -39 54 65 44 -43 -44 -45 -46 46 -48 -49 63 -51 -52 69 53 -55 55 56 70 58 -60 -61 -62 71 -64 -65 -66 -67 -68 -69 -70 73 -72 72 -74 -75 -76 79 77 -79 -80 -81 82 -83 -84
leaf_value=-0.0019982337934699303 -0.0013990980416636861 0.0010649978837643616 0.0019962538001058227 0.00066495900971641356 -0.0013991539247870811 -0.0011994410881348777 0.0009972178541764647 -1.2697627673683431e-06 0.0015976130697176157 -0.0012590670697840483 5.2850971041414653e-05 0.00083140849752786727 -0.00048691157140406103 -1.2215688091333555e-06 0.000198990214687107 -0.000207971026990079 0.0016171932359580216 -0.00073655601097021267 8.5541323196693732e-05 0.00014166083193622802 0.00090786456966743278 -0.00066760587985713955 0.0014765502706068265 0.00079891907813115252 0.0015681809054344429 0.00014105995677972163 -0.00043618509519227194 0.0014465790183613011 -0.00066846154257928551 0.0013968263957262641 0.0018235650749194947 -0.00031659796152388721 0.0019967741774614954 0.00072488544621778764 -0.0012368953963443317 0.00039978851188687375 0.00078559363732575382 0.00061328824245089196 0.0019964764061661065 0.00085519393969500786 -0.00028638415313371463 0.00057015882655074384 0.00079784559999804717 0.00087312896287623733 0.00066535740310793093 -0.0010478509671212281 5.9904951377291781e-05 -0.00081478960489861775 0.0018434953234233334 0.0017686147040592833 0.0016552921140350985 -0.00159922652450023 -0.00082372489959497866 -0.0018691013533609837 0.00079723072658126261 0.0016155989336105591 0.0019969411831432097 0.0017968024131744685 0.0018677760706702967 0.00072502500304167099 0.00092028856214048304 -0.0019980044052983125 0.0013968841053784273 0.0011977270790863529 -0.0018554190858378859 0.00019796427905090236 0.0019970266127598158 -0.0018691405803077329 -0.0015991204401344615 -0.0019975989772599684 0.0015969714564852055 -0.0015984306212539303 -0.0019984715730537129 -0.0017983444476592243 -0.0019994176934019642 -0.0019992039976297971 -0.0019979389230151872 -0.0019987366655157602 -0.0019983357004300737 -0.0019985209454051116 -0.00199874674594185 -0.0019984029303625112 -0.0019983298863814063
leaf_weight=8.9999913573265165 4.999996751546858 7.4999910444021287 9.4999658614397031 6.749993920326232 4.9999976754188529 4.9999972879886672 4.9999880641698864 6.9999957978725416 4.9999918937683097 6.7499978095293027 9.2499915957450849 5.999991491436961 9.2499942332506162 5.9999930411577216 4.9999951869249344 7.249994382262229 5.2499919384717932 9.4999970644712501 5.7499956637620917 6.9999959468841544 5.4999957382679048 5.2499941736459759 5.7499933093786266 4.9999945759773246 6.9999779760837546 6.9999908953905168 5.7499952912330619 7.2499928623437864 5.2499935925006866 4.9999864399433118 5.7499895691871625 9.499993756413458 8.9999742507934588 5.4999891966581336 5.2499953508377057 4.9999975264072409 8.2499862164258939 6.4999912977218619 9.7499674409627897 5.249992221593855 5.2499967366456968 6.9999938309192649 4.9999925047159195 7.9999887943267884 5.9999946057796478 5.2499971240758905 8.2499949783086759 6.7499964833259583 6.4999861121177682 8.7499802857637388 8.749989837408064 4.9999978691339484 8.4999972283840197 7.7499910145997992 4.999989420175555 5.2499837130308169 6.7499822676181775 4.9999864995479602 7.7499781250953665 5.4999901801347733 6.4999853670597076 7.2499912083148983 4.9999868869781485 4.9999914616346333 6.9999933689832687 4.9999926686286926 7.2499817609786987 7.7499914318323135 4.9999980181455603 7.2499886006116849 4.9999873340129852 4.9999950230121595 5.4999953359365463 4.9999947398900977 6.7499985545873633 4.9999986141920072 8.7499878406524676 8.9999943524599093 5.2499947994947433 4.9999962896108627 4.9999966621398944 9.7499915212392789 5.9999949485063553
leaf_count=36 20 30 38 27 20 20 20 28 20 27 37 24 37 24 20 29 21 38 23 28 22 21 23 20 28 28 23 29 21 20 23 38 36 22 21 20 33 26 39 21 21 28 20 32 24 21 33 27 26 35 35 20 34 31 20 21 27 20 31 22 26 29 20 20 28 20 29 31 20 29 20 20 22 20 27 20 35 36 21 20 20 39 24
internal_value=0 0.000596125 0.000789487 0.000586978 -0.00151838 0.000418487 0.00116731 -0.000981057 0.000537162 0.000502676 0.000316484 0.000732877 4.11048e-05 0.00026451 -0.000638617 0.000526799 0.000803531 -0.00117934 -0.000944984 0.000665298 0.000865833 0.000535132 0.000234202 0.000468004 0.00083314 0.000931986 0.000719793 0.00104532 0.000558262 0.00123082 0.000871107 6.8063e-05 0.00136439 0.00150854 -0.00121742 -0.000383203 0.0014192 0.00132468 0.00141447 0.00018572 0.000558726 0.00110438 0.00134649 0.000498407 0.000221211 -0.000594822 -0.000370889 -0.000400634 0.00131199 0.00148811 0.00136681 -0.00180853 -0.00167872 -0.00132229 0.00153443 0.0014005 0.00152885 0.00166671 0.00150394 0.00123539 0.00123096 -0.00185033 0.00179322 0.00156273 -0.00159034 0.000534594 0.00175205 -0.00168481 -0.00145925 -0.00193833 0.00182674 -0.0019288 -0.00180798 -0.00197601 -0.00199879 -0.00199856 -0.00199822 -0.00199836 -0.00199791 -0.00199886 -0.00199831 -0.00199818 -0.00199852
internal_weight=0 392.249 361.499 221.75 154 182.25 139.75 54 158.75 153.75 84.9999 68.7499 47.5 35.75 11.75 26.5 19.25 40.25 27.5 37.5 28.25 51.2499 25.5 20.25 25.75 72.2499 42.2499 26.25 12.5 29.9999 17.75 14.5 39.4999 32.7499 21.75 23.5 67.4998 57.9999 51.4999 16 18.75 21.25 10.75 14 11.25 18.5 13.5 13.75 17.5 13.75 14.25 99.9999 50 16.25 43.2499 28.4999 23.4999 27.2499 18.25 10.5 11.75 33.75 14.75 11.5 12.25 10.25 12.25 12.75 30.75 49.9999 11.75 28.75 10.5 45 25.75 19 40 27.5 12.5 9.99999 18.25 18.5 11
internal_count=2185 1569 1446 887 616 729 559 216 635 615 340 275 190 143 47 106 77 161 110 150 113 205 102 81 103 289 169 105 50 120 71 58 158 131 87 94 270 232 206 64 75 85 43 56 45 74 54 55 70 55 57 400 200 65 173 114 94 109 73 42 47 135 59 46 49 41 49 51 123 200 47 115 42 180 103 76 160 110 50 40 73 74 44
cat_boundaries=0 1
cat_threshold=8
is_linear=0
shrinkage=0.001


Tree=3
num_leaves=83
num_cat=1
split_feature=11 1 10 7 1 2 4 1 10 2 10 2 1 4 3 6 4 4 1 2 3 2 4 7 4 8 2 7 8 10 10 3 10 6 6 10 2 3 10 10 2 3 6 7 4 8 8 7 4 10 3 9 4 4 7 8 1 8 8 10 4 7 4 7 3 9 8 2 2 6 6 4 9 6 1 10 7 6 6 1 10 8
split_gain=233.472 46.749 32.5537 27.4658 17.3066 13.1609 10.4536 10.4533 9.68978 9.29941 11.7671 9.231 9.16091 9.02925 8.96387 10.3246 7.97692 7.57846 7.447 9.09294 7.41972 7.38961 6.99375 6.55216 6.44058 6.42639 6.0818 7.52784 5.95162 5.68312 5.64968 5.76688 5.64413 5.56227 5.54233 5.45921 5.06206 6.65231 5.05607 8.30935 5.94763 6.90026 4.85943 7.4611 4.79536 4.31578 6.37182 4.18746 4.83794 4.15645 4.13119 3.7935 3.59324 3.49973 3.14992 3.07784 3.04793 3.31785 4.84187 4.3488 2.799 2.60359 2.57327 3.27997 2.43427 1.82118 2.64384 1.6018 1.52137 1.52081 1.42771 0.901471 0.90021 0.504125 0.111804 5.75891e-06 2.6614e-06 1.70821e-06 1.58495e-06 1.51048e-06 4.80902e-07 8.21241e-07
threshold=0 16398.200000000004 -0.047734197986069461 0.61312100000000014 93030.400000000009 1604815.0000000002 -0.022597658239706806 122351.50000000001 -0.53204532880408795 1756210.0000000002 -0.498506002522839 744208.00000000012 100434.50000000001 0.26079304797583985 0.28260354952449968 0.94436800000000021 0.40623769610523558 0.79525118949308859 30067.650000000005 842212.00000000012 0.21770545334456023 1057625.0000000002 0.73501066362105694 0.6933760000000001 0.8808875630734625 0.72809050000000008 499090.50000000006 0.57357500000000006 0.79673150000000004 -0.45098888506240259 -0.42401037436199179 0.12202894419462987 0.6013601463730972 0.84581450000000014 0.79775800000000008 -0.35222074498466133 677478.50000000012 0.16440573661923816 0.29319339572007902 0.15442308726772694 755300.00000000012 0.17943697711917414 0.77122400000000013 0.54381500000000005 0.904247772124673 0.71987200000000018 0.80002550000000017 0.61704650000000016 0.79927489246338035 -0.28823380587556208 0.21623838948929852 0.65968150000000014 0.87367934347274712 0.31333404336705323 0.74705100000000013 0.77841400000000005 79959.400000000009 0.72516300000000011 0.77216450000000014 0.4679609831524506 0.59389408311072056 0.55296200000000006 0.77766054264004947 0.53923800000000011 0.15555922654740115 0.51646350000000008 0.72879650000000018 631267.50000000012 831275.00000000012 0.83764050000000012 0.80416150000000008 0.87236118307107013 0.52813350000000014 0.9111760000000001 60929.100000000006 0.37475174564178571 0.80975350000000013 0.83172100000000004 0.87047050000000004 176767.00000000003 -0.38263384342630918 0.78126600000000013
decision_type=9 2 2 2 2 2 2 2 2 2 2 2 2 2 2 2 2 2 2 2 2 2 2 2 2 2 2 2 2 2 2 2 2 2 2 2 2 2 2 2 2 2 2 2 2 2 2 2 2 2 2 2 2 2 2 2 2 2 2 2 2 2 2 2 2 2 2 2 2 2 2 2 2 2 2 2 2 2 2 2 2 2
left_child=73 29 3 7 5 18 -5 9 21 10 22 20 16 25 15 17 28 30 19 -4 70 23 42 33 54 32 44 62 -10 -2 -12 49 -6 -8 -27 -17 37 -18 39 -15 64 55 -3 -44 -24 -14 -47 48 51 -32 71 56 -19 -33 -25 -42 57 59 -59 -20 -55 -13 -28 -64 -40 66 -49 -26 -67 -31 -9 74 -39 75 -38 76 77 80 79 -79 81 -1
right_child=1 2 4 6 13 -7 8 11 12 -11 14 61 45 38 -16 35 36 52 47 -21 -22 -23 26 24 67 34 27 -29 -30 69 31 53 -34 -35 -36 -37 50 72 40 -41 41 -43 43 -45 -46 46 -48 65 -50 -51 -52 -53 -54 60 -56 -57 -58 58 -60 -61 -62 -63 63 -65 -66 68 -68 -69 -70 -71 -72 -73 -74 -75 -76 -77 -78 78 -80 -81 -82 -83
leaf_value=-0.001996085214603472 -0.0019970790108938623 -0.0017975485594792383 0.0011629764833582627 -0.00083369170759876616 0.0011974670522371608 -0.00030374268885730043 0.00020619361447394666 -0.0010464644001557011 0.00090651379259116443 0.0009975622950615117 0.00039898270915265807 -0.0017308254546795836 -0.00037612876685097328 0.00070349117749411011 0.001197452782371022 0.00015283594168716128 6.1977096418288467e-05 0.0011979656597890177 0.00085428498680601751 -0.0005604994669226325 0.00079843547743336477 -0.00099905795876960302 -0.0012490344206442005 -0.00099906644614247177 0.00019834127902712233 -1.5131353364753373e-06 0.00099921167128824945 -0.00087996882950619124 -0.00060094889527448597 -0.00047676346495057734 -0.00039978666515222975 -0.000758420758449134 -0.00028708815345052622 0.0014449115029710345 -0.0011520959378719185 0.0014255376731465961 0.0017953505349817911 0.00099628382875329401 0.0017103721961366869 -0.0008335411615053792 -0.00042906416015996889 0.0013972020980129816 -0.0012484487329768271 0.00028576226954062377 -7.9984268169910295e-05 0.0011974852602217813 -5.861563295363885e-05 0.0015632754762956408 0.0017102812476728129 -0.001584942418386553 0.00087193183510507304 0.0014629988422539346 -9.0804281891815145e-07 0.00066577818506048409 -5.8333314330753041e-05 0.00059819496774721984 0.0011967612974825735 0.0016152105521689438 0.00041857510628930475 -0.00032447885500323689 -0.00033404353572314538 -0.00079923222208203178 -0.00023527873838382073 0.00071901477354170706 0.00079680243697328318 0.001351091370734985 0.00080720364901839658 0.00099879214817246375 0.0019942456570308828 -0.0012379186382490057 -0.00033239387738235823 0.0013964885659495988 0.0015963554465123913 -0.0017111186732119538 0.0019959739712015591 -0.0019969131055066272 -0.0019967165799966093 -0.0019960033554945085 -0.0019958252339712071 -0.0019967245318793523 -0.0019955431973299629 -0.0019955828953810489
leaf_weight=7.4999695271253568 7.4999798238277462 4.9999869763851192 5.9999748617410642 5.9999914467334738 4.9999797940254229 8.2499837577342969 7.2499907910823804 5.2499910742044502 5.4999814331531507 7.9999763220548621 7.4999875724315563 7.4999802559614164 7.9999823272228268 8.4999764263629896 7.499982386827468 6.4999896883964539 7.7499684691429165 4.999987527728079 5.2499784976243991 6.2499901205301285 4.9999898970127097 4.9999907612800589 7.9999888986349088 5.9999930858612087 4.9999892115592939 8.4999729692935961 4.9999958127737107 6.2499939352273932 4.9999902695417404 5.2499902397394163 4.9999932646751404 7.249986961483958 5.2499901801347733 7.249972328543663 8.2499827295541746 6.9999774545431119 4.999969303607946 4.9999753236770612 6.9999683946371096 5.9999874383211127 6.9999818503856677 4.999983385205268 7.9999866336584073 5.2499934434890747 6.249992623925209 7.4999764561653164 8.7499761730432493 9.2499491721391696 6.9999654144048682 7.2499894350767224 7.9999691098928443 7.4999655783176413 4.9999899864196777 5.2499909847974759 8.7499761134386045 4.9999874532222748 8.7499631494283658 5.249974623322486 9.4999729841947538 7.7499791979789734 5.9999946802854538 4.9999938011169434 8.4999848455190641 6.2499853670597068 4.9999771118164062 7.7499591857194883 9.2499571889638883 4.9999898821115494 6.9999380111694336 5.2499899119138718 5.9999905377626419 4.9999815374612799 4.9999737441539764 6.9999798983335486 6.24996717274189 9.2499742209911329 5.2499837577342978 5.2499778866767901 7.9999627172946921 6.499981164932251 6.9999640583992031 5.7499712556600571
leaf_count=30 30 20 24 24 20 33 29 21 22 32 30 30 32 34 30 26 31 20 21 25 20 20 32 24 20 34 20 25 20 21 20 29 21 29 33 28 20 20 28 24 28 20 32 21 25 30 35 37 28 29 32 30 20 21 35 20 35 21 38 31 24 20 34 25 20 31 37 20 28 21 24 20 20 28 25 37 21 21 32 26 28 23
internal_value=0 0.000244104 0.000310124 0.000105353 0.000650728 0.000908535 0.000454702 -0.000164356 0.000518589 -4.83467e-05 -0.000113844 -0.000712121 0.000733463 0.000267674 0.000165104 3.97181e-05 0.000968268 -0.000176572 0.00101218 0.000283651 -0.000215146 0.000145899 -0.000444052 0.000291754 -2.09759e-05 -0.000186576 -0.000211229 7.65471e-05 0.000188674 -0.00133223 -0.000379212 -0.000569016 0.000437084 0.000825552 -0.000568218 0.000812755 0.00116317 0.000757381 0.000549622 6.74775e-05 0.000790694 0.000410208 -0.000957538 -0.000640554 -0.000736293 0.000225122 0.000521123 0.0011181 0.000938092 -0.00110121 0.00146018 0.000815244 0.000598529 -0.00021662 -0.000441005 -1.0395e-06 0.000682144 0.000519877 0.000844496 0.00015156 0.00013254 -0.00135819 0.000379242 0.000169083 0.00132972 0.00139421 0.00118524 0.000598567 0.00165632 -0.000857341 -0.000665627 0.00174979 0.00129632 -0.0016891 0.00190681 -0.00199619 -0.00199605 -0.00199596 -0.00199617 -0.0019964 -0.00199576 -0.00199587
internal_weight=0 484.749 466.749 291.499 175.249 104.75 127 164.5 121 135.75 127.75 28.7499 76.7497 70.4998 69.2499 61.7499 52.4998 48.2499 96.4996 12.25 16.25 44.2499 58.4999 39.2499 24.7499 26.9999 40.2499 26 10.5 18 38.2499 30.75 10.25 14.5 16.75 13.5 41.9998 17.7499 43.4999 14.5 28.9999 17 18.25 13.25 14.25 24.2499 16.25 84.2496 50.9998 12.25 24.2499 43.9998 9.99998 18.5 14.75 12 36.4999 27.7499 14.7499 13 11.25 12.5 19.75 14.75 11.9999 33.2498 18.4999 9.99998 14.7499 10.5 11.25 16.2499 9.99995 61.4998 11.2499 54.4998 45.2498 39.9998 19.7499 11.75 20.2499 13.2499
internal_count=2185 1939 1867 1166 701 419 508 658 484 543 511 115 307 282 277 247 210 193 386 49 65 177 234 157 99 108 161 104 42 72 153 123 41 58 67 54 168 71 174 58 116 68 73 53 57 97 65 337 204 49 97 176 40 74 59 48 146 111 59 52 45 50 79 59 48 133 74 40 59 42 45 65 40 246 45 218 181 160 79 47 81 53
cat_boundaries=0 1
cat_threshold=8
is_linear=0
shrinkage=0.001


Tree=4
num_leaves=83
num_cat=0
split_feature=0 1 1 0 0 7 10 10 7 0 10 1 5 1 7 6 1 3 10 9 5 10 10 5 2 2 3 10 2 1 5 2 5 10 8 7 7 2 10 3 3 0 7 6 0 10 3 2 5 0 1 2 10 7 1 8 1 2 0 3 5 10 0 8 9 2 5 2 1 5 5 8 1 5 5 1 1 1 10 8 1 2
split_gain=493.117 93.4511 42.4361 28.6526 23.9521 20.7554 17.1214 12.7725 11.7518 13.295 12.3682 8.2951 11.2953 6.4157 6.19434 5.69703 4.87459 4.75601 7.69211 4.62495 5.85458 6.26047 4.42495 4.36762 4.32086 4.46204 7.85195 4.64675 4.31755 4.48875 4.29966 4.23266 5.04463 4.55 3.88873 3.72388 9.15182 6.64493 6.56783 5.60169 5.17766 5.38312 5.38343 5.51775 5.03052 3.96146 3.83562 3.1373 2.75386 2.65696 2.56477 2.36659 3.49842 2.26744 2.24812 2.16828 1.94169 1.90436 1.68002 3.05221 4.41452 1.65267 1.53633 1.33864 1.29327 1.19164 0.669151 0.635758 0.479779 0.241754 0.418418 0.177109 0.151518 0.12476 0.124335 4.68854e-05 2.56372e-05 2.08215e-05 9.37591e-06 5.91716e-06 4.70845e-06 4.39376e-06
threshold=2407.5000000000005 170747.50000000003 15559.550000000001 1755.7350000000004 3223.9500000000003 0.74048150000000013 -0.034780786373790097 -0.059798528221399951 0.55296200000000006 1549.1100000000004 -0.014971964374560057 118870.00000000001 1244736.0000000002 99248.85000000002 0.67910900000000007 0.83916850000000009 216271.50000000003 0.1109581551404842 0.35691492880206871 0.42514650000000004 978592.00000000012 -0.50957873791897279 -0.365004779809875 1327296.0000000002 670883.50000000012 959114.50000000012 0.13490766163952406 0.70346019489857892 1276440.0000000002 93935.300000000003 1151616.0000000002 747422.00000000012 1005216.0000000001 -0.57182192480924565 0.73830050000000014 0.6933760000000001 0.61312100000000014 801647.50000000012 -0.63386229953123674 0.20082247299618333 0.30875489980156512 1168.4800000000002 0.54381500000000005 0.8675560000000001 1316.5200000000002 -0.46169225063441949 0.12202894419462987 706930.50000000012 821856.00000000012 1149.1650000000002 56416.000000000007 1196215.0000000002 -0.44612982782902411 0.76421950000000016 51416.200000000004 0.79673150000000004 74254.550000000017 648840.00000000012 4100.0500000000002 0.20637820705542662 1220736.0000000002 -0.24222602191113396 1004.3900000000002 0.82995950000000007 0.58138450000000008 431424.00000000006 909184.00000000012 431424.00000000006 54648.250000000007 1251488.0000000002 1310368.0000000002 0.86966050000000006 69510.300000000017 926432.00000000012 753888.00000000012 128607.50000000001 100882.00000000001 134135.50000000003 -0.51374564747383256 0.75425400000000009 211020.50000000003 641329.00000000012
decision_type=2 2 2 2 2 2 2 2 2 2 2 2 2 2 2 2 2 2 2 2 2 2 2 2 2 2 2 2 2 2 2 2 2 2 2 2 2 2 2 2 2 2 2 2 2 2 2 2 2 2 2 2 2 2 2 2 2 2 2 2 2 2 2 2 2 2 2 2 2 2 2 2 2 2 2 2 2 2 2 2 2 2
left_child=1 2 22 5 14 6 11 19 61 10 16 35 55 24 17 30 -10 66 34 -5 21 -21 -1 -22 62 26 -26 68 29 -9 48 32 33 -7 -19 36 38 -37 -4 63 41 42 51 -44 -43 -45 -46 -41 -15 50 -29 52 -40 -16 -33 -13 -54 74 59 65 -61 -3 73 -38 -36 -6 -2 -60 -27 77 -71 75 -56 -8 -35 78 -74 81 -69 -80 -77 -67
right_child=4 8 3 7 58 31 13 28 9 -11 -12 12 -14 15 53 -17 -18 18 -20 20 23 -23 -24 -25 25 27 -28 49 -30 -31 -32 54 -34 57 64 37 39 -39 40 47 -42 44 43 45 46 -47 -48 -49 -50 -51 -52 -53 56 -55 72 -57 -58 -59 67 60 -62 -63 -64 -65 -66 69 -68 71 -70 70 -72 -73 76 -75 -76 80 -78 -79 79 -81 -82 -83
leaf_value=-0.0018148823986267272 -0.0013972541761513386 -0.0019955452279067556 -0.00022282546045887094 0.0004991917481006324 -0.0013974103231145312 0.00066371906572855195 0.0019937684773780871 0.0014823865959249416 -5.363836226397982e-08 -0.0016887543251587727 0.0010736634091877994 0.001074795124662545 -0.00076915091881120108 0.00019774608751077472 -1.4369421547378682e-06 0.00138959101859082 -0.0013964220055986247 -0.00073535193253432697 8.5040315437479386e-05 -0.00060773419145322694 -0.001178012272015076 0.00081221648414698925 -0.00054638880256444933 -0.00014268200547076914 -0.00017026656011397809 0.0015945088311372041 0.0014019695102518172 0.00087670358602043471 7.8180571280321077e-05 0.00039675733765504701 -0.00040223104373383596 0.0011947359595569536 0.00058514116720122494 0.0019939722763901652 -0.0018577048614117555 -0.00066644593811521398 0.001889024008753602 0.0009064092616521773 0.00042014601698532291 0.001328809564757826 0.0015344920644998162 0.0018230979331876553 -0.00071460991139948838 -0.00019987204891249883 8.5181172680566525e-05 0.0010438558720031392 0.0011491318820773457 0.00037222645405172278 0.001234724005197457 0.00049708251439386131 0.0018130201949802876 0.0002335704206064004 0.001649339712692688 -0.00081374174511434684 0.0017936671033162083 0.00019887359230405055 0.0007972680398082864 0.0011942641912562736 -0.0015974956662319381 -0.00082279379115525019 -0.0018663332574125494 -0.0013079418920332161 0.0012992428359513278 0.0012691034796542186 -0.0011966149518049367 -0.0019958229520170446 -0.0018664805339384421 -0.0019954941572339503 0.0019944186274471372 -0.001596089523109058 -0.0019957900908151465 -0.0017959246182050722 0.0019934129107859215 0.0017935815933894528 0.0017941266024763425 -0.0019946383375498986 0.0019960290623175312 -0.0019941676984075491 -0.0019962636723177191 -0.0019974451324123311 -0.0019934870972440994 -0.0019970109486780415
leaf_weight=5.4999778121709824 4.9999826550483686 6.7499592304229736 8.9999855756759626 7.999982774257659 4.9999863654375067 5.2499867379665401 8.2499167025089282 9.7499357014894503 4.9999867230653781 6.4999665915966025 6.4999568909406689 6.4999812692403811 9.7499778568744642 4.9999779611825961 6.9999907761812192 8.2499489337205869 4.9999712705612183 9.4999854117631966 5.7499894797801963 5.7499841749668121 9.7499736994504946 6.7499799728393572 5.4999964237213117 6.9999844282865515 5.999974921345709 4.9999562501907366 6.7499465048313141 6.2499747127294558 6.2499866038560858 6.2499744296073905 4.9999862909317008 4.99995790421963 8.4999662935733777 8.2499211579561287 7.249958321452139 5.2499939948320371 9.4999163895845431 5.4999828487634659 9.49998743832111 5.9999610632657987 6.4999687969684592 5.7499804347753551 6.999983578920367 4.999992936849595 5.7499881982803336 5.2499754726886723 8.2499791830778104 7.9999743849039078 5.249976634979248 5.9999802410602561 5.4999586641788483 8.4999755322933179 5.7499841153621745 6.7499855756759644 4.9999451488256481 4.9999827444553375 4.9999818652868271 4.9999572783708564 4.999987080693244 8.4999894350767153 7.7499500364065161 7.2499652802944166 5.7499584704637519 5.4999728947877875 4.9999784529209137 4.9999760091304841 7.7499526143074036 8.4999506920576078 7.4999338239431381 4.9999729096889478 5.4999708831310272 4.9999728947877875 7.7499104738235456 4.999946877360343 4.9999538809061042 7.4999414384365064 7.2499658614397049 4.9999548494815818 9.7499605715274864 7.4999827295541754 6.7499264180660248 8.2499767243862134
leaf_count=22 20 27 36 32 20 21 33 39 20 26 26 26 39 20 28 33 20 38 23 23 39 27 22 28 24 20 27 25 25 25 20 20 34 33 29 21 38 22 38 24 26 23 28 20 23 21 33 32 21 24 22 34 23 27 20 20 20 20 20 34 31 29 23 22 20 20 31 34 30 20 22 20 31 20 20 30 29 20 39 30 27 33
internal_value=0 0.000595332 0.000752856 0.000814638 -0.00151636 0.000946516 0.000811451 0.000183508 -0.000917108 -0.000477412 -2.165e-07 0.000598883 2.26499e-05 0.00116511 -0.000979677 0.000720169 -0.000698237 -0.00117763 -0.000943573 -0.000174574 -0.000358851 0.000159039 -0.00118063 -0.000745337 0.00133376 0.00115827 0.000662092 0.00136741 0.000782994 0.00105831 0.000358024 0.00148619 0.00124532 0.00148412 -0.00121551 0.000700081 0.000754861 0.00013827 0.000582733 0.00123712 0.00068308 0.00059891 0.000411421 -3.02261e-05 0.00103559 0.000437158 0.000712152 0.00078219 0.000728881 0.00103851 0.00131498 0.00067641 0.000862293 -0.000400205 0.00179449 0.00069396 0.00125303 0.00172012 -0.00180616 -0.00167655 -0.00132048 -0.00163946 0.0017309 0.00166172 -0.00158787 -0.00184799 -0.00168247 -0.00193578 0.00183445 -0.00192635 -0.00180546 -0.00197337 0.00194442 0.00191823 0.00191856 -0.00199555 0.00199468 -0.00199591 -0.00199635 -0.00199678 -0.00199409 -0.00199656
internal_weight=0 392.248 355.248 344.248 153.999 284.749 227.749 59.4998 36.9998 22.9999 16.4999 142.25 21.2499 85.4994 53.9998 23.4999 9.99996 40.2498 27.4999 37.2499 29.2499 12.5 11 16.75 61.9995 42.9997 12.7499 30.2498 22.2499 15.9999 15.2499 56.9996 31.9998 23.4998 21.7499 121 110.25 10.75 81.2498 28.9998 72.2498 65.7498 45.9999 17.25 19.7499 10.25 14 13.9999 10.25 17.7499 11.7499 28.7499 20.25 13.75 24.9998 11.5 10.75 18.2498 99.9995 49.9998 16.2499 13.9999 18.9998 14.9999 12.2499 33.7498 12.7499 49.9997 12.4999 28.7499 10.4999 44.9997 19.9998 13.2499 13.2499 39.9998 14.9999 18.2499 25.7499 17.2499 14.2499 13.25
internal_count=2185 1569 1421 1377 616 1139 911 238 148 92 66 569 85 342 216 94 40 161 110 149 117 50 44 67 248 172 51 121 89 64 61 228 128 94 87 484 441 43 325 116 289 263 184 69 79 41 56 56 41 71 47 115 81 55 100 46 43 73 400 200 65 56 76 60 49 135 51 200 50 115 42 180 80 53 53 160 60 73 103 69 57 53
is_linear=0
shrinkage=0.001


Tree=5
num_leaves=82
num_cat=0
split_feature=1 10 1 7 5 1 1 2 4 4 6 3 10 3 6 10 4 5 5 4 8 8 10 4 6 2 9 7 5 9 8 1 9 9 2 1 5 10 8 8 1 2 9 10 2 9 7 9 2 3 8 10 9 8 7 1 9 9 6 1 6 9 4 4 8 2 2 4 9 8 5 1 7 10 3 5 8 6 9 5 7
split_gain=120.745 45.8311 36.0706 23.6108 21.1784 16.1673 14.9334 13.1271 11.3169 11.2291 13.5372 10.8114 8.7603 11.3483 7.74498 8.53682 7.68947 6.97531 10.825 7.07268 6.78477 6.83878 6.56366 6.91922 11.1098 6.12404 7.51389 5.92552 13.5159 7.09563 5.85899 5.75952 5.5969 5.5024 5.35212 6.11857 6.49191 5.20738 8.2892 7.32429 5.16858 10.8792 5.16499 5.04093 5.5535 5.38108 5.36365 5.2364 6.30562 6.9195 5.24112 4.73447 5.24789 4.69928 4.50522 6.60672 7.19834 4.49966 7.11284 3.96987 4.01886 3.76391 4.64419 3.71363 3.71097 3.70058 3.46917 3.40632 3.37539 3.35666 3.18194 3.16445 2.82042 1.94512 1.51755 1.31712 0.883096 0.144479 0.107543 8.47337e-06 7.47468e-06
threshold=170747.50000000003 -0.059798528221399951 16398.200000000004 0.61312100000000014 1235392.0000000002 93935.300000000003 20562.700000000004 1604815.0000000002 0.26723947447829249 0.38754973735018566 0.78772400000000009 0.14007096124722615 -0.53204532880408795 0.066946609795756326 0.94914350000000014 -0.51374564747383256 0.10804357999289468 984480.00000000012 1319040.0000000002 0.72098633096126796 0.7895930000000001 0.76477200000000012 -0.58333227179213687 0.83692918980806419 0.84703850000000014 1617370.0000000002 0.53591850000000008 0.50104100000000007 1172992.0000000002 0.52409600000000012 0.78050350000000013 69510.300000000017 0.61970100000000017 0.52940850000000006 907964.50000000012 100434.50000000001 1128640.0000000002 -0.28823380587556208 0.64283200000000018 0.67913200000000018 30067.650000000005 842212.00000000012 0.49764150000000007 2.0447873035312627 978031.50000000012 0.50505950000000011 0.74794850000000013 0.6793395000000001 687717.50000000012 0.14544361156931271 0.79224300000000014 -0.61094976968618675 0.65968150000000014 0.73138300000000012 0.54893700000000012 246202.50000000003 0.53591850000000008 0.46981500000000004 0.8675560000000001 117462.00000000001 0.82391000000000014 0.57469650000000005 0.66081840669896463 0.68240612983686155 0.77778250000000015 1339020.0000000002 479203.50000000006 0.44885602524939849 0.50505950000000011 0.82419550000000019 926432.00000000012 117462.00000000001 0.74048150000000013 -0.49571227680494151 0.20707612507824311 733504.00000000012 0.72516300000000011 0.76292750000000009 0.51197700000000002 1214976.0000000002 0.61704650000000016
decision_type=2 2 2 2 2 2 2 2 2 2 2 2 2 2 2 2 2 2 2 2 2 2 2 2 2 2 2 2 2 2 2 2 2 2 2 2 2 2 2 2 2 2 2 2 2 2 2 2 2 2 2 2 2 2 2 2 2 2 2 2 2 2 2 2 2 2 2 2 2 2 2 2 2 2 2 2 2 2 2 2 2
left_child=1 2 73 11 12 6 -3 40 16 10 -2 14 13 -5 20 -16 69 63 19 -19 21 37 33 24 59 27 -27 28 29 -13 -25 -30 -22 -6 35 36 72 38 -4 -40 41 -8 57 44 46 -45 47 48 50 -50 70 -44 61 -12 77 56 -56 58 74 60 -24 62 -53 67 68 76 -41 -10 -15 -7 -42 -37 -14 -1 -29 -74 -46 -11 -57 -79 -78
right_child=9 5 3 4 22 8 7 -9 17 54 53 25 34 64 15 -17 -18 18 -20 -21 32 -23 23 30 -26 26 -28 42 31 -31 -32 -33 -34 -35 -36 71 -38 -39 39 66 43 -43 51 45 65 -47 -48 -49 49 -51 -52 52 -54 -55 55 78 -58 -59 -60 -61 -62 -63 -64 -65 -66 -67 -68 -69 -70 -71 -72 -73 75 -75 -76 -77 80 79 -80 -81 -82
leaf_value=-0.0019934368636705235 0.0002855557286654658 -0.00047001505706700602 -0.0015964225207009738 -0.00099906855835306049 -0.0014966205632214575 0.00044978632023008608 0.0013941254794921606 -0.00030351435232157475 0.0012338234993253484 -0.0017930835827885813 -0.00059718314674584024 -0.00040009658849170704 0.00083698566953502112 0.00030547535958454176 -0.00083083853142026053 0.00070073353378363994 -0.001225392446481497 0.00016055226273876245 0.0011969151980737514 -0.0012714276670976331 -0.0017733524311299175 0.00046154834431818209 -0.00016699718555778162 0.0011968903936308054 -0.0012493154839103911 0.0014748730366273091 -0.00020130048141731325 9.5349631968768601e-05 -0.00046182165499988247 0.0011981644661792487 -0.00020061136234958435 -0.0017382430212773581 -0.00062378788235993978 -9.4781810190484024e-05 0.0016408006640482701 -0.00033420020896031925 -2.8080353448815779e-06 -0.0014257113272671085 0.0008565211560018698 -0.0011962878960119119 0.00095130623487958048 -0.00066696466050241343 -0.00037338087131368817 0.0011715788372851487 0.0015314522084762298 5.441272835980634e-05 0.0017430347878674903 0.0017927791912932145 -0.00033526660577323152 0.0010343932948219125 0.00028106692713132799 0.0011977475821733996 -0.00010522538590234688 -0.0018573601053424682 -0.0015248595687277387 -0.0017925970610191161 -0.00019230639156978322 -0.0010892505600907589 -0.00079954808136770963 -0.00060007582391933666 0.0009310294945730096 0.0014042657624503063 -7.3816514700726592e-05 0.0016303433289484701 -1.4401819810306388e-06 0.00095783870398109697 -0.00016241919573586894 0.00015082711489165077 0.0012690292970270818 -0.00060114357142727068 0.0019923240696249045 0.00066390976779836359 0.0018491837004887416 -0.0011983472594549575 0.00085568989126940114 0.0012240442206016438 0.0019933693874729396 -0.0019938282401898294 -0.0019931273525958656 -0.0019922026921973747 0.0019917554318124981
leaf_weight=7.9999069422483444 8.7499498575925845 8.4999578148126584 4.9999697655439403 5.9999688863754299 5.9999626129865629 7.7499580681324023 4.9999457448720914 8.2499678432941419 5.2499543428421038 4.9999278038740185 4.9999528676271421 6.2499769032001513 9.4999057501554542 6.4999516904354122 5.9999725222587577 9.2499507367610914 7.7499614208936682 9.2499439716339129 6.2499685734510413 5.4999718815088263 8.9999353140592593 6.499968782067298 5.9999781847000175 7.4999552816152555 7.9999721944332114 5.7499689757823926 4.9999707490205765 5.2499704957008415 6.4999721497297269 4.9999793171882629 4.9999618828296661 7.7499489635229111 7.9999652355909339 5.2499812990427017 8.4998841434717161 5.9999616444110853 4.9999771267175666 6.9999543577432659 5.249976351857188 4.9999718666076651 5.749932140111925 5.2499843686819077 7.9999669194221452 8.4999182522296923 6.4999008029699388 8.7499355375766736 7.9998817145824423 4.9999254047870627 8.999950245022772 6.249935269355773 5.2499479651451102 4.9999708384275525 9.4999624639749509 7.2499367594718933 8.4999223500490242 4.9999272823333722 7.7499359995126715 5.4999720603227606 7.4999704807996741 4.9999832063913336 7.4999541938304901 6.7499731481075278 6.7499673962593079 5.499940261244773 7.9999605417251578 6.7499344050884238 9.2499540001153928 6.499950185418129 8.2499419152736646 4.9999804943799973 5.9999071955680847 6.7499493509531021 6.9998798817396146 4.9999846518039686 5.2499792277812958 6.4999126493930817 5.9999252855777723 7.2499191761016828 5.749927431344986 5.7499088495969772 5.4999027103185654
leaf_count=32 35 34 20 24 24 31 20 33 21 20 20 25 38 26 24 37 31 37 25 22 36 26 24 30 32 23 20 21 26 20 20 31 32 21 34 24 20 28 21 20 23 21 32 34 26 35 32 20 36 25 21 20 38 29 34 20 31 22 30 20 30 27 27 22 32 27 37 26 33 20 24 27 28 20 21 26 24 29 23 23 22
internal_value=0 0.000174292 -5.75138e-05 1.45048e-05 0.000336778 0.000585983 0.0008052 0.0009077 0.000159678 -0.00126824 -0.000664435 -0.00023448 0.000662947 0.000224318 -0.000532424 9.81475e-05 -0.000439838 0.000480988 9.39512e-05 -0.000373407 -0.000707264 -0.000472344 -0.00016951 2.46005e-05 -0.000264686 -1.58843e-05 0.000695258 -0.000105823 -0.000509137 0.000310241 0.00063789 -0.00115602 -0.00123238 -0.000842428 0.000919 0.000768441 0.00102992 -0.000665053 -0.000447722 -0.000153183 0.00101019 0.000338441 6.7026e-05 0.0010891 0.00120843 0.0006049 0.00100011 0.000840561 0.000692931 0.000226068 0.00111174 0.000305072 0.000498915 -0.001343 -0.00155002 -0.00129167 -0.000889334 -0.00029764 -5.57586e-05 0.0001611 0.000443017 0.00080915 0.000467274 0.000952164 0.000546969 0.00158928 -0.00052518 0.000634719 0.000844412 3.76566e-05 0.00148289 0.000194211 0.00125443 -0.00168763 0.00047552 0.00154819 0.00182607 -0.00193755 -0.00189986 -0.00199311 0.0019926
internal_weight=0 480.247 307.248 294.248 128.249 172.998 114.249 105.749 58.7496 65.9993 20.9998 165.999 77.9993 28.7498 70.2496 15.2499 20.4999 38.2497 20.9999 14.7499 54.9997 37.9998 50.2497 38.9998 26.4999 95.7496 10.7499 84.9996 25.4999 11.25 12.4999 14.2499 16.9999 11.2499 49.2495 40.7496 27.9997 31.4998 24.4999 19.4999 97.4989 10.2499 59.4997 87.249 69.9991 17.2499 45.2495 37.2496 32.2497 15.2499 16.9998 35.9998 27.9999 12.2499 44.9995 26.9997 16.2499 23.4999 17.9999 18.4999 13.4999 18.4999 11.7499 17.2498 22.7499 24.7497 14.2499 11.7499 14.7499 12.7499 11.7498 12.7499 22.9997 12.9999 10.4999 13.4998 17.9997 17.9998 10.7499 12.9998 11.4998
internal_count=2185 1921 1229 1177 513 692 457 423 235 264 84 664 312 115 281 61 82 153 84 59 220 152 201 156 106 383 43 340 102 45 50 57 68 45 197 163 112 126 98 78 390 41 238 349 280 69 181 149 129 61 68 144 112 49 180 108 65 94 72 74 54 74 47 69 91 99 57 47 59 51 47 51 92 52 42 54 72 72 43 52 46
is_linear=0
shrinkage=0.001


Tree=6
num_leaves=86
num_cat=1
split_feature=0 11 1 0 0 10 10 5 2 5 1 2 9 1 3 0 1 9 2 9 2 1 1 5 10 8 10 5 10 3 10 2 8 6 9 6 2 8 6 2 9 3 0 9 0 6 1 6 9 8 9 5 1 6 1 0 3 0 3 5 10 0 0 2 6 2 6 0 1 5 5 8 3 8 1 1 1 10 1 5 10 2 10 10 2
split_gain=491.808 177.847 41.0598 23.8886 22.965 15.4591 10.3446 8.96851 8.20554 7.60553 5.638 5.6238 5.15899 5.50622 7.46498 5.70143 4.86023 5.55933 5.26973 4.72981 6.20397 4.46189 4.2836 5.25638 5.28019 4.96152 4.08079 4.08069 5.12878 4.0321 7.41223 4.1565 3.7713 3.6804 4.54588 3.53269 4.07145 3.53134 3.39952 3.19153 7.31636 6.7157 3.58527 3.32656 3.84736 3.13896 4.8494 3.58249 6.28215 4.0906 3.13085 3.05283 2.45113 3.38096 2.16612 1.98803 1.98343 1.67637 3.04544 4.39862 1.58737 1.50869 3.13892 1.18864 0.664905 0.632202 0.46486 0.410423 0.633063 0.241665 0.417722 0.176578 0.125742 0.107913 8.85873e-05 4.2939e-05 2.65866e-05 2.19328e-05 1.13874e-05 8.66555e-06 8.61596e-06 7.25192e-06 6.9948e-06 6.91788e-06 6.07871e-06
threshold=2407.5000000000005 0 15559.550000000001 3223.9500000000003 1670.3250000000003 -0.034780786373790097 -0.059798528221399951 1154592.0000000002 1756210.0000000002 877312.00000000012 163238.00000000003 1409205.0000000002 0.51197700000000002 68455.550000000017 0.1571408444474777 409.99400000000009 39300.350000000013 0.56220100000000006 888568.50000000012 0.48153000000000007 994623.50000000012 95586.700000000026 94833.300000000017 967456.00000000012 0.22191546069845994 0.81394950000000021 -0.365004779809875 713248.00000000012 0.53287653896518761 0.077289378759407154 0.4679609831524506 471875.00000000006 0.82301450000000009 0.79428850000000006 0.47753400000000007 0.83980200000000005 723747.50000000012 0.66261450000000011 0.79775800000000008 561823.50000000012 0.48325500000000005 0.1430252747069555 808.30200000000002 0.58988750000000001 779.65900000000011 0.75574750000000013 127872.50000000001 0.89492550000000015 0.43678100000000003 0.75853500000000007 0.38687450000000007 1310816.0000000002 41320.650000000001 0.82185250000000021 85449.950000000026 2102.7250000000004 0.022215930543698411 4100.0500000000002 0.20637820705542662 1220736.0000000002 -0.36041798911399264 1004.3900000000002 1265.9200000000003 431424.00000000006 0.88977750000000011 431424.00000000006 0.80694500000000013 613.1160000000001 75579.35000000002 1251488.0000000002 1310368.0000000002 0.86966050000000006 0.14682479850797633 0.72218400000000005 168112.50000000003 134135.50000000003 216271.50000000003 -0.59031390923445415 115063.00000000001 909184.00000000012 -0.026214706000290491 641329.00000000012 0.22191546069845994 -0.498506002522839 913458.50000000012
decision_type=2 9 2 2 2 2 2 2 2 2 2 2 2 2 2 2 2 2 2 2 2 2 2 2 2 2 2 2 2 2 2 2 2 2 2 2 2 2 2 2 2 2 2 2 2 2 2 2 2 2 2 2 2 2 2 2 2 2 2 2 2 2 2 2 2 2 2 2 2 2 2 2 2 2 2 2 2 2 2 2 2 2 2 2 2
left_child=1 64 26 29 5 7 45 9 10 16 12 22 19 14 -14 -15 17 -4 39 20 37 72 50 25 -25 66 -3 -8 55 56 31 -31 -16 -33 -35 36 -17 -9 -13 40 -18 -42 -43 44 -41 -6 47 48 -47 -50 -7 -39 53 -52 -30 -29 -2 58 63 -60 -36 67 -63 -5 76 -59 -24 68 73 75 -71 74 -11 -54 77 81 83 -67 79 -79 -78 -65 -69 -1 -81
right_child=3 2 4 57 6 11 27 8 -10 21 -12 38 13 15 32 35 18 -19 -20 -21 -22 -23 23 24 -26 -27 -28 28 54 30 -32 33 -34 34 60 -37 -38 51 -40 43 41 42 -44 -45 -46 46 -48 -49 49 -51 52 -53 61 -55 -56 -57 -58 65 59 -61 -62 62 -64 69 -66 71 -68 82 -70 70 -72 -73 -74 -75 -76 -77 80 78 -80 84 -82 -83 -84 -85 -86
leaf_value=-0.0019927963953890854 -0.0010930920500525215 -0.0017933250885339299 -0.00047818963713602602 -0.001395536159939899 0.00072613937890745369 0.00079230049487837777 0.0016129137449207155 -0.00050085804688705855 0.0018035311463432491 0.0017921294554141139 -0.00039888437174055632 0.0012211511520385581 -0.0005015213811399371 0.00019827419888591223 0.001268641715422831 0.0016626741196079378 0.0018132143921792574 0.00099517612594918008 8.5156381930452294e-05 -0.0006000621195022905 0.0011309324945039073 0.00096202295156948194 0.0015939345757733038 -8.9849332221112504e-05 0.0011304512654121022 0.00066125836303385652 -0.00054507442717623318 0.0015933783116597211 0.0006043467958994508 -0.0017083840451043082 6.2697229983518991e-05 -9.2385365890086069e-05 0.00023881663638080058 -0.00036859262486720317 -0.0010924967454470714 0.0019955505114920289 0.00049770333814748988 -2.2628774883403603e-06 0.00029880760519889333 0.0006614036040974193 -0.00030989348400742691 0.0015945478181852734 0.00039700095200838402 0.0018684140131620592 0.0015617040816614531 0.00071795436420919972 -0.00099828834773287218 0.00066398705289697098 -0.00094084770763286146 6.3676364633571768e-05 0.0018018940930439944 0.00092038284488525266 0.0017901364651345365 0.00071333399215672399 -0.00026366151937401905 0.00072212887135742908 -0.001842141465028947 -0.0015959099740140677 -0.00082183403075575105 -0.0018634952279170209 -0.0018046644579162649 0.00085053038974290326 0.0018587108813169131 -0.0019933465110233048 -0.0015939857542149876 -0.0019919648774627914 0.0019931620730979501 0.0019895595902686752 0.0014921151543957152 -0.0015937455372318024 -0.0019931151196601543 -0.0017935523023264817 0.0019931031196674018 0.0019910122643679866 -0.0019902563332238436 -0.0019908575314062211 -0.0019910636567474793 -0.0019956399652916426 -0.0019929039409781312 -0.0019934255436997021 -0.0019926782537015675 -0.0019948727576402005 0.0019910645954590374 -0.0019943890610042377 -0.0019947555644925356
leaf_weight=4.9999325424432755 7.7499378323554975 4.9999356418848038 5.2499678581953031 4.9999660253524771 5.4999783188104621 4.9999148249626151 5.2499348670244244 5.999977231025702 5.2499497681856147 4.9999137967824963 6.2499838769435874 7.7499464303255072 5.9999759048223522 4.9999761581420925 8.2499513626098615 5.9999709427356738 5.4999476075172451 4.999942734837532 5.7499777227640143 4.9999889284372321 9.2499307543039304 7.7499178051948538 4.9999463260173815 5.7499737888574591 9.2499309927225095 5.2499453276395789 5.4999964237213117 4.9999308884143847 5.7499586045742017 6.9999244660139111 7.7499757409095755 5.249967738986018 6.2499854415655127 6.7499735504388836 7.7499314993619954 6.4999572187662116 5.9999727010726929 7.9999532401561719 8.2499393969774228 9.7499019503593498 6.4999696165323284 4.999951243400572 4.9999686032533646 7.9998950511217108 9.2498806715011579 6.2499784529209199 4.9999808818101874 7.4999604970216742 8.4999726116657275 7.7499752342700949 5.2499136924743635 6.4999682903289795 4.9998732507228905 6.2499119788408279 5.7499762624502182 5.4999434351921082 6.4999543875455856 4.999970167875289 8.499976724386217 7.7498773634433737 5.2499572634696907 5.249928951263426 7.4998698681592941 4.9999407976865831 4.9999474436044684 5.7498985826969138 6.9999072849750519 5.2498527169227582 5.9998985379934302 4.99993649125099 5.4999248087406158 4.9999354481697074 8.24989005923271 5.7498786598443985 9.749760687351225 4.9998901337385169 9.74980077147484 4.9999696463346579 5.7499230504035941 6.7499207109212858 4.9999300241470293 8.2499356716871244 7.4998359680175781 5.9999456852674538 6.9999466836452484
leaf_count=20 31 20 21 20 22 20 21 24 21 20 25 31 24 20 33 24 22 20 23 20 37 31 20 23 37 21 22 20 23 28 31 21 25 27 31 26 24 32 33 39 26 20 20 32 37 25 20 30 34 31 21 26 20 25 23 22 26 20 34 31 21 21 30 20 20 23 28 21 24 20 22 20 33 23 39 20 39 20 23 27 20 33 30 24 28
internal_value=0 0.000594543 0.000787309 -0.00151435 0.000867379 0.000992477 0.000344368 0.000810451 0.000590249 0.00104154 0.000515311 0.00129231 0.000587866 0.000815328 0.000436573 0.00114573 0.000872504 0.000240523 0.00099082 0.000299857 0.000451104 0.00156473 0.00138844 0.00109561 0.000662669 0.00147208 -0.00113948 0.000820744 0.000631704 -0.000978379 -0.000814769 -0.00102728 0.000824751 -0.000836574 -0.0010344 0.0014018 0.00108019 0.000144353 0.000745568 0.0010971 0.000814367 0.000481419 0.000995773 0.00132747 0.00109971 2.38449e-05 -8.65156e-05 6.54465e-05 -0.000134067 -0.000461767 0.00154919 0.000411337 0.0016196 0.00121028 0.000170342 0.00113701 -0.00143476 -0.00180377 -0.0016743 -0.00131862 -0.0013801 0.00173102 0.00144358 -0.00184555 -0.00145463 -0.00193325 0.00182682 0.00185525 0.00175234 -0.00192381 -0.00180294 -0.00197073 0.00191726 0.00189758 -0.00199288 -0.00199335 -0.00199249 -0.00199372 -0.00199414 -0.00199451 -0.00199161 -0.0019943 0.00199044 -0.00199367 -0.0019941
internal_weight=0 392.246 361.497 153.998 350.997 283.247 67.7496 176.249 90.2495 85.9991 84.9996 106.998 78.7496 43.9998 20.4999 23.4999 64.9994 10.2499 54.7495 34.7498 29.7498 20.9997 90.9986 32.2497 14.9999 17.2498 10.4999 27.2497 21.9998 53.9996 39.7497 31.9998 14.4999 24.9998 19.7499 18.4999 11.9999 20.4999 15.9999 48.9995 21.9998 16.4999 9.99992 26.9997 18.9998 40.4998 34.9999 29.9999 22.4999 16.2499 58.7489 14.4999 53.749 11.4998 11.4999 10.4999 14.2499 99.9988 49.9994 16.2499 12.9999 42.2491 12.7498 33.7496 30.7496 49.9993 11.9999 29.4993 16.7497 28.7496 10.4999 44.9994 13.2498 10.7498 39.9994 18.2498 25.7496 30.2497 24.4998 18.7498 14.7497 13.2499 12.7497 10.9999 13.7499
internal_count=2185 1569 1446 616 1404 1133 271 705 361 344 340 428 315 176 82 94 260 41 219 139 119 84 364 129 60 69 42 109 88 216 159 128 58 100 79 74 48 82 64 196 88 66 40 108 76 162 140 120 90 65 235 58 215 46 46 42 57 400 200 65 52 169 51 135 123 200 48 118 67 115 42 180 53 43 160 73 103 121 98 75 59 53 51 44 55
cat_boundaries=0 1
cat_threshold=8
is_linear=0
shrinkage=0.001


Tree=7
num_leaves=82
num_cat=1
split_feature=11 10 7 5 2 8 3 10 6 4 2 10 5 4 5 6 3 5 5 4 4 3 7 2 2 2 5 4 7 2 9 5 2 5 8 7 5 9 10 2 2 6 10 5 5 8 7 6 7 9 3 2 8 4 4 8 9 9 8 7 4 3 5 10 8 4 8 9 9 2 9 2 6 10 7 4 6 3 3 2 8
split_gain=231.991 36.9954 29.4933 18.6255 10.8413 12.7834 10.5226 9.39902 8.61028 9.27795 8.58127 8.19525 11.2338 9.91272 7.72559 7.29823 7.10201 7.05889 8.95812 6.49468 6.42675 7.68825 10.509 6.13838 6.72022 6.11667 6.40062 5.66514 6.50036 5.32417 5.82106 5.1176 5.03902 4.98292 4.90811 4.80645 5.10936 4.56956 4.55789 4.38166 8.87459 4.96365 4.94766 4.32978 5.50194 5.16822 4.03443 3.81262 3.8082 4.1239 3.61953 6.22737 3.80939 3.42588 3.38774 3.16747 5.7256 5.06276 3.05915 3.05435 2.76989 2.49067 2.35094 2.29552 2.84354 2.16313 2.04911 1.66652 1.63312 1.18657 1.12709 0.899522 0.499197 1.99209e-05 6.47207e-06 6.57547e-06 3.88678e-06 3.20244e-06 5.68668e-06 3.20202e-06 1.79944e-06
threshold=0 -0.047734197986069461 0.61312100000000014 1272992.0000000002 1604815.0000000002 0.77078950000000013 0.17019468445551816 -0.53204532880408795 0.84703850000000014 0.75252965955227491 412391.00000000006 -0.50957873791897279 1143456.0000000002 0.82229522983247305 1332224.0000000002 0.81245950000000011 0.13089446096349774 723296.00000000012 649344.00000000012 0.64845252346222593 0.65044161950475254 0.073482630067960672 0.57357500000000006 1538050.0000000002 641329.00000000012 479203.50000000006 1099360.0000000002 0.90219634584493147 0.50104100000000007 571732.50000000012 0.53900000000000015 756320.00000000012 780789.50000000012 1143456.0000000002 0.8423965000000001 0.66846250000000007 1345024.0000000002 0.44390450000000004 0.6013601463730972 974062.00000000012 902265.50000000012 0.75826400000000016 1.8642767637093647 794048.00000000012 1355872.0000000002 0.70144150000000016 0.65948400000000007 0.72141000000000011 0.51509000000000016 0.41879950000000005 0.19626149845669669 623506.00000000012 0.78050350000000013 0.66288456652550998 0.44885602524939849 0.71987200000000018 0.48153000000000007 0.50505950000000011 0.75853500000000007 0.74705100000000013 0.14016072966937579 0.16493857077309565 844704.00000000012 -0.54125957356068766 0.81288050000000012 0.33593312909807255 0.76983000000000013 0.47948000000000007 0.38598450000000001 593401.50000000012 0.50505950000000011 1283745.0000000002 0.9111760000000001 0.64075442063776167 0.55296200000000006 0.66081840669896463 0.81245950000000011 0.19626149845669669 0.14179078327996933 747422.00000000012 0.76034700000000011
decision_type=9 2 2 2 2 2 2 2 2 2 2 2 2 2 2 2 2 2 2 2 2 2 2 2 2 2 2 2 2 2 2 2 2 2 2 2 2 2 2 2 2 2 2 2 2 2 2 2 2 2 2 2 2 2 2 2 2 2 2 2 2 2 2 2 2 2 2 2 2 2 2 2 2 2 2 2 2 2 2 2 2
left_child=72 2 6 7 20 -6 11 25 35 -10 66 15 13 17 54 47 32 18 -13 -19 21 22 33 24 29 -4 31 28 -26 30 -12 69 -17 70 53 -5 63 48 -24 40 41 -39 65 -22 45 -45 -9 -2 -23 68 51 60 -52 -30 -14 56 61 -57 -47 -59 -43 -48 -61 -37 -65 -41 -8 -60 -50 -27 -3 -56 73 74 75 79 -77 78 80 -1 -76
right_child=1 4 3 8 5 -7 10 46 9 -11 23 12 14 -15 -16 16 -18 19 -20 -21 43 37 38 -25 27 26 -28 -29 34 -31 -32 -33 -34 -35 -36 36 -38 39 -40 42 -42 50 -44 44 -46 58 55 -49 49 -51 52 -53 -54 -55 71 57 -58 59 67 62 -62 -63 -64 64 -66 -67 -68 -69 -70 -71 -72 -73 -74 -75 77 76 -78 -79 -80 -81 -82
leaf_value=-0.001989204985829308 -0.00076521857463961217 0.00028263612025152099 -0.00079917523525399397 -0.00056969435334945954 -0.0010288173927581474 0.00099755920359055291 -0.00036292790261432045 0.0014794197373031615 -0.0015821919153347734 8.0400032287832892e-05 -0.000333011557735057 0.00039776790534181398 -0.00055714439727176407 0.0013295329704802632 4.9344261872857552e-07 0.00061539691021332955 -0.0012233720047773865 0.00093939924186206146 -0.0013302549749631325 -0.00047523152126299187 0.0016382674950550481 0.0010404546076548755 0.001193273728040009 0.00099518781626283816 -0.00073413393115462247 -1.4640709597601198e-06 -0.00026952461330597186 -0.0011980796002134051 6.4805656615564032e-05 0.0013975606100490423 0.00082094980024326506 0.0014218380019108546 -0.00057852042665665544 -0.0012373411939749293 -0.00059855748811716767 -0.00047356438922269481 0.0011065541096522329 0.0014528291956263418 0.00013089924879851721 0.0017869433781870804 -0.00060275864319167581 0.0013934137370724851 0.00045794260610108379 0.0012751876667950767 0.0016842959367209997 -0.00014554162917457126 0.001393251698213972 -0.0017703031579545307 -4.2648896420316519e-06 -0.00066755175786441636 0.0015473789174570336 -0.00030520651999583744 0.00039574617658406588 0.00099769959539624479 -0.0017955868244274077 0.00032976965202946421 -0.00031140738960387708 0.0007722705298282875 0.00019660039586270932 0.0019894530838188047 0.00039482691816321666 0.00039511209132817493 0.0011364059812113676 0.0008535918788465177 -0.00020013688289485058 0.0010333055418311509 -0.00123635632625214 0.00091317327304154595 0.0007771779177869288 0.00066318338979249854 -0.00036514087857081085 -0.0011957426944079264 -0.0017061398365161536 -0.0019913646022785567 -0.0019905859196631286 -0.0019892993408728819 -0.0019882261788819939 -0.0019905699989205576 -0.0019888559822953747 -0.0019902550135397199 -0.0019897570188572747
leaf_weight=5.2498426735401171 6.4999251812696448 5.2499558180570585 4.999943524599078 6.9999645799398449 8.2499335259199125 4.9999733120203009 5.4999600946903211 9.7498081326484662 7.2499357312917692 6.2499544620513916 8.9999403953552299 4.9999633878469485 6.2499472200870576 5.9999338537454596 9.4999230206012708 6.4999745488166827 7.7499482631683341 8.4999273866415006 7.499929815530777 5.2499467730522147 8.4997938424348813 5.2498981505632427 8.7498047947883624 7.9999025464057913 9.4998989105224627 5.4999515116214805 9.2499105334281904 4.9999686479568473 7.7499375790357607 4.9999655336141577 8.4999176263809186 6.9998988062143317 7.7499344497919083 5.2499570548534384 4.9999600350856772 5.2499549090862301 6.7499284744262686 9.2498413771390897 7.4999090284109107 9.7497952431440371 4.9999467730522147 4.9999151229858452 6.4999496787786475 9.749783396720888 6.4998648762702933 6.9999052137136486 4.9999074041843432 8.9998425394296628 4.9999318867921811 5.2499322593212119 6.7498559653758985 8.2499326020479185 4.999919131398201 7.9999525994062424 4.9999432861804944 8.9998922497034091 6.4999082684516898 8.9998970478773135 4.9999366253614417 5.9998228549957258 6.2498946189880371 4.999931737780571 6.9998711943626404 5.2499551028013212 4.9999697506427765 6.24989229440689 5.2499616742134094 9.2498182803392393 5.7499089390039444 5.2499481290578842 5.4999275803565979 4.9999415129423141 6.9998699724674216 7.2498515099287024 4.9998841583728808 6.7497990876436216 6.7497615814208984 6.4998478442430487 4.9998397529125205 6.4998359084129333 5.4998493492603302
leaf_count=21 26 21 20 28 33 20 22 39 29 25 36 20 25 24 38 26 31 34 30 21 34 21 35 32 38 22 37 20 31 20 34 28 31 21 20 21 27 37 30 39 20 20 26 39 26 28 20 36 20 21 27 33 20 32 20 36 26 36 20 24 25 20 28 21 20 25 21 37 23 21 22 20 28 29 20 27 27 26 20 26 22
internal_value=0 0.000243328 3.53285e-05 0.000390882 0.000606623 -0.000264146 -0.000237538 0.000650859 -0.000151873 -0.000812473 3.88191e-05 -0.000458913 -0.000223363 0.000169893 -0.000715887 -0.00082323 -0.000452935 -9.51669e-05 -0.000639045 0.000399268 0.000675505 0.000554979 0.000136505 0.000174246 6.05224e-05 0.000216797 0.00040494 -0.000212017 -4.90309e-05 0.000487501 0.000227483 0.000756423 -3.39252e-05 -0.00043878 0.00026463 0.000153019 0.00038039 0.000706192 0.000702944 0.000832683 0.000654177 0.000809355 0.00119366 0.000993853 0.000847786 0.00067239 0.000893481 -0.00134881 0.000301419 5.89244e-05 0.000618887 0.000354704 0.00105732 0.000538657 -0.00113469 0.000773209 0.000419251 0.000961607 0.000395813 0.00122009 0.000838643 0.000894181 0.00153012 6.41585e-05 0.000339577 0.00149255 -0.000789486 0.000661743 0.000413716 0.000323131 -4.87839e-05 -0.00149566 -0.00168375 -0.00198982 -0.00198958 -0.00198924 -0.00198876 -0.00198998 -0.00198973 -0.00198979 -0.00199015
internal_weight=0 484.744 303.997 131.998 180.747 13.2499 171.998 89.2487 42.7497 13.4999 76.4994 95.4991 57.9995 32.2497 25.7498 37.4996 21.9999 26.2498 12.4999 13.7499 167.497 121.498 32.2496 65.7494 57.7495 31.9997 26.9997 35.2497 30.2497 22.4998 17.4999 17.7498 14.2499 15.9998 20.7499 29.2498 22.2498 89.2486 16.2497 67.9989 45.4993 40.4994 22.4996 45.9991 37.4993 30.9994 57.249 15.4998 21.2497 15.9998 31.2495 19.4997 11.7498 15.7499 16.2498 47.4992 16.4997 30.9995 21.2497 21.9996 11.2498 9.99984 12.9997 15.4999 10.2499 15.9997 10.7499 14.2498 10.7498 10.7499 10.7499 9.99988 61.4984 54.4985 47.2487 25.2492 13.4996 21.9994 15.4996 11.7497 10.4997
internal_count=2185 1939 1216 528 723 53 688 357 171 54 306 382 232 129 103 150 88 105 50 55 670 486 129 263 231 128 108 141 121 90 70 71 57 64 83 117 89 357 65 272 182 162 90 184 150 124 229 62 85 64 125 78 47 63 65 190 66 124 85 88 45 40 52 62 41 64 43 57 43 43 43 40 246 218 189 101 54 88 62 47 42
cat_boundaries=0 1
cat_threshold=8
is_linear=0
shrinkage=0.001


Tree=8
num_leaves=85
num_cat=1
split_feature=0 11 10 7 0 0 0 7 2 5 4 5 10 0 2 8 8 3 10 5 10 0 0 8 7 4 5 10 3 7 10 6 0 0 8 10 2 10 5 3 5 0 7 3 10 5 10 0 7 0 5 0 3 5 4 4 2 6 10 5 2 10 7 7 2 5 6 2 10 5 5 5 5 8 10 8 4 10 10 10 8 7 7 10
split_gain=490.495 177.192 28.5441 28.804 23.8295 17.2213 8.22173 6.17286 5.76357 6.52242 8.12475 7.80477 7.16226 7.01017 6.07401 5.35621 4.76135 4.73307 7.64312 4.59009 4.8523 4.57095 5.35477 8.13616 5.13916 4.5482 7.29412 5.61632 13.5908 5.59505 6.13618 4.06556 3.95881 3.88327 3.87314 3.76316 3.65517 3.6806 3.86661 3.45351 3.18049 2.97013 4.09208 2.81098 2.61581 2.51824 2.48608 3.9226 2.2599 2.09471 1.8843 1.6715 3.03677 4.3841 1.49169 2.19561 2.07868 1.46761 1.39105 1.18669 1.18421 1.17389 1.14479 1.10557 1.06411 0.666927 0.663101 0.628717 0.457081 0.455051 0.908799 0.241166 0.417484 0.175759 2.26653e-05 2.02142e-05 1.63116e-05 1.5072e-05 1.02057e-05 1.69211e-05 1.67461e-05 6.04791e-06 2.93214e-06 2.68417e-06
threshold=2407.5000000000005 0 -0.059798528221399951 0.74705100000000013 3223.9500000000003 1935.0500000000002 951.59250000000009 0.67910900000000007 1775700.0000000002 1154592.0000000002 0.75023696537064277 877312.00000000012 -0.51374564747383256 429.68550000000005 884398.00000000012 0.82301450000000009 0.77778250000000015 0.1109581551404842 0.35691492880206871 1224544.0000000002 -0.62150780565502484 860.43100000000015 1125.3300000000002 0.70793250000000019 0.61312100000000014 0.46462056044821165 1128640.0000000002 0.50603483821867901 0.11234563012249786 0.61704650000000016 1.027631681066828 0.82185250000000021 1616.0850000000003 2297.5450000000005 0.73830050000000014 -0.57794989879320213 381269.00000000006 2.4107459807874725 751584.00000000012 0.098221095499442149 675712.00000000012 564.8565000000001 0.66846250000000007 0.1109581551404842 -0.29583981780344887 749088.00000000012 -0.57734042295064614 2160.7500000000005 0.76421950000000016 622.07500000000016 692288.00000000012 4100.0500000000002 0.20637820705542662 1220736.0000000002 0.24112094412276777 0.36204600188084074 999744.00000000012 0.90082450000000014 0.16630624107887446 1274304.0000000002 431424.00000000006 -0.34738478539976309 0.50722900000000004 0.56247900000000006 821551.00000000012 909184.00000000012 0.88977750000000011 431424.00000000006 0.6013601463730972 723296.00000000012 1072256.0000000002 1251488.0000000002 1310368.0000000002 0.86966050000000006 -0.59596077784143286 0.81514050000000016 0.3676193100257184 -0.4318879019038126 -0.41463061734754586 -0.12622642177532781 0.68193750000000009 0.66846250000000007 0.54893700000000012 -0.37703917667838593
decision_type=2 9 2 2 2 2 2 2 2 2 2 2 2 2 2 2 2 2 2 2 2 2 2 2 2 2 2 2 2 2 2 2 2 2 2 2 2 2 2 2 2 2 2 2 2 2 2 2 2 2 2 2 2 2 2 2 2 2 2 2 2 2 2 2 2 2 2 2 2 2 2 2 2 2 2 2 2 2 2 2 2 2 2 2
left_child=1 66 3 5 7 8 36 17 9 11 12 21 14 -14 -11 16 44 65 34 -12 -21 24 -23 -24 40 26 27 50 -29 30 -27 -25 35 46 -19 -5 -4 38 -38 -28 -3 -22 -43 -32 -15 -42 -7 -48 -9 -13 -8 52 60 -54 59 -56 58 69 -57 -40 -6 -51 -36 -41 -31 -2 76 -53 -58 -37 -71 77 -73 74 -69 78 -1 -62 -76 -80 -81 83 -79 -78
right_child=4 2 6 32 51 33 25 48 -10 10 19 49 13 15 -16 -17 -18 18 -20 20 41 22 23 31 -26 29 39 28 -30 64 43 -33 -34 -35 62 57 37 -39 54 63 45 42 -44 -45 -46 -47 47 -49 -50 61 -52 67 53 -55 55 56 68 -59 -60 -61 71 -63 -64 -65 -66 -67 -68 73 -70 70 -72 72 -74 -75 75 -77 81 82 79 80 -82 -83 -84 -85
leaf_value=-0.0019901165352971114 -0.0013935189475131689 0.0010617330936685059 0.0019878052637913876 0.00085257110100143887 -0.0013939466453857965 -0.0011956127776773071 0.00099170979395326784 -4.5396324103894126e-07 0.001591918983877217 -0.0012551268270386631 5.225757374594716e-05 0.00082758720837171123 -0.00048588921206459785 -2.526574084344449e-06 0.0001990635895851778 -0.00020732870324412559 0.0016133055939387354 -0.00073302096515932889 8.4190833707730272e-05 0.00014176999173547042 0.0005683162692491755 -0.00066701100206314806 0.0014728853986806132 0.00079702716156462936 0.0015614401165775862 0.00013777959924065364 -0.00043650050716495737 0.0014425876396590384 -0.00067007931028446887 0.0013901209446955862 0.00079249508502376542 -0.00031700798093506035 0.00066165809979719121 0.00040000631097559961 -0.0012308396449742353 0.0019884529921701441 0.00078074964750655864 0.00060955457434535296 0.0019890847916057778 0.0008522749237613197 -0.00028475728982671158 0.001773049152508894 0.00066213577938254472 0.0018177177300645827 0.00087094300183149047 0.00066359671878480101 5.9846820971807601e-05 -0.0010458810669499333 -0.0008114076656422053 0.0018366936534142571 0.0017612692521962569 -0.001594280158781275 -0.00082097613270503951 -0.001860921541044833 0.00079246128373442327 0.0016076732978818229 0.0019894009586966352 0.0011931152222144936 0.00091558680770328796 0.0013898677126389612 -0.0019895901462568602 0.001192189402392213 -0.0018485795537035725 0.00019523404328620941 0.0019897915233737544 -0.0018619681584101284 -0.0015905792611449524 -0.0019884138611640425 0.0015904818517603252 0.0014558872319685085 0.0019910666623912921 -0.0015913546836701542 -0.0019906126297965583 -0.0017912995291202182 -0.0019913345570406501 -0.0019922410363111729 -0.0019874794474146408 -0.0019920129166412178 -0.0019888272512565944 -0.0019892576827827543 -0.0019915550050457432 -0.0019889853787108543 -0.001990976027017578 -0.0019883846599273625
leaf_weight=5.2498651146888795 4.9999210238456708 7.4999301433563295 9.4996340423822385 6.9999503195285788 4.9999380707740775 4.9999554008245513 4.999896556138995 6.9999769628047925 4.9999110102653495 6.7499465644359571 9.2499611377716047 5.9999139606952694 9.2499527186155301 5.9999581277370444 4.9999650567770004 7.2499693334102622 5.2499358355998984 9.4999365657568031 5.7499689459800711 6.9999777525663367 6.9999410957098069 5.2499664276838329 5.749939531087878 4.9999606460332862 6.9998100996017447 6.9999207556247773 5.7499774098396292 7.2499153763055784 5.2499715834856033 4.9998650103807432 4.9999094754457456 9.4999568462371808 6.7499241679906836 4.999971628189086 5.2499067038297635 7.7497264444828096 8.2498696297407133 6.4999253004789344 9.7496757060289365 5.2499552369117719 5.2499781399965268 8.99992987513542 5.2499588876962653 5.7498862594366074 7.9999318420887056 5.9999630004167557 8.24995309114456 5.2499720752239236 6.749940037727356 6.4998372048139581 8.7497560530900937 4.9999441653490058 8.4999607056379336 7.7497793138027182 4.9999141693115261 5.2498219311237353 6.749784976243971 4.9999184459447852 6.4998821914196014 4.9998566508293143 7.2497844547033337 4.9999067783355686 6.999855637550354 4.9999477714300156 7.2497916966676712 7.7498211562633514 4.9998807162046424 6.2497751265764228 4.9998688399791718 7.4997641742229444 5.4998769611120224 4.9998835027217847 5.4998624920845032 4.9998849332332602 5.7498793005943289 5.4999004900455466 9.4996184706687981 4.9999058693647402 9.4996778815984744 5.4998253881931323 7.4998497813940048 5.9998128563165656 5.9998621940612793 4.9998237490653947
leaf_count=21 20 30 38 28 20 20 20 28 20 27 37 24 37 24 20 29 21 38 23 28 28 21 23 20 28 28 23 29 21 20 20 38 27 20 21 31 33 26 39 21 21 36 21 23 32 24 33 21 27 26 35 20 34 31 20 21 27 20 26 20 29 20 28 20 29 31 20 25 20 30 22 20 22 20 23 22 38 20 38 22 30 24 24 20
internal_value=0 0.00059375 0.00078615 0.000584823 -0.00151233 0.000417036 0.00116187 -0.000977025 0.000535307 0.000500946 0.000315711 0.000729966 4.1006e-05 0.000263624 -0.000636322 0.000525247 0.000801154 -0.00117464 -0.000941144 0.000663669 0.000863867 0.000533079 0.000232973 0.000466302 0.000830274 0.000927421 0.000715999 0.00104039 0.000555264 0.00122518 0.000866409 6.71412e-05 0.00135899 -0.000381922 -0.00121221 0.00150272 0.00141281 0.00131863 0.00140813 0.000183795 0.000557311 0.00110174 0.00136377 0.00134087 0.000496599 0.000221031 -0.000593254 -0.000370159 -0.000398557 0.00130657 0.00148143 -0.0018014 -0.00167211 -0.00131694 0.00152781 0.0013942 0.00152223 0.00167946 0.00122481 0.00178596 -0.00184312 0.00155647 -0.00158383 0.000531767 0.00174503 -0.00167826 -0.00145172 -0.00193069 0.00181965 0.00179665 0.00168231 -0.00192124 -0.00180049 -0.00196807 -0.00199016 -0.00199049 -0.00198854 -0.00199071 -0.00199015 -0.00198984 -0.00199058 -0.00198814 -0.00199145 -0.00198779
internal_weight=0 392.244 361.495 221.748 153.997 182.248 139.747 53.9993 158.749 153.749 84.9994 68.7492 47.4997 35.7497 11.7499 26.4998 19.2498 40.2494 27.4997 37.4998 28.2498 51.2495 25.4998 20.2499 25.7497 72.2488 42.2494 26.2495 12.4999 29.9994 17.7497 14.4999 39.4992 23.4999 21.7497 32.7492 67.4982 57.9986 51.4987 15.9999 18.7499 21.2498 14.2499 10.7498 13.9999 11.2499 18.4999 13.4999 13.7499 17.4997 13.7497 99.9977 49.999 16.2497 43.2488 28.4993 23.4994 25.7493 11.7497 14.7495 33.7492 11.4997 12.2498 10.2499 12.2497 12.7497 30.749 49.9987 11.7497 20.7494 12.9996 28.7493 10.4997 44.9988 39.9989 33.7491 25.7491 18.2496 28.2492 22.4994 12.9997 20.4993 10.9998 14.4994
internal_count=2185 1569 1446 887 616 729 559 216 635 615 340 275 190 143 47 106 77 161 110 150 113 205 102 81 103 289 169 105 50 120 71 58 158 94 87 131 270 232 206 64 75 85 57 43 56 45 74 54 55 70 55 400 200 65 173 114 94 103 47 59 135 46 49 41 49 51 123 200 47 83 52 115 42 180 160 135 103 73 113 90 52 82 44 58
cat_boundaries=0 1
cat_threshold=8
is_linear=0
shrinkage=0.001


Tree=9
num_leaves=85
num_cat=1
split_feature=0 11 1 0 7 10 0 1 1 4 6 0 7 0 5 3 6 1 4 4 4 3 10 3 8 10 3 1 0 8 5 7 10 1 1 8 10 8 1 4 7 6 5 3 1 0 5 3 7 1 3 0 3 5 5 10 1 8 7 5 3 0 4 1 5 6 6 5 5 4 1 1 1 5 1 7 7 1 10 1 6 10 10 6
split_gain=489.517 176.839 40.9355 23.7825 23.1745 25.9695 16.5352 8.99238 8.69006 9.60653 7.0344 6.6722 6.1606 5.90747 6.5982 8.57347 5.74948 6.34347 5.80912 5.05542 4.84964 4.7237 7.6279 4.64584 4.56087 4.26788 4.24226 4.2011 5.3126 5.49306 4.41795 5.28383 4.10903 5.53739 4.24507 4.05977 4.05913 3.86547 3.19801 2.87364 2.63244 2.46214 2.45771 3.74894 2.45154 2.86992 3.43708 2.72713 2.25538 2.22147 1.77104 1.66822 3.03078 4.37547 1.61561 2.55543 1.82979 1.52697 1.14253 1.06019 1.01422 1.01117 0.958371 0.857432 0.665619 0.661809 0.562323 0.4963 0.290065 0.258979 0.152067 5.92056e-05 5.37347e-05 3.86749e-05 2.62113e-05 2.12257e-05 1.62213e-05 1.5861e-05 1.50635e-05 1.49561e-05 9.40501e-06 8.47455e-06 6.80966e-06 5.92817e-06
threshold=2407.5000000000005 0 15559.550000000001 3223.9500000000003 0.74048150000000013 -0.059798528221399951 1670.3250000000003 93030.400000000009 163238.00000000003 0.9429712699206162 0.83916850000000009 1805.5750000000003 0.67910900000000007 951.59250000000009 709888.00000000012 0.077289378759407154 0.84843200000000019 36465.400000000009 0.80641948815387743 0.29510275970511185 0.86691651309145945 0.1109581551404842 0.35691492880206871 0.27883193727184918 0.85283550000000019 -0.60634007389339051 0.14081893360711323 119350.00000000001 1029.0100000000002 0.79395750000000009 1307168.0000000002 0.54381500000000005 -0.43676717539885562 80764.85000000002 76968.000000000015 0.7262360000000001 -0.365004779809875 0.73830050000000014 69510.300000000017 0.076824838050455937 0.50581600000000015 0.83916850000000009 1178016.0000000002 0.14427863870066396 79959.400000000009 904.87400000000014 784352.00000000012 0.13364593397470592 0.76421950000000016 43865.950000000004 0.17019468445551816 4100.0500000000002 0.20637820705542662 1220736.0000000002 703648.00000000012 -0.46617223774202482 47355.600000000006 0.69155000000000011 0.50722900000000004 984480.00000000012 0.20239970574149635 409.99400000000009 0.30811670487367848 71733.300000000003 909184.00000000012 0.88977750000000011 0.93741000000000019 1214976.0000000002 1251488.0000000002 0.57076177305013509 228066.50000000003 128607.50000000001 134135.50000000003 909184.00000000012 216271.50000000003 0.60165700000000022 0.55420150000000012 91707.900000000009 -0.57182192480924565 71733.300000000003 0.83980200000000005 -0.026214706000290491 -0.498506002522839 0.79775800000000008
decision_type=2 9 2 2 2 2 2 2 2 2 2 2 2 2 2 2 2 2 2 2 2 2 2 2 2 2 2 2 2 2 2 2 2 2 2 2 2 2 2 2 2 2 2 2 2 2 2 2 2 2 2 2 2 2 2 2 2 2 2 2 2 2 2 2 2 2 2 2 2 2 2 2 2 2 2 2 2 2 2 2 2 2 2 2
left_child=1 65 36 12 5 6 8 44 9 10 23 25 21 41 -15 -16 42 -18 24 -17 26 64 37 27 32 -6 40 28 30 -30 31 -4 33 -19 -34 -28 -3 -23 -20 -27 -8 50 -12 -44 45 49 -47 -48 -14 -7 -9 52 62 -54 79 -56 -57 -51 -39 -46 -49 -58 -5 -45 -2 74 70 -59 72 -63 71 73 75 -53 82 -64 -73 -71 -75 -41 83 -76 -1 -80
right_child=3 2 4 51 11 7 20 13 -10 -11 16 -13 48 14 15 19 17 18 38 -21 -22 22 -24 -25 -26 39 35 -29 29 -31 -32 -33 34 -35 -36 -37 -38 58 -40 54 -42 -43 43 63 59 46 47 60 -50 57 -52 66 53 -55 55 56 61 67 -60 -61 -62 69 68 -65 -66 -67 -68 -69 -70 77 -72 76 -74 78 81 -77 -78 -79 80 -81 -82 -83 -84 -85
leaf_value=-0.0019868863655410863 -0.001392132405223208 -0.0017906423406406401 0.0011074274541744142 -0.0014694334292817397 0.00071487203028213809 0.0010674933594607111 -9.4081398410672111e-05 0.00053868375009727518 -0.00039881620632368521 -0.00027381784931457183 0.0019876971518704256 0.00053955135522322582 -4.5351194724327851e-07 0.001419960952982605 -0.00083534947954342481 -9.0443880472871642e-05 -0.00016895632490013119 -0.00026237871582713304 0.00079548331746285726 0.0011651522793463629 0.00072559938933468304 -0.00073228907427957447 8.4106655605918536e-05 0.0011703092080255894 -0.00020294761260146216 0.00090155616370834633 -0.00059948026352893576 -0.00047723765699616237 0.0013799318507090612 0.00016382611758665195 -0.00048324327665087903 -0.00015578237178638291 0.0018310082231344717 0.0011254503854371282 0.00059478373479015677 0.00054247300203606437 -0.00054570469030287502 -0.0012296147928042875 0.0017835369179920787 0.0019859462573012499 -0.00097238403692638043 0.0017891315412812752 0.00054062022171912744 0.001818039450662405 0.0019875877575469226 0.0015761834346222357 0.00034657579239913026 0.0014196606113386326 -0.00081059753206910137 0.0011878590970945035 0.0013242994383091515 -0.0019918399834947509 -0.00082015615277510718 -0.0018590796680673372 0.0009488795058423537 0.0011884771487426461 0.0013890265886924123 0.0019871104499442189 -0.0018467472439022991 0.0014634539953477692 0.00079034523582736211 0.001760342539093934 -0.0019891929005440888 0.0012657525226451747 -0.0018601234682110372 -0.0015890016515396313 -0.0016271206162149854 0.0015878307618380292 -0.0017727458511195781 0.0019865434766241055 -0.001817977099334282 -0.0019859273065384315 -0.0019863411115607485 -0.0019876767423022126 -0.0019851658393864745 -0.00199175030168462 -0.0019884160482753874 0.0019888804643330696 -0.0019894940122965423 0.0019882281832423335 -0.0019885440718815034 -0.0019867671572947098 -0.0019884665470879716 -0.0019909985186849556
leaf_weight=4.9997800588607788 4.9998959451913816 4.9998734891414642 6.7499422580003756 5.7498678565025321 6.2499481886625281 9.7497403323650378 5.2499697804451015 5.4999201148748416 7.4999538511037818 9.2499211728572828 5.4997772723436382 8.2498883754014951 6.9999769628047925 5.2498759180307415 5.9999628663063076 5.7499598115682584 5.999958708882331 5.7499588280916178 4.9999235570430747 7.2498780637979507 5.4999656826257697 9.4999219626188331 5.7499682605266562 8.4998981058597547 4.9999561905860892 5.4998967498540869 4.9999707341194144 5.2499652057886115 9.7498995065689069 5.9999503493309012 7.2499676793813697 6.4999495893716812 6.2498521655798029 5.7499159127473831 4.9999446868896484 8.2499394565820676 5.4999909847974759 5.2498812079429609 9.4998803883790952 4.99974177777767 9.7499448955059034 4.9998390525579444 5.4999278634786632 5.7498834580183011 6.4997350573539725 7.2497996687889126 8.4998646676540393 5.249866768717764 6.7499295771121979 4.9997955113649395 5.9998538643121719 7.4998524785041836 8.4999503344297427 7.7496998757123938 5.7498853951692501 6.2497691512107947 4.9998258650302914 8.2496286034584028 6.9997940063476562 9.4997173845767957 4.9998652935028076 8.7496975362300891 8.499730542302137 5.4999073445796967 7.7497491836547852 4.9998399168252936 5.499858245253562 4.9997992515563956 9.2496838271617872 6.4996877461671811 5.9996317327022544 5.4997187703847867 4.9997464269399634 4.9997954964637765 9.7494527846574801 5.2499017715454093 4.9998209327459335 5.2498286217451096 5.4998397976160032 6.7497513443231583 4.999826207756997 4.9997756779193834 5.9997912943363243 4.9998908638954163
leaf_count=20 20 20 27 23 25 39 21 22 30 37 22 33 28 21 24 23 24 23 20 29 22 38 23 34 20 22 20 21 39 24 29 26 25 23 20 33 22 21 38 20 39 20 22 23 26 29 34 21 27 20 24 30 34 31 23 25 20 33 28 38 20 35 34 22 31 20 22 20 37 26 24 22 20 20 39 21 20 21 22 27 20 20 24 20
internal_value=0 0.000593159 0.000785367 -0.00151083 0.000865295 0.000737907 0.000493578 0.00111516 0.000647781 0.000708278 0.000783668 0.0013836 -0.000976051 0.000741692 0.000427623 0.000153428 0.000987144 0.000793218 0.000929859 0.000609789 -0.000133508 -0.00117347 -0.000940206 0.000496768 0.00066182 0.00149775 -0.000300768 0.000358814 0.000479897 0.000916653 0.000144342 0.000487739 0.00085188 0.000431533 0.00128157 0.000111547 -0.00113852 -0.00121101 0.00144283 0.00158712 -0.000664978 0.00120328 0.00140769 0.00121724 0.00133257 0.00123071 0.000991466 0.000765376 -0.000398159 0.00145286 0.000948568 -0.00179961 -0.00167045 -0.00131563 0.00166368 0.0015623 0.00167339 0.00165875 -0.00158226 0.00167638 0.00111268 0.00179225 -0.00184129 0.00154803 -0.0016766 -0.00145028 -0.00192878 0.00183644 -0.00191766 0.00189059 -0.00196606 -0.00198914 -0.00198915 -0.0019899 -0.00198658 -0.00199017 -0.00198711 0.00198759 -0.00198919 0.00198726 -0.00198967 -0.00198571 -0.00198775 -0.00199021
internal_weight=0 392.242 361.493 153.996 350.993 281.745 170.998 110.747 137.248 129.748 120.498 69.2479 53.9991 40.7493 24.2497 18.9998 70.4989 48.2494 42.2494 12.9998 33.7498 40.2492 27.4996 49.9996 27.7496 60.998 28.2498 41.4997 36.2497 15.7498 20.4999 13.2499 22.7497 11.4999 11.2498 13.2499 10.4999 21.7496 14.4998 54.7481 14.9999 16.4996 22.2495 16.7497 69.9978 53.9984 25.9994 18.7496 13.7499 27.999 11.4998 99.9968 49.9986 16.2497 49.2482 37.4987 31.7488 18.2492 12.2497 15.9995 10.2497 25.499 33.7489 11.2498 12.7496 30.7486 49.9982 13.2494 27.9991 20.4992 44.4984 38.4987 18.7494 27.9992 25.7488 13.7496 10.4995 11.7495 20.4994 11.7495 15.4996 14.7492 10.9996 10.4997
internal_count=2185 1569 1446 616 1404 1127 684 443 549 519 482 277 216 163 97 76 282 193 169 52 135 161 110 200 111 244 113 166 145 63 82 53 91 46 45 53 42 87 58 219 60 66 89 67 280 216 104 75 55 112 46 400 200 65 197 150 127 73 49 64 41 102 135 45 51 123 200 53 112 82 178 154 75 112 103 55 42 47 82 47 62 59 44 42
cat_boundaries=0 1
cat_threshold=8
is_linear=0
shrinkage=0.001


end of trees

feature_importances:
nuclues_dist=119
post_nucleus_x=103
pre_skeletal_distance_to_soma=90
post_skeletal_distance_to_soma=74
pre_test_score=72
adp_dist=68
fw_similarity=66
post_oracle=65
pre_oracle=58
me_similarity=57
post_test_score=44
compartment=7

parameters:
[boosting: gbdt]
[objective: binary]
[metric: binary_logloss]
[tree_learner: serial]
[device_type: cpu]
[data: ]
[valid: ]
[num_iterations: 2000]
[learning_rate: 0.001]
[num_leaves: 100]
[num_threads: -1]
[deterministic: 0]
[force_col_wise: 0]
[force_row_wise: 0]
[histogram_pool_size: -1]
[max_depth: 20]
[min_data_in_leaf: 20]
[min_sum_hessian_in_leaf: 0.001]
[bagging_fraction: 0.9]
[pos_bagging_fraction: 1]
[neg_bagging_fraction: 1]
[bagging_freq: 0]
[bagging_seed: 7615]
[feature_fraction: 0.8]
[feature_fraction_bynode: 1]
[feature_fraction_seed: 21677]
[extra_trees: 0]
[extra_seed: 32374]
[early_stopping_round: 10]
[first_metric_only: 0]
[max_delta_step: 0]
[lambda_l1: 0]
[lambda_l2: 0]
[linear_lambda: 0]
[min_gain_to_split: 0]
[drop_rate: 0.1]
[max_drop: 50]
[skip_drop: 0.5]
[xgboost_dart_mode: 0]
[uniform_drop: 0]
[drop_seed: 27260]
[top_rate: 0.2]
[other_rate: 0.1]
[min_data_per_group: 100]
[max_cat_threshold: 32]
[cat_l2: 10]
[cat_smooth: 10]
[max_cat_to_onehot: 4]
[top_k: 20]
[monotone_constraints: ]
[monotone_constraints_method: basic]
[monotone_penalty: 0]
[feature_contri: ]
[forcedsplits_filename: ]
[refit_decay_rate: 0.9]
[cegb_tradeoff: 1]
[cegb_penalty_split: 0]
[cegb_penalty_feature_lazy: ]
[cegb_penalty_feature_coupled: ]
[path_smooth: 0]
[interaction_constraints: ]
[verbosity: -1]
[saved_feature_importance_type: 0]
[linear_tree: 0]
[max_bin: 255]
[max_bin_by_feature: ]
[min_data_in_bin: 3]
[bin_construct_sample_cnt: 200000]
[data_random_seed: 1064]
[is_enable_sparse: 1]
[enable_bundle: 1]
[use_missing: 1]
[zero_as_missing: 0]
[feature_pre_filter: 1]
[pre_partition: 0]
[two_round: 0]
[header: 0]
[label_column: ]
[weight_column: ]
[group_column: ]
[ignore_column: ]
[categorical_feature: 11]
[forcedbins_filename: ]
[precise_float_parser: 0]
[objective_seed: 3599]
[num_class: 1]
[is_unbalance: 0]
[scale_pos_weight: 1]
[sigmoid: 1]
[boost_from_average: 1]
[reg_sqrt: 0]
[alpha: 0.9]
[fair_c: 1]
[poisson_max_delta_step: 0.7]
[tweedie_variance_power: 1.5]
[lambdarank_truncation_level: 30]
[lambdarank_norm: 1]
[label_gain: ]
[eval_at: ]
[multi_error_top_k: 1]
[auc_mu_weights: ]
[num_machines: 1]
[local_listen_port: 12400]
[time_out: 120]
[machine_list_filename: ]
[machines: ]
[gpu_platform_id: -1]
[gpu_device_id: -1]
[gpu_use_dp: 0]
[num_gpu: 1]

end of parameters

pandas_categorical:[["apical", "apical_shaft", "apical_tuft", "axon", "basal", "oblique", "soma"]]
