tree
version=v3
num_class=1
num_tree_per_iteration=1
label_index=0
max_feature_idx=11
objective=binary sigmoid:1
feature_names=adp_dist post_skeletal_distance_to_soma pre_skeletal_distance_to_soma fw_similarity me_similarity post_nucleus_x pre_oracle pre_test_score post_oracle post_test_score nuclues_dist compartment
feature_infos=[6.03165:4998.8999999999996] [0:1630400] [0:2329630] [-0.17523579361429603:0.62789165298547855] [-0.45127373625387102:0.99106548183094345] [477312:1452736] [0.61800699999999997:0.95232499999999998] [0.38578000000000001:0.87998600000000005] [0.60007900000000003:0.97772899999999996] [0.35020000000000001:0.88167200000000001] [-0.67001864676510847:6.877537726784654] -1:4:3:5:0:2:1
tree_sizes=8066 9098 8989 9323 8942 9070 9089 9323

Tree=0
num_leaves=78
num_cat=0
split_feature=0 0 0 10 7 10 0 0 5 8 3 4 4 5 7 9 2 8 7 7 4 3 10 3 10 3 6 0 5 2 10 6 3 4 4 5 8 0 6 6 6 2 0 10 0 7 10 9 4 5 2 3 6 5 5 7 8 5 8 0 3 5 0 7 0 8 10 2 2 2 2 0 5 8 2 0 0
split_gain=500.349 43.4074 28.4471 22.3816 18.1174 15.0734 9.94485 9.89706 7.70087 6.20527 11.0324 7.76971 6.78923 6.35076 6.03569 5.58454 5.53199 6.00009 5.52582 5.50476 8.28988 5.396 5.08271 4.96479 4.95429 4.85735 4.73099 5.24819 4.43153 4.34858 4.29952 4.83399 4.07271 3.95094 3.94226 3.89027 3.88639 5.75149 4.55939 7.65963 10.289 3.56496 3.51147 3.47567 3.32864 5.35172 3.23438 3.02295 2.92974 2.88001 2.55858 2.88095 2.55396 4.59933 3.05176 2.35489 1.8383 1.59353 1.51724 1.49661 3.42023 4.11575 1.44689 1.63695 1.33636 1.26208 1.01186 0.896552 0.6482 0.586446 0.465056 0.4 0.305314 0.178723 0.113044 2.84217e-14 1.42109e-14
threshold=2400.7300000000005 1764.1750000000004 3240.4200000000005 -0.057000660578821798 0.74705100000000013 -0.01191312076823456 499.02050000000003 903.54400000000021 1217920.0000000002 0.82995950000000007 0.01258665087582349 0.94893548456028187 0.89519716535644844 1388352.0000000002 0.67910900000000007 0.66216150000000018 864554.00000000012 0.82873200000000014 0.47864850000000009 0.55296200000000006 0.44957426019104108 0.2031581393500255 -0.43676717539885562 0.11062808436123166 0.35357960511209691 0.16641157527728234 0.84581450000000014 313.82750000000004 771008.00000000012 1189055.0000000002 -0.61119966112564406 0.78268700000000002 0.20052563415786301 0.59510550168530907 0.038064383185989731 1304800.0000000002 0.67824300000000004 1565.3700000000001 0.78268700000000002 0.8675560000000001 0.89918400000000009 1423790.0000000002 1414.1300000000003 2.426811316605471 2917.6150000000002 0.54893700000000012 1.5158124174137726 0.42938400000000004 0.63718717950469994 1320608.0000000002 1034180.0000000001 0.11268964708438046 0.88816150000000016 757568.00000000012 1274112.0000000002 0.76421950000000016 0.74931100000000017 942464.00000000012 0.72176000000000007 4102.6400000000003 0.20587401200230357 1220736.0000000002 493.52450000000005 0.54893700000000012 2130.8550000000005 0.75782150000000004 0.17876857540186961 603746.50000000012 431111.00000000006 847370.00000000012 407310.00000000006 618.16000000000008 1251136.0000000002 0.8625965000000001 1070185.0000000002 4886.5600000000004 3811.2800000000002
decision_type=2 2 2 2 2 2 2 2 2 2 2 2 2 2 2 2 2 2 2 2 2 2 2 2 2 2 2 2 2 2 2 2 2 2 2 2 2 2 2 2 2 2 2 2 2 2 2 2 2 2 2 2 2 2 2 2 2 2 2 2 2 2 2 2 2 2 2 2 2 2 2 2 2 2 2 2 2
left_child=1 3 14 4 6 15 8 43 26 10 -8 13 21 36 23 18 17 -10 -3 20 65 22 -11 58 44 28 -1 -28 -7 -18 -20 -32 42 -33 -21 -30 48 38 -38 49 -41 50 47 52 45 -25 -22 -6 -12 67 51 -36 53 -5 62 -16 -34 -49 -2 60 70 -62 63 -55 -35 -9 -54 -40 -61 -50 -4 -56 76 75 -64 -70 -72
right_child=2 5 59 7 32 25 9 19 16 12 11 -13 -14 -15 55 -17 29 -19 30 34 46 -23 -24 24 -26 -27 27 -29 35 -31 31 33 56 64 41 -37 37 -39 39 40 -42 -43 -44 -45 -46 -47 -48 57 69 -51 -52 -53 66 54 71 -57 -58 -59 -60 68 61 -63 74 -65 -66 -67 -68 -69 73 -71 72 -73 -74 -75 -76 -77 -78
leaf_value=-0.0011627870302670369 -0.01909382578811844 0.0069931369532372787 -0.015093824834443898 0.0066204660569321979 0.0065061803153986329 0.01090618136444063 -0.0039214083776287923 0.0017757444049661345 -0.011526256416301731 -0.011474776352547872 0.0096561810664173384 -0.0030938219734202663 0.012906181841277909 -0.0010938214965829939 0.0016469198976014154 -0.011351888458425776 0.0087322678026609951 0.0018585601597005976 -0.011093823880769352 0.0051486042341515213 0.0056680848774858785 0.0067126319775237774 0.0009061789802542777 -0.00063228292500516075 0.00010617878951936889 0.012906181841277909 0.015906182556533817 0.0037633225185932377 -0.0063665500264267118 -0.0038557269169773208 0.0049061799339288181 -0.010522395173101556 0.012906181841277911 -0.0040938222118389028 0.017572849620564861 0.0056680848774858768 0.0037633225185932377 -0.0010938214965829939 0.020906183748626989 -0.0045483677747564641 0.012906181841277909 0.0056680848774858777 0.0035148752543898497 0.0086839586123992236 -0.015222857123272107 -0.013876433239847295 0.01690618279495245 0.011572848190053064 0.019424701913932724 0.010136950411810917 0.019572850097402148 0.0084061807683940473 0.016057697744172997 0.01908800149695674 0.012906181841277911 -0.0067861305460429205 0.020906183748626996 0.018147562401265242 -0.012427157531994202 -0.015093824834443898 -0.007665251634762598 -0.017760492136893593 0.020906183748626999 0.011675412317070356 0.0029061794570915491 -0.0050938224502575374 0.020906183748626999 0.015906182556533813 -0.01909382578811844 0.014906182318115179 -0.019093825788118426 0.0089061808876033637 -0.016871603036077029 -0.017093825311281171 0.018906183271789723 -0.01909382578811844 -0.01909382578811844
leaf_weight=7.2499982714653042 5.4999986886978141 5.7499986290931693 4.9999988079071036 6.9999983310699454 6.2499985098838868 4.9999988079071072 7.2499982714653006 5.7499986290931719 9.2499977946281451 5.2499987483024624 7.9999980926513699 4.9999988079071036 4.9999988079071036 4.9999988079071036 6.7499983906745893 7.7499981522560111 5.7499986290931684 5.2499987483024588 6.2499985098838797 8.2499980330467206 5.2499987483024579 7.7499981522560111 8.9999978542327899 6.4999984502792412 6.2499985098838797 7.4999982118606559 5.9999985694885245 8.7499979138374311 5.4999986886978132 5.2499987483024597 7.499998211860663 6.999998331069949 4.9999988079071027 5.9999985694885236 5.9999985694885307 5.2499987483024597 8.7499979138374311 4.9999988079071036 6.4999984502792376 5.4999986886978141 8.7499979138374311 5.2499987483024588 5.7499986290931693 8.9999978542327863 7.7499981522560111 5.7499986290931702 4.9999988079071045 7.499998211860655 6.7499983906745893 6.499998450279235 7.4999982118606559 7.9999980926513672 8.2499980330467242 5.4999986886978167 4.9999988079071027 6.4999984502792358 6.7499983906745911 7.2499982714653015 8.9999978542327863 4.9999988079071036 8.7499979138374346 7.4999982118606559 6.4999984502792341 6.4999984502792358 4.9999988079071045 4.9999988079071045 8.9999978542327863 7.9999980926513672 36.999991178512573 4.9999988079071045 10.999997377395635 4.9999988079071045 8.9999978542327863 4.9999988079071036 4.9999988079071045 4.9999988079071036 8.7499979138374311
leaf_count=29 22 23 20 28 25 20 29 23 37 21 32 20 20 20 27 31 23 21 25 33 21 31 36 26 25 30 24 35 22 21 30 28 20 24 24 21 35 20 26 22 35 21 23 36 31 23 20 30 27 26 30 32 33 22 20 26 27 29 36 20 35 30 26 26 20 20 36 32 148 20 44 20 36 20 20 20 35
internal_value=0.000915332 0.0069664 -0.014222 0.00850525 0.00643382 -0.000261705 0.00495602 0.0118634 0.00111671 0.0065699 0.00788292 0.00896967 0.00238766 0.00978754 -0.00835308 -0.00362421 -0.00262323 -0.00668003 -0.00202716 0.00876332 0.0047157 -2.91215e-06 -0.00365523 -0.0102595 -0.00766525 0.00628252 0.00545163 0.00870279 0.0031284 0.00272436 -0.00366075 -0.00183892 0.0125945 -0.00464938 0.0111919 -0.00048917 0.0105789 0.00906945 0.0102244 0.0118282 0.00616934 0.0130557 0.0104389 0.0144642 -0.0100938 -0.00684892 0.0111501 0.0123348 0.0143239 0.0156681 0.0148597 0.0123348 0.0153651 0.0139926 0.015533 -0.00249005 0.0175019 0.0148045 -0.0149559 -0.0173291 -0.0160938 -0.0123246 0.0175019 0.0150728 -0.000912003 -0.0014194 0.0185873 0.0181476 -0.0185169 0.0175019 -0.0179086 0.0109062 -0.0183982 -0.0188811 0.0200366 -0.0190938 -0.0190938
internal_weight=0 390.25 156 321.75 199 68.5 160.5 122.75 47.5 113 86 78.75 27 73.75 54 45.25 25.5 14.5 37.5 56 21 22 14.25 40.75 26.25 23.25 22 14.75 15.75 11 31.75 25.5 38.5 18 35 10.75 68.75 49 44 35.25 14.25 26.75 26.75 66.75 20 12.25 10.25 21 19.75 21 21.5 14 57.75 40.5 33.5 13.25 11.75 14.75 14.5 102 50 16.25 23.5 12 11 10.75 17.25 14.5 52 11.75 33.75 10 28.75 47 11.5 42 19.75
internal_count=2185 1561 624 1287 796 274 642 491 190 452 344 315 108 295 216 181 102 58 150 224 84 88 57 163 105 93 88 59 63 44 127 102 154 72 140 43 275 196 176 141 57 107 107 267 80 49 41 84 79 84 86 56 231 162 134 53 47 59 58 408 200 65 94 48 44 43 69 58 208 47 135 40 115 188 46 168 79
is_linear=0
shrinkage=1


Tree=1
num_leaves=85
num_cat=1
split_feature=11 10 1 7 5 1 3 1 2 2 3 5 10 1 6 6 10 2 5 5 7 10 2 3 9 2 5 5 10 9 8 3 5 2 3 1 8 1 3 8 3 5 9 8 10 2 7 3 8 9 9 5 2 3 9 2 1 10 2 9 8 2 1 9 1 7 2 2 8 10 1 8 3 9 5 8 6 9 8 1 2 3 5 7
split_gain=220.52 40.519 32.984 21.7737 19.9912 13.7617 11.8125 10.2971 9.75039 9.69326 9.09736 9.47498 8.97725 8.97041 8.38742 7.75635 7.46223 14.9295 8.76811 11.1262 7.35456 6.16484 6.0929 5.90254 5.4736 8.85636 5.96908 4.92245 4.73521 4.58842 4.57109 8.49913 4.51992 4.31601 5.44588 9.6713 5.54098 6.26936 4.92595 4.75196 4.15692 4.97289 4.10656 3.91982 5.01636 3.80345 3.79763 5.91888 3.88691 3.18641 3.02885 2.75673 5.37911 2.59453 2.49102 2.76977 2.49075 2.43016 3.4249 5.2298 8.48885 2.37683 2.21256 2.18457 2.33883 2.05281 2.03068 4.7137 1.97626 1.82145 1.5827 1.51298 1.42807 1.72243 1.28809 0.9943 0.536607 0.417925 0.000247752 0.000296205 0.000256201 0.000192455 0.000102292 0.000105358
threshold=0 -0.057000660578821798 16398.200000000004 0.61312100000000014 1238432.0000000002 121877.00000000001 0.1156222351910368 93937.200000000012 1604815.0000000002 771634.00000000012 0.068654043343894411 968768.00000000012 -0.39804158864940647 27107.350000000002 0.83764050000000012 0.85987400000000014 -0.46828119692478082 1691845.0000000002 1192896.0000000002 807520.00000000012 0.63788000000000011 0.69412509442136572 508804.00000000006 0.28179330471847214 0.43626400000000004 528576.00000000012 1217920.0000000002 1115776.0000000002 -0.54803385885995193 0.51832700000000009 0.65340900000000013 0.075316368084713023 1333760.0000000002 748364.00000000012 0.1795831816357267 94462.10000000002 0.68193750000000009 56108.850000000006 0.21590829599948055 0.74442750000000013 0.0059568484823190968 725056.00000000012 0.5546175000000001 0.75527250000000012 -0.33643132068602694 714432.50000000012 0.61864950000000019 0.034760675575319956 0.79863250000000019 0.50436200000000009 0.53591850000000008 741824.00000000012 580600.00000000012 0.15277508963772149 0.5130205000000001 797519.00000000012 69226.500000000015 1.9712115583867691 994786.50000000012 0.60997200000000007 0.76477200000000012 664159.50000000012 78981.750000000015 0.40769100000000008 57907.950000000004 0.52382150000000005 1439240.0000000002 946326.00000000012 0.80328350000000015 -0.47606306683179811 63215.850000000006 0.75853500000000007 0.13861250791581115 0.52573000000000014 1235392.0000000002 0.72453250000000013 0.9111760000000001 0.47638000000000008 0.66830850000000008 204072.00000000003 820077.50000000012 0.15511991523254218 1289888.0000000002 0.61864950000000019
decision_type=9 2 2 2 2 2 2 2 2 2 2 2 2 2 2 2 2 2 2 2 2 2 2 2 2 2 2 2 2 2 2 2 2 2 2 2 2 2 2 2 2 2 2 2 2 2 2 2 2 2 2 2 2 2 2 2 2 2 2 2 2 2 2 2 2 2 2 2 2 2 2 2 2 2 2 2 2 2 2 2 2 2 2 2
left_child=76 2 71 5 20 6 29 8 13 12 14 51 22 42 21 28 17 24 19 56 -5 -9 -7 32 -8 68 -27 -13 50 30 -4 61 45 34 36 49 -22 -38 72 -39 -31 -42 -3 -30 -45 -20 47 -15 54 -36 -6 52 -12 -50 63 -56 -18 58 59 60 -48 -32 -17 -49 -65 -11 67 -29 -26 -41 -28 -2 73 -35 -43 -53 78 -60 -1 82 81 -81 83 -80
right_child=1 7 3 4 15 9 16 10 -10 65 11 27 -14 46 -16 62 18 -19 23 -21 33 -23 -24 -25 25 26 70 66 43 40 31 -33 -34 38 35 -37 37 39 -40 69 41 74 -44 44 -46 -47 57 48 53 -51 -52 75 -54 -55 55 -57 -58 -59 77 -61 -62 -63 -64 64 -66 -67 -68 -69 -70 -71 -72 -73 -74 -75 -76 -77 -78 -79 79 80 -82 -83 -84 -85
leaf_value=-0.019881116791872863 -0.019936652053997896 0.0061401603921323713 -0.0099498493664153184 0.016945759754462903 -0.0099379644955918667 -0.0047413577542334273 -0.0099513012956680986 -0.016118419287547016 -0.0023616048509435749 -0.018416261528594755 0.014207811084386028 -0.0072812303454847082 -0.01118497346935202 -1.7240614449342705e-05 0.0060988767009372948 -0.01023272074251793 -0.0019847300665998789 0.014485850976820314 0.0020121653979178439 0.018694725042062578 0.0099450979067171458 -0.001548602937226662 0.010494125952946078 0.010437159888682421 -0.004252093140623598 0.0094038236135054621 0.0018327875544921549 0.00054125477405633316 0.0086673150560827271 5.307278239223977e-05 -0.0076395658404313305 0.011976644724160782 0.0051835561876051777 0.0059510022859550924 0.0066098619087264689 -0.0026351409764188015 -0.010431861763389569 -0.0045965512913865606 0.0030030749443056238 0.0020140851370280049 -0.018083919165450119 -0.0099293356033520325 -0.0050442375152604645 0.0058831627656637641 -0.0053375542678927006 -0.0090412093420270765 0.014340991373618503 0.013741817085529772 0.0090438300165195228 0.016464524601114146 0.00093753284506559675 0.010400405822795739 0.00071131330479849741 0.00068383908292127238 0.018603781981483505 0.0099256134041991514 0.0079968797845125089 0.0059423378682329914 0.015902943424336485 0.019908826193170245 -0.00082985472814855966 0.00068827640944577777 -0.0019760037490360819 0.011950644786588333 0.0031779862801800908 -0.0099621971022037254 -0.0018245435548073245 0.011912131018430487 -0.012368596715796026 0.010447678913290325 -0.005941076695260528 -0.012675314444860286 0.016467362166483639 0.013758045997768739 -0.0028371743726218345 0.016419777851582967 -0.016882124987947427 0.019856127751228868 -0.019902209479533649 -0.019977919835668458 -0.020008395763986973 -0.019905918703670804 -0.019881702131508517 -0.019960697595902691
leaf_weight=9.2494657039642316 5.999832481145857 7.2496125847101194 4.9997533112764385 6.7496734857559195 4.9997379034757561 5.2498024851083773 8.9996351003646833 5.2497028708457965 8.4996548593044263 6.7496787309646589 5.2498713284730929 5.4997245520353344 7.9996977299451855 7.4996323436498633 6.4996337890624991 9.249683812260626 4.9998385757207888 5.4998938441276541 4.9997499138116899 8.2496570944786054 5.9997821450233486 6.4997400492429733 5.2497646361589432 5.2498366087675086 6.9997577667236346 8.4997807890176791 5.4998191893100721 8.7496781945228594 9.7496337741613441 4.9997780025005367 6.4997394829988497 4.9997510761022559 6.7498637139797202 4.9998288899660164 5.2497745156288174 5.7497651278972617 5.2497905641794231 6.4997460991144207 8.2495485544204694 4.9998140931129509 5.499769300222396 4.9997644722461683 5.9997435361146927 8.4996806979179329 7.4998284578323391 8.2496832162141782 8.9995716810226494 6.4996751993894604 8.2496910989284498 8.7495192438364011 5.2496488690376282 5.2497903108596784 6.7497243583202362 6.7496510893106452 7.7496188879013044 6.9996735602617264 4.9999112486839294 4.9997935742139807 4.9997477978467924 4.9998507797718039 6.2496347576379767 7.2497662305831909 4.9998101592063895 4.9997012466192228 7.7495309710502625 4.9997959583997726 5.4998212307691565 6.2496123164892188 5.2498285472393036 5.2498877495527196 4.9997561573982239 5.4997734576463699 5.7498257756233206 6.4996795952320099 5.2498518228530884 5.7497118711471558 6.4997850954532614 5.7496060878038406 6.9996929317712802 6.7498248517513302 7.9997489154338828 8.249630391597746 7.7495823502540579 5.4997996985912323
leaf_count=37 24 29 20 27 20 21 36 21 34 27 21 22 32 30 26 37 20 22 20 33 24 26 21 21 28 34 22 35 39 20 26 20 27 20 21 23 21 26 33 20 22 20 24 34 30 33 36 26 33 35 21 21 27 27 31 28 20 20 20 20 25 29 20 20 31 20 22 25 21 21 20 22 23 26 21 23 26 23 28 27 32 33 31 22
internal_value=0 0.0023247 0.000150558 0.000799892 0.00385235 -0.00162438 -0.00024674 0.00611532 0.00794279 -0.00771565 0.00301069 0.00525536 -0.00320423 0.00877104 -0.00301615 -0.00109093 0.00185175 -0.000967848 0.00481718 0.0100982 0.00695736 -0.00805846 0.00287636 0.00100023 -0.00307957 -0.00110052 0.00317413 0.00111938 0.00138094 -0.00445553 -0.00145404 0.000811493 -0.00147698 0.00603693 0.00426303 0.00828422 0.0014267 -0.0008965 0.00935866 0.00209218 -0.00789097 -0.0104129 0.0010755 0.00366915 0.000623411 -0.00487015 0.00987338 0.00825596 0.00952227 0.012769 -0.00436763 0.00993079 0.00661609 0.00528186 0.011393 0.0144853 0.00300611 0.0124118 0.0134553 0.0110335 0.00812347 -0.00324851 -0.00733563 0.00902362 0.00661825 -0.0148188 0.00337319 0.00527905 -0.0077306 0.00633376 -0.00186902 -0.0164639 0.0123982 0.0103637 -0.00629673 0.0135469 -0.0167529 0.0180174 -0.0199281 -0.0199381 -0.0199627 -0.0199383 -0.0199102 -0.0199279
internal_weight=0 487.23 305.738 294.239 130.245 163.994 133.745 181.491 114.244 30.2487 67.247 48.9979 18.4993 105.745 18.2491 50.248 89.247 45.7485 43.4985 18.2494 79.9966 11.7494 10.4996 25.2491 40.2486 31.2489 18.9994 25.9988 35.9985 44.4982 23.749 18.7493 19.9993 73.247 47.7481 19.7491 27.999 21.9992 25.4989 16.7494 20.7492 15.7494 13.2494 25.7491 15.9995 13.2494 92.4954 56.4972 48.9975 13.9993 10.2494 22.9991 11.9996 14.9993 33.9982 14.7493 9.99975 35.9982 30.9984 20.2491 15.2492 13.7495 14.2495 19.2489 12.7492 11.7495 20.4991 14.9993 12.2496 10.2497 10.4996 11.4996 17.2493 11.4995 10.2496 10.9995 58.9975 10.7494 52.4977 43.2483 22.9992 14.9995 20.2491 12.4995
internal_count=2185 1949 1223 1177 521 656 535 726 457 121 269 196 74 423 73 201 357 183 174 73 320 47 42 101 161 125 76 104 144 178 95 75 80 293 191 79 112 88 102 67 83 63 53 103 64 53 370 226 196 56 41 92 48 60 136 59 40 144 124 81 61 55 57 77 51 47 82 60 49 41 42 46 69 46 41 44 236 43 210 173 92 60 81 50
cat_boundaries=0 1
cat_threshold=8
is_linear=0
shrinkage=0.01


Tree=2
num_leaves=84
num_cat=1
split_feature=0 11 0 0 7 10 10 0 5 4 8 4 3 7 0 3 4 4 3 10 5 0 4 8 5 2 5 10 3 2 10 10 0 7 5 10 3 0 2 10 10 4 10 3 3 2 6 10 7 2 5 2 2 7 4 2 8 8 0 8 0 3 5 6 5 5 6 6 6 4 3 2 8 8 0 2 10 4 2 6 3 3 7
split_gain=487.035 163.935 27.8029 26.9754 17.7148 18.7767 12.6504 11.7103 9.65371 7.63885 7.36985 7.08861 6.75767 5.85932 5.8592 5.60523 5.60354 5.16312 4.81829 4.77747 4.56834 6.04482 4.07451 6.32065 3.86139 3.54694 4.78615 4.77709 3.47852 3.80737 3.31978 7.6326 3.22984 5.23633 3.02321 5.31727 4.96131 2.98841 3.3132 5.51379 4.81742 3.91024 2.97823 2.92276 2.69941 2.77273 2.76724 2.3446 2.29452 2.18461 1.81889 1.80465 1.74177 2.84932 5.60639 1.57157 1.53111 1.52369 1.48999 1.48734 1.45215 3.34865 3.95706 0.641112 0.639683 0.711107 0.613957 0.56164 0.464504 0.2111 0.43517 0.169623 0.129104 0.000339523 0.00031171 0.000193765 0.000136358 0.00014035 0.000122925 0.000111412 0.000104966 7.76904e-05 5.15845e-05
threshold=2400.7300000000005 0 3240.4200000000005 1662.8600000000004 0.74705100000000013 -0.057000660578821798 -0.044971505300017131 511.96200000000005 935648.00000000012 0.94893548456028187 0.82995950000000007 0.75231477024255033 0.01258665087582349 0.67910900000000007 903.54400000000021 0.16583379580195623 0.72281790069337626 0.86688902845541327 0.11062808436123166 0.35357960511209691 856704.00000000012 1074.7400000000002 0.51525322374012339 0.71062950000000014 1354048.0000000002 372391.00000000006 705632.00000000012 2.225229464407859 0.1426906115714853 593140.00000000012 -0.28952521617507093 -0.50931480206026036 2917.6150000000002 0.54893700000000012 713248.00000000012 0.14828879874935605 0.11892629146990001 815.81650000000002 1007875.0000000001 -0.53274420614607731 -0.43938835012124805 0.55249954913832389 -0.43676717539885562 0.18556120458618555 0.16381292886822721 872860.00000000012 0.91696850000000019 -0.47334205563731796 0.76421950000000016 714432.50000000012 1185312.0000000002 625611.00000000012 959114.50000000012 0.54893700000000012 -1.0000000180025095e-35 864554.00000000012 0.75342450000000005 0.79224300000000014 1197.2050000000002 0.72176000000000007 4102.6400000000003 0.20587401200230357 1220736.0000000002 0.93741000000000019 713248.00000000012 942464.00000000012 0.89042750000000015 0.82185250000000021 0.76137350000000004 0.66070309669066218 0.10452889311835696 447425.00000000006 0.72831200000000007 0.71603500000000009 1778.3900000000001 926582.00000000012 -0.11020727739774859 0.58691216500967325 989855.50000000012 0.83172100000000004 0.12714866622484847 0.16929890610555778 0.61312100000000014
decision_type=2 9 2 2 2 2 2 2 2 2 2 2 2 2 2 2 2 2 2 2 2 2 2 2 2 2 2 2 2 2 2 2 2 2 2 2 2 2 2 2 2 2 2 2 2 2 2 2 2 2 2 2 2 2 2 2 2 2 2 2 2 2 2 2 2 2 2 2 2 2 2 2 2 2 2 2 2 2 2 2 2 2 2
left_child=1 66 13 4 5 7 17 8 42 10 12 15 -9 18 25 -12 20 28 59 32 51 -22 43 -24 37 -7 -27 52 30 -30 31 -5 33 -20 -8 -36 -37 50 39 58 -41 -42 -3 -10 45 46 49 -31 -15 -6 -14 -16 53 -28 -55 -25 -26 -23 -39 -2 61 68 -63 71 -46 -66 74 -54 -4 70 -70 -62 -47 79 78 80 77 -75 82 -73 -71 -79 -1
right_child=2 3 60 6 44 14 34 9 22 -11 11 -13 24 48 16 -17 -18 -19 19 -21 21 57 23 55 56 26 27 -29 29 47 -32 -33 -34 -35 35 36 -38 38 -40 40 41 -43 -44 -45 64 72 -48 -49 -50 -51 -52 -53 67 54 -56 -57 -58 -59 -60 -61 63 62 -64 -65 65 -67 -68 -69 69 75 -72 73 -74 76 -76 -77 -78 81 -80 -81 -82 -83 -84
leaf_value=-0.019800370506020144 -0.019736331660217207 0.0039653448222469459 -0.01577341919427961 -0.011200857506264683 0.016206416511978749 0.019760717040327978 0.014373470053362165 -0.00087025876319645628 -0.0016299107183870183 -0.0035882549080567643 -0.0082683671993654933 0.010922016748560661 0.018643817694713651 0.00072701115079351977 0.016141237388201325 0.0047984631942899272 0.016165604842019458 0.0066574088695506095 -0.0014955739232778383 -0.0008246263068711786 -0.0040801483013182434 0.010133166053909204 -0.0061696993843838067 0.0026720870117401714 0.0023455431585475087 0.0041953628686893334 0.018318361468329072 0.0053139622676558864 0.0062113054749307287 0.0020223510320270268 -0.012312809748512704 0.0046162089273940809 -0.015894084375143575 -0.014596692852368949 0.013729739529385467 -0.002564727204162572 0.008572698259204807 0.0098558150032129182 0.016104659071500309 -0.0015944584196167406 0.0035416993952968362 0.015761361451886599 0.012953923438385737 -0.011982316947897363 0.019764751136513551 0.015719453561924116 0.0048591323542534082 -0.0071651854462045561 -0.0075974532365677633 0.0078291429632951492 0.012283308373162494 0.0082105230210794359 0.015928872041695727 0.017844701469730585 0.0038261372279078934 0.0099100791112334569 0.0094959691182710058 0.0034863706944850974 0.01700354436924725 -0.013135124895611073 -0.017798875471432201 -0.0084925886379934711 -0.018391948930497941 -0.015773329832624475 0.013817728038461635 0.018367116084924674 -0.016035046158072271 0.019736256448274758 -0.01580825352840266 -0.019715651368271091 -0.019766580099375538 -0.019691690586875338 0.017939915812710979 -0.019712563689558794 -0.019763196241648608 -0.019812333724963178 -0.019804974385731068 -0.019747362727165537 -0.019880817394950914 -0.019741627610665915 -0.019775647142345049 -0.019801831447005126 -0.019844290839052224
leaf_weight=5.7493577450513893 5.4989276230335227 7.4997307956218719 4.9991751462221137 5.7496270835399637 8.2492934465408378 8.498562425374983 5.4994689971208599 5.2498170584440222 5.9997670501470584 5.4998584389686576 5.9996462315320986 7.7494085133075705 8.7485781908035296 6.7498138099908811 5.4992049485445005 7.2497564405202866 8.2489419430494291 7.4996750950813285 6.4997563362121635 6.2497733682394019 6.2496783435344723 9.2492749989032728 7.2494542151689556 7.4997186660766584 6.249650299549101 5.7495734691619864 6.9987254142761257 5.4996378123760215 7.2496348321437862 4.9996454268693924 5.2496237158775321 6.4996867179870614 7.7487004846334449 5.7493304759263992 6.4995345622301128 7.999637842178343 7.9991465508937836 4.9995208084583229 7.9992939233779898 6.4995214492082587 5.4995766282081693 4.9990682750940323 7.2492418289184553 4.9997811615467072 7.4987642019987133 4.9989028722047788 5.9994249641895285 6.2496925890445691 6.4995506107807159 4.999526932835578 9.2491937130689603 5.9995514750480652 7.7490692585706693 5.2490202635526613 6.2493427991867092 4.9996713101863861 5.7497157603502274 5.4994564503431311 6.9994233697652817 8.9988506734371168 4.9993987530469886 8.7496134787797946 7.4984261244535437 4.999192774295806 6.7487323582172376 6.9990614056587219 5.2495713084936133 7.7485220730304718 4.9994056969881076 6.9983431994915026 6.2489350289106369 9.747420474886896 5.4989374130964279 5.2487826347351065 7.9987219870090476 5.499375268816947 8.2490505576133746 4.999052628874777 4.9997791796922675 8.2483822852373105 4.9992450177669525 5.499280720949173 4.9995995461940765
leaf_count=23 22 30 20 23 33 34 22 21 24 22 24 31 35 27 22 29 33 30 26 25 25 37 29 30 25 23 28 22 29 20 21 26 31 23 26 32 32 20 32 26 22 20 29 20 30 20 24 25 26 20 37 24 31 21 25 20 23 22 28 36 20 35 30 20 27 28 21 31 20 28 25 39 22 21 32 22 33 20 20 33 20 22 20
internal_value=0 0.00597019 -0.0149358 0.00777002 0.00934266 0.00819983 0.00248401 0.00592994 0.00173235 0.00786406 0.00853957 0.00332493 0.0100553 -0.00913343 0.0116649 -0.00111851 0.00880503 -0.000890751 -0.0110119 -0.00845619 0.00693665 0.00416212 -0.0014579 0.00125881 0.0109115 0.0138332 0.0127197 0.0139607 -0.00246331 0.00056006 -0.00565946 -0.00280806 -0.0108412 -0.00764482 0.00772707 0.00610242 0.00300381 0.0120329 0.010407 0.00883523 0.00517154 0.00936025 0.00838331 -0.00633554 0.0146929 0.0127484 0.0104937 -0.00308189 -0.0033566 0.0130452 0.0153751 0.0120033 0.0153596 0.0132877 0.0102256 0.00556723 0.0057718 0.00765473 0.0140253 -0.0156389 -0.0180078 -0.0167909 -0.0130611 -0.0191779 0.0174153 0.0161338 -0.0142244 0.0178325 -0.0185868 -0.0190761 -0.0180073 -0.0195401 0.0168826 -0.0197474 -0.019814 -0.0197632 -0.019772 -0.0197548 -0.0198399 -0.0197146 -0.0197407 -0.0197759 -0.0198208
internal_weight=0 390.213 155.978 361.216 289.721 238.728 71.4954 144.239 45.4974 98.742 93.2422 20.9988 72.2434 53.9947 94.4886 13.2494 40.7461 43.4976 40.7453 26.2476 32.4972 20.9984 30.7484 19.7488 66.9935 53.7425 45.2439 39.4943 35.9979 18.499 17.4989 12.2493 19.9978 12.2491 27.9978 22.4983 15.9988 54.9942 36.9964 28.9971 16.9982 10.4986 14.749 10.9995 50.9926 29.7461 19.2482 11.2493 13.2494 13.2488 17.9978 11.4988 33.9947 18.4971 11.4984 12.4994 11.9994 14.7487 11.9989 14.4978 101.983 49.9925 16.248 51.9906 21.2466 13.7478 28.997 15.4976 33.7445 28.7453 11.2483 46.9914 10.4978 41.992 23.7475 17.497 23.9962 15.7471 15.7487 17.9958 11.9976 10.4983 10.749
internal_count=2185 1561 624 1445 1159 955 286 577 182 395 373 84 289 216 378 53 163 174 163 105 130 84 123 79 268 215 181 158 144 74 70 49 80 49 112 90 64 220 148 116 68 42 59 44 204 119 77 45 53 53 72 46 136 74 46 50 48 59 48 58 408 200 65 208 85 55 116 62 135 115 45 188 42 168 95 70 96 63 63 72 48 42 43
cat_boundaries=0 1
cat_threshold=8
is_linear=0
shrinkage=0.01


Tree=3
num_leaves=87
num_cat=1
split_feature=11 10 1 7 1 3 7 1 2 2 3 1 10 6 10 2 7 2 6 3 6 7 6 6 2 2 3 10 2 6 2 2 8 9 2 8 4 8 9 8 9 8 3 2 4 4 10 6 1 3 9 3 2 9 2 7 7 6 2 3 8 9 9 9 10 4 3 2 1 7 8 9 4 8 3 6 6 8 6 9 9 1 8 10 7 7
split_gain=212.353 39.0066 32.2041 20.986 13.3336 11.4114 10.66 9.9723 9.46159 9.44259 8.78789 8.77676 8.72963 8.13395 7.26312 14.5162 6.88511 7.823 6.5915 7.96472 6.53258 12.1396 12.0122 8.61862 7.12204 6.02633 9.95896 5.96252 5.95035 5.82523 5.59069 5.51977 5.37832 5.30487 8.69119 4.98955 4.9371 4.80233 4.68317 4.59441 4.44851 4.43579 8.25077 4.32026 4.13559 6.9448 6.08452 4.93923 4.13231 4.05114 4.00655 3.59713 3.4273 3.42567 4.53869 3.31861 3.88722 4.49001 3.06938 7.92811 3.29774 2.74016 2.72059 4.43616 2.60847 2.49264 2.44096 2.30521 2.17472 1.98115 1.93815 1.64019 1.59995 1.47479 1.18427 1.39391 1.05747 0.970913 0.516579 0.000305205 0.000444959 0.000244594 0.00023824 0.000160404 0.00014841 7.87544e-05
threshold=0 -0.057000660578821798 16398.200000000004 0.61312100000000014 121877.00000000001 0.1156222351910368 0.61704650000000016 93937.200000000012 1604815.0000000002 771634.00000000012 0.068654043343894411 27107.350000000002 -0.39804158864940647 0.83764050000000012 -0.46828119692478082 1691845.0000000002 0.74705100000000013 618433.00000000012 0.94436800000000021 0.26732103181167594 0.89492550000000015 0.73237050000000015 0.84843200000000019 0.90082450000000014 791012.00000000012 1079795.0000000002 0.13261565707320436 0.69412509442136572 508804.00000000006 0.83980200000000005 678014.00000000012 620593.00000000012 0.72772650000000005 0.43626400000000004 528576.00000000012 0.81214900000000012 0.84888080412164346 0.74789000000000005 0.50814650000000017 0.85749300000000017 0.51832700000000009 0.65340900000000013 0.075316368084713023 779072.50000000012 0.6914520270245138 0.62636865033254041 0.57909415317551705 0.78772400000000009 103941.00000000001 0.0059568484823190968 0.5546175000000001 0.16087106349834362 1196215.0000000002 0.47469100000000003 714432.50000000012 0.51509000000000016 0.62455250000000018 0.87047050000000004 748364.00000000012 0.11433703013766629 0.74258000000000013 0.50436200000000009 0.50534950000000012 0.42317150000000003 -0.57565288449504204 0.81204082571721836 0.15399823274515415 664159.50000000012 60804.000000000007 0.52382150000000005 0.80328350000000015 0.56180150000000006 0.75965717195311488 0.75853500000000007 0.084666030396545258 0.87897850000000011 0.81245950000000011 0.81052150000000012 0.9111760000000001 0.49936200000000003 0.58737250000000019 204072.00000000003 0.69742650000000006 -0.23804596926566732 0.65948400000000007 0.53923800000000011
decision_type=9 2 2 2 2 2 2 2 2 2 2 2 2 2 2 2 2 2 2 2 2 2 2 2 2 2 2 2 2 2 2 2 2 2 2 2 2 2 2 2 2 2 2 2 2 2 2 2 2 2 2 2 2 2 2 2 2 2 2 2 2 2 2 2 2 2 2 2 2 2 2 2 2 2 2 2 2 2 2 2 2 2 2 2 2 2
left_child=78 2 73 4 5 40 -5 8 11 12 13 50 28 27 15 33 17 37 19 36 21 22 29 48 72 32 -27 -9 -6 31 -25 -8 -19 -7 70 58 53 -12 -31 -37 41 -4 67 -36 45 46 55 52 71 -42 -3 -32 -48 -16 -55 -13 57 -57 59 -23 -61 -60 63 -46 -45 76 -33 -43 -49 -11 -35 -22 -24 -2 -58 -76 -51 -64 79 82 81 -81 -1 -84 85 -82
right_child=1 7 3 6 9 14 20 10 -10 69 16 44 -14 -15 18 -17 -18 25 -20 -21 23 35 24 30 -26 26 -28 -29 -30 38 51 66 -34 34 43 39 -38 -39 -40 -41 49 42 -44 64 62 -47 47 68 -50 65 -52 -53 -54 54 -56 56 74 -59 61 60 -62 -63 77 -65 -66 -67 -68 -69 -70 -71 -72 -73 -74 -75 75 -77 -78 -79 -80 80 84 -83 83 -85 -86 -87
leaf_value=-0.019488415410228305 -0.019700101481122362 0.0060063310955937232 -0.0097861409964749985 0.01774881699760469 -0.0046662851508119489 -0.0098017230582320789 0.0071868597228260398 -0.015873200465604913 -0.0023516505755397511 -0.018134249585052935 0.0024739565087007458 0.017338513646073556 -0.011005193243112599 0.0059982551355097259 0.0040099213349614237 0.014286091716491929 0.014956825718272036 0.0032606115009557262 0.013838031707725787 0.011573391670467097 0.019713662830581232 -0.0047827178907905131 -0.017809489647450241 -0.005574371157460678 -2.6961291446605424e-05 -0.0039870230933582067 0.013106772847855844 -0.001542709998125985 0.010390858310910587 0.00075591903120552978 0.012256199260609018 -0.0011019667913847874 -0.0091835848752713622 -0.0042110900837307817 0.0095713666183774547 -0.0065970848500836107 0.0090350436680583686 0.014175003756489859 0.012666504124972789 0.0059821785267470404 8.7934497501698084e-05 -0.0075094528232713641 0.011817802826279611 0.0034396507563716704 0.016339409315689727 -0.0018097087203822874 0.014966510026166951 0.0052506690722272991 0.0046987502562858378 -0.009729334891492308 -0.0050418411184006981 0.00080600592395693108 0.003857375165585156 0.0013007434090968901 -0.0096126589565091354 0.0012061407374451794 0.017748727432169584 0.011751925374477151 0.0076179120044218354 0.005633170575449261 0.015899547895376155 0.017741377133555419 0.01967048734948346 0.0044132193573900623 -0.0059498053880083189 -0.004618092965764182 -0.009144649326951821 0.00069252593378669861 -0.0034558518990445704 -0.0098278989083209634 -0.012249395308381247 0.012094466128977764 -0.0098088298337838283 -0.012530178832703527 0.015686451908990744 0.0083075251913053167 -0.01608448273710331 0.013702754228805774 -0.016572088982286105 -0.019579241882189933 -0.019552990776302983 -0.019666269962145246 -0.019528628419768358 -0.019595381026950055 -0.01959110336160105 -0.019500586836847317
leaf_weight=7.7444861680269268 5.9981062412261945 7.2481298148632032 4.9986674934625652 5.2478653341531745 5.2492610812187213 8.9980375319719297 5.4991591274738338 5.2478928267955798 8.4985770285129529 6.7468406409025174 5.7487784773111335 8.4974101632833463 7.9979422092437771 6.4985210448503485 7.4985470473766389 5.4988460242748252 6.2481582462787619 5.998759493231776 6.7484121024608603 8.4984828382730466 4.9987504631280917 5.2489832043647828 4.9989056885242444 6.2487215250730541 5.9994197636842719 6.2485840022563917 7.4981724768877029 6.4989704340696335 5.2489927411079407 6.2489366680383664 5.2485979944467527 8.9987148940563184 8.2488385289907438 6.9991112500429171 6.7491221874952343 5.2488780170679075 5.4987081289291373 8.9968507587909681 6.9982961416244507 6.4978458136320114 4.9992813020944622 6.4986033290624636 4.9987690597772589 7.2487772554159147 5.9978451579809207 5.9981201887130728 6.2480542063713091 5.4986531585454923 5.2488359808921805 4.9985394328832609 5.9991632401943207 5.7487809956073761 4.9990520626306534 7.4984475672245008 7.7486568093299866 7.498130649328238 5.2477862834930411 8.7470139861106855 5.7486539334058744 7.7479019314050657 5.2482104450464249 4.9986143112182617 5.9976621270179731 6.4978330582380295 4.9992765486240387 5.2488775402307501 6.4989850819110861 7.249093309044838 5.9986661225557327 4.9989312291145325 5.2491712719202042 6.4983410537242889 4.9991329610347748 5.498807817697525 4.9982710182666761 5.2480306029319763 5.4983503371477127 4.9981024414300919 6.4977381080389014 5.9970408678054827 5.9966349005699175 6.9977815002202988 8.4947758764028549 6.2471503615379307 5.497442513704299 5.4962991178035736
leaf_count=31 24 29 20 21 21 36 22 21 34 27 23 34 32 26 30 22 25 24 27 34 20 21 20 25 24 25 30 26 21 25 21 36 33 28 27 21 22 36 28 26 20 26 20 29 24 24 25 22 21 20 24 23 20 30 31 30 21 35 23 31 21 20 24 26 20 21 26 29 24 20 21 26 20 22 20 21 22 20 26 24 24 28 34 25 22 22
internal_value=0 0.00228125 0.000147925 0.000789576 -0.00159064 -0.000234522 0.0037866 0.00600093 0.00779958 -0.00758713 0.00294537 0.00861563 -0.00313426 -0.00297868 0.00182816 -0.000953721 0.00515175 0.00371834 0.00475404 0.00308562 0.0032003 0.00180281 -0.00148648 0.00694073 -0.00864046 0.000613313 0.00533679 -0.00794483 0.00286209 0.00185556 0.00197892 -0.00142048 -0.00394412 -0.00303608 -0.00108772 0.00585934 0.000531717 0.0096132 0.00704809 0.000361291 -0.00437163 -0.00141604 0.000815818 0.00314714 0.0097062 0.00847207 0.00945127 0.00531717 0.0120507 -0.00775466 0.00100306 0.00627071 0.0100288 -0.00152394 -0.0042455 0.0117881 0.0103022 0.0068844 0.00808696 0.00558972 0.00977903 0.0123264 0.0133301 0.0101377 -0.000392835 -0.0102447 -0.00447468 -0.00318459 0.000708087 -0.0145991 -0.00765602 0.0154072 -0.0138091 -0.0162708 0.0138856 0.0119071 -0.0130582 0.0169579 -0.0164434 -0.0195612 -0.0195821 -0.0196261 -0.0195333 -0.0195569 -0.0195484 -0.0195279
internal_weight=0 487.133 305.683 294.186 163.966 133.724 130.221 181.45 114.217 30.242 67.2335 105.718 18.4962 18.2454 89.2336 45.7423 48.9881 42.74 43.4913 36.7428 124.973 90.9806 50.2416 33.992 15.9975 27.9944 13.7468 11.7469 10.4983 34.2441 17.2461 20.9969 14.2476 40.2435 31.2455 40.7391 28.2444 14.7456 13.2472 11.7467 44.4902 23.7451 18.7465 18.9972 92.4706 68.9792 62.9811 22.7444 16.7459 20.745 13.2473 10.9974 11.2471 22.7457 15.2471 40.2366 31.7392 16.2451 28.9924 18.2451 12.9961 10.7473 23.4914 12.4957 12.2481 15.7458 15.4977 13.7477 11.4973 11.7458 12.2483 11.4971 9.99804 11.4969 15.4941 10.2463 10.4969 10.9958 58.9693 52.4716 29.9852 12.9948 22.4864 14.7419 16.9904 11.4929
internal_count=2185 1949 1223 1177 656 535 521 726 457 121 269 423 74 73 357 183 196 171 174 147 500 364 201 136 64 112 55 47 42 137 69 84 57 161 125 163 113 59 53 47 178 95 75 76 370 276 252 91 67 83 53 44 45 91 61 161 127 65 116 73 52 43 94 50 49 63 62 55 46 47 49 46 40 46 62 41 42 44 236 210 120 52 90 59 68 46
cat_boundaries=0 1
cat_threshold=8
is_linear=0
shrinkage=0.01


Tree=4
num_leaves=84
num_cat=0
split_feature=0 1 1 0 0 7 10 10 10 0 6 1 2 0 1 9 7 7 9 1 2 5 1 3 3 10 3 8 5 10 0 9 1 1 7 10 6 3 10 0 2 8 0 9 0 7 10 5 1 3 7 5 2 1 5 8 6 9 1 8 0 3 5 8 1 1 5 6 0 2 5 1 1 7 1 1 7 10 0 6 2 1 0
split_gain=474.267 87.0981 39.6581 27.2012 26.6273 16.7521 14.5241 11.6334 11.1896 11.8544 8.14188 8.95993 7.36842 9.09993 6.99723 6.45396 6.38262 5.69042 5.61184 5.28987 5.21032 4.95479 5.67435 5.77958 4.6925 4.62707 4.47361 4.44265 4.33695 5.15732 4.10118 4.08248 4.0025 3.98571 7.24478 3.7964 3.51486 3.43421 3.5668 3.31863 3.31598 3.17125 3.15545 4.11296 3.14452 5.13658 3.08934 2.89739 4.42427 2.48744 2.25895 2.19718 2.99025 1.92962 2.38809 1.89721 2.20698 1.82887 1.60266 1.46235 1.40111 3.28547 3.81462 1.39722 1.31242 1.07348 2.14666 0.622365 0.510642 0.457408 0.300921 0.214662 0.153711 0.11788 0.00198896 0.00172874 0.000687082 0.00068684 0.000577797 0.000358692 0.000296225 0.000385347 0.000428892
threshold=2400.7300000000005 171493.50000000003 15480.700000000003 3240.4200000000005 1662.8600000000004 0.74705100000000013 -0.35578755504920528 -0.044971505300017131 -0.017707912777460564 1565.3700000000001 0.83980200000000005 127363.50000000001 586345.00000000012 522.44150000000013 223110.00000000003 0.63685700000000012 0.61864950000000019 0.67910900000000007 0.67528400000000011 43909.850000000006 1029225.0000000001 1244736.0000000002 119338.50000000001 0.25126205963268361 0.11062808436123166 0.35357960511209691 0.13861250791581115 0.70132900000000009 725056.00000000012 2.0453022627241193 803.57200000000012 0.6048420000000001 58458.400000000001 60421.900000000001 0.61312100000000014 -0.51118264205624964 0.88816150000000016 0.087624898132732873 -0.58243642742018698 2019.1400000000001 636318.50000000012 0.80568700000000015 1098.7400000000002 0.49466250000000006 2917.6150000000002 0.54893700000000012 -0.36276219259473752 796128.00000000012 101548.50000000001 0.31666780614613449 0.76421950000000016 673760.00000000012 748364.00000000012 66795.200000000026 856704.00000000012 0.79613500000000015 0.90082450000000014 0.48495050000000006 81648.550000000017 0.72176000000000007 4102.6400000000003 0.20587401200230357 1220736.0000000002 0.68514450000000016 84572.10000000002 57493.30000000001 1198208.0000000002 0.93741000000000019 936.40850000000012 407310.00000000006 1251136.0000000002 223110.00000000003 66795.200000000026 0.62455250000000018 144681.00000000003 119829.50000000001 0.55420150000000012 0.016062680606476743 3744.3350000000005 0.87897850000000011 919243.00000000012 61069.500000000007 4503.2600000000011
decision_type=2 2 2 2 2 2 2 2 2 2 2 2 2 2 2 2 2 2 2 2 2 2 2 2 2 2 2 2 2 2 2 2 2 2 2 2 2 2 2 2 2 2 2 2 2 2 2 2 2 2 2 2 2 2 2 2 2 2 2 2 2 2 2 2 2 2 2 2 2 2 2 2 2 2 2 2 2 2 2 2 2 2 2
left_child=1 2 46 17 5 6 21 18 14 -10 11 12 53 16 -3 42 -14 24 19 -6 30 33 23 27 59 44 -17 -23 -9 32 -15 -29 -30 34 36 39 -4 -35 -39 -21 -40 -32 64 -44 45 -26 -1 -37 -49 -25 -19 -7 55 -8 -55 56 -53 -34 68 -2 61 69 -63 -22 72 -65 -67 71 -54 -5 74 75 79 -16 78 77 -77 80 -71 -12 81 -62 -83
right_child=3 8 4 60 7 51 10 28 9 -11 15 -13 13 20 73 26 -18 50 -20 35 63 22 -24 49 25 -27 -28 31 29 -31 41 -33 57 37 -36 47 -38 38 40 -41 -42 -43 43 -45 -46 -47 -48 48 -50 -51 -52 52 58 54 -56 -57 -58 -59 -60 -61 67 62 -64 65 -66 66 -68 -69 -70 70 -72 -73 -74 -75 -76 76 -78 -79 -80 -81 -82 82 -84
leaf_value=-0.017627472779898089 -0.019485512681689184 -0.0071660085931086392 0.0039345441632998744 -0.01557315879107752 0.0085284266758791031 0.019533086168996044 0.019539878819177372 0.015804136066081286 0.0050408839960932065 -0.013971812920135452 0.019649123743749292 -0.0012707290778191777 0.0063871796355476039 0.013600962080897987 -0.019494966060093363 0.012745712139192733 -0.0067231937528128448 0.00074274830514472134 -0.0097290977079950332 6.7370155511747279e-05 0.01781635818713399 -0.0051704211959845148 -0.0052347110723395575 0.015745714517668281 -0.0014351172149376335 -0.00082101549395619477 -0.00019012815544048258 0.0086234838612004802 0.0015634151223433322 -0.0029487482275358579 0.0074549567432183189 -0.0013867614746651445 0.0077177133257463615 0.0039803808007935343 0.013010923837479203 0.0071239957898393963 -0.0061308138299086372 0.0056465549847574716 0.017642920157752803 -0.011073523696008626 0.0087112798192759341 -0.0029956680222943607 0.0058432621529373686 0.017745954861914642 -0.015666620196576064 -0.014412345326668475 -0.0066423067858194986 0.0039233759977749917 -0.0077366100929052856 0.0057695480826551147 -0.0075174892657130067 0.016104629636717195 0.015923936440138987 0.017506893418001036 0.0077306405308872781 0.0063339490442564927 0.007774723430267581 0.016075541293057258 0.019491260750734787 -0.012938367165508063 -0.019444608940550282 -0.0084058757845267302 -0.018127371994550251 0.015228808777091681 0.014377889354257845 0.014649051844708827 0.006426904863404569 -0.015576313940886389 0.011506848792953262 -0.019536795194588938 -0.017335163699119013 -0.017381206201165029 0.017513436259246701 -0.017483792512313436 -0.019369575249333758 -0.019365913565040482 -0.019518358807580908 -0.01965038031233508 -0.019662020622512058 0.019541181767725398 -0.019597258637798428 -0.019488575788115251 -0.019618025216750649
leaf_weight=4.9979262799024582 5.4957873970270148 9.4957225173711794 8.7487727552652377 4.9971227198839179 6.9983183890581122 7.9951160401105872 6.745455831289294 5.247654780745509 8.7464619874954206 5.2464637011289588 5.4978923648595863 8.4976196289062482 9.7459331899881345 4.9975717067718533 6.9949487596750242 5.7475032806396467 5.9991675466299048 6.7493187636136991 5.997791498899459 4.9990548789501172 5.2483914643526104 6.7486353814601925 7.4979820102453223 4.9985691457986814 6.4990721642971092 6.2491909414529792 4.9984244704246521 9.7482425719499606 5.4986533373594311 5.2489614039659491 6.4986108392477018 6.9994426369667044 4.9985486567020398 8.7474024444818479 5.9974492192268363 6.2491316497325959 5.7492503225803366 7.7470054626464835 9.7464001476764732 5.7480846792459488 7.2477907240390769 5.2489576041698456 6.4975923746824247 5.2478477358818054 7.7448262870311728 5.747366651892662 5.248509079217909 7.499065160751341 5.7489626854658127 4.9988067597150803 6.4983164966106415 8.7445729374885577 5.4963489323854464 4.9964932501316053 4.9981191009283066 5.9972580373287192 4.9989209324121466 5.497832328081131 9.4931321591138822 8.9954013377428037 4.995655804872519 8.7484618574380892 7.493744120001792 6.7472595125436809 9.4954116940498334 5.9977440237998945 6.7478653490543365 4.9971250891685477 4.9964523017406464 7.2453152835369163 8.9943019151687604 5.242709442973136 4.9965670406818381 4.995726689696312 4.9942386895418158 7.2417277544736844 4.9963348507881165 7.7472946047782889 7.497384175658226 6.995714545249939 6.4969871640205374 5.2460408061742765 4.9978103637695312
leaf_count=20 22 38 35 20 28 32 27 21 35 21 22 34 39 20 28 23 24 27 24 20 21 27 30 20 26 25 20 39 22 21 26 28 20 35 24 25 23 31 39 23 29 21 26 21 31 23 21 30 23 20 26 35 22 20 20 24 20 22 38 36 20 35 30 27 38 24 27 20 20 29 36 21 20 20 20 29 20 31 30 28 26 21 20
internal_value=0 0.00589196 0.00738655 -0.0147421 0.00796338 0.00936451 0.00823193 0.00244495 -0.00904667 -0.00208768 0.0103783 0.00845428 0.00957146 0.00786453 -0.0135787 0.0135854 0.00139189 -0.0090023 -0.00075208 0.000693636 0.0103211 0.00525 0.00262885 0.00438921 -0.010854 -0.00833163 0.00672866 0.00167958 0.00766322 0.00565227 0.00601336 0.00443985 0.0084748 0.00724031 0.00376704 -0.00111928 -5.69147e-05 0.009366 0.0112701 -0.00589131 0.0138337 0.00278549 0.0154878 0.0111614 -0.0106794 -0.00752545 -0.0120006 0.00151114 -0.00113646 0.0107575 -0.00330912 0.0147501 0.0137875 0.0154072 0.012618 0.0110269 0.0130748 0.0120954 0.0165141 -0.0154214 -0.0177817 -0.0165861 -0.0128911 0.0132366 0.0173709 0.0120035 0.010296 -0.0189314 0.0138206 -0.0183655 -0.0188512 -0.0192884 0.0189958 -0.018657 -0.0195421 -0.0195281 -0.0194282 -0.0195695 -0.0196005 0.0195887 -0.0195407 -0.0195166 -0.0195517
internal_weight=0 390.102 354.622 155.912 344.376 274.644 226.922 69.7321 35.4793 13.9929 131.946 82.4692 73.9716 57.2315 21.4864 49.477 15.7451 53.9793 43.2404 37.2426 41.4864 94.9757 40.9917 33.4937 40.7316 26.2405 10.7459 23.4963 26.4917 21.244 16.7451 16.7477 15.995 53.9841 20.4955 30.2443 14.498 33.4886 24.7412 10.7471 16.9942 11.7476 38.731 11.7454 19.9913 12.2464 10.2464 19.4972 13.248 9.99738 13.2476 47.7218 39.7267 16.7401 9.99461 19.7408 13.7435 10.4964 19.9859 14.4912 101.932 49.9706 16.2422 24.7413 26.9856 19.4929 12.7456 51.9617 10.4928 33.7284 28.7312 46.9646 17.4902 11.9907 19.7369 41.7219 12.2381 29.4838 14.7427 12.4936 21.7365 15.2395 10.2439
internal_count=2185 1561 1419 624 1378 1099 908 279 142 56 528 330 296 229 86 198 63 216 173 149 166 380 164 134 163 105 43 94 106 85 67 67 64 216 82 121 58 134 99 43 68 47 155 47 80 49 41 78 53 40 53 191 159 67 40 79 55 42 80 58 408 200 65 99 108 78 51 208 42 135 115 188 70 48 79 167 49 118 59 50 87 61 41
is_linear=0
shrinkage=0.01


Tree=5
num_leaves=85
num_cat=0
split_feature=1 10 1 7 5 4 3 1 4 5 2 5 1 9 5 1 10 8 8 8 7 7 10 9 4 4 1 5 3 3 7 10 1 5 6 10 8 5 3 6 4 5 1 4 2 3 10 9 3 9 8 2 2 10 8 2 9 4 10 9 9 6 6 9 10 4 2 5 1 4 4 1 1 1 4 7 1 3 3 8 9 7 9 1
split_gain=108.984 41.273 31.3257 17.239 20.1282 13.7014 13.2724 12.4319 11.7892 9.13374 8.76033 8.1668 7.90321 7.80642 7.30534 6.89931 8.02526 6.96969 6.55765 8.01418 6.34409 10.6649 6.2787 7.20916 5.81637 5.73033 5.50995 7.1958 9.03537 7.61383 7.11671 5.66372 5.44178 5.32023 4.91583 4.77531 5.59177 4.63825 4.62621 4.60246 9.12358 4.58526 4.48446 4.47275 4.39724 4.38791 4.17339 5.63037 4.17199 4.07056 4.50072 4.83838 4.16876 4.03546 4.02566 3.91086 3.90105 3.61394 3.41834 3.31972 3.68097 3.83609 5.1363 3.15849 3.15067 3.08908 3.0657 2.9403 2.87669 2.76752 5.47459 2.6408 2.24404 3.0004 2.23264 1.81776 1.8724 1.53766 1.07582 0.936786 0.86287 0.407438 0.00104076 0.000256309
threshold=171493.50000000003 -0.057000660578821798 15480.700000000003 0.61312100000000014 1238432.0000000002 0.39788637779845193 0.14129064701960872 93937.200000000012 0.27180556440618914 1021920.0000000001 1604815.0000000002 984480.00000000012 27107.350000000002 0.51832700000000009 1319488.0000000002 50040.900000000009 -0.51118264205624964 0.88521950000000016 0.64283200000000018 0.78839350000000008 0.6933760000000001 0.74794850000000013 -0.59214658584353963 0.50968650000000004 0.104654907309514 0.70138868179724334 58458.400000000001 1143456.0000000002 0.19963826123050718 0.23424762814121927 0.50787000000000015 -0.58805464799025831 98936.450000000012 676512.00000000012 0.78772400000000009 -0.44545567587114515 0.76826050000000012 942464.00000000012 -0.0027048945029148333 0.84703850000000014 0.75423119984297615 721408.00000000012 107140.00000000001 0.67021577012251055 708886.50000000012 0.074020925719732775 2.0453022627241193 0.59416500000000017 0.079660401409132955 0.5130205000000001 0.65340900000000013 1012790.0000000001 658783.50000000012 -0.49938667002991249 0.77649500000000005 802694.50000000012 0.5546175000000001 0.6914520270245138 0.30064690267540145 0.54511450000000006 0.70591400000000004 0.78772400000000009 0.87897850000000011 0.54026300000000005 0.48525556927195607 0.51525322374012339 1291850.0000000002 682048.00000000012 84164.85000000002 0.79693200158792388 0.32574728874917752 63969.900000000009 128155.50000000001 61069.500000000007 0.44405420294157832 0.56247900000000006 213891.00000000003 0.20587401200230357 0.17522950721016586 0.74674400000000019 0.52573000000000014 0.62455250000000018 0.48085600000000006 283999.00000000006
decision_type=2 2 2 2 2 2 2 2 2 2 2 2 2 2 2 2 2 2 2 2 2 2 2 2 2 2 2 2 2 2 2 2 2 2 2 2 2 2 2 2 2 2 2 2 2 2 2 2 2 2 2 2 2 2 2 2 2 2 2 2 2 2 2 2 2 2 2 2 2 2 2 2 2 2 2 2 2 2 2 2 2 2 2 2
left_child=1 2 81 6 20 9 13 10 24 -2 12 43 56 18 25 16 63 26 -4 45 32 44 23 -6 48 -13 -17 28 -28 30 66 -31 55 -23 -11 36 -35 77 -15 42 -41 -40 69 74 -22 68 49 65 -9 50 -14 52 -52 -47 -44 67 -3 59 75 -51 61 -61 -63 -8 -53 -48 -29 -5 -20 70 -24 -54 73 -43 -10 82 -77 -37 -78 -18 -30 -1 -7 -84
right_child=5 7 3 4 22 58 15 8 11 34 -12 14 46 38 -16 17 79 -19 19 -21 21 33 39 -25 -26 -27 27 29 80 31 -32 -33 -34 35 -36 37 -38 -39 41 40 -42 72 54 -45 -46 53 47 -49 -50 57 51 64 71 -55 -56 -57 -58 -59 -60 60 -62 62 -64 -65 -66 -67 -68 -69 -70 -71 -72 -73 -74 -75 -76 76 78 -79 -80 -81 -82 -83 83 -85
leaf_value=-0.019433977305728375 0.0023728502277785453 0.0059173913302675452 -0.012317763291419283 0.0097466034080249484 -0.016230736248964171 -0.019434468113242315 0.0040400895254320739 -0.0070676118754901271 0.011698583812105895 -0.0036050534414801805 -0.0023416872011885505 0.0014970100148340726 0.01519649253528119 0.00015811916248781852 0.0094661633555710011 -0.0094660101783319 0.0077970090320697051 -0.010835592213487026 -0.0070438405636716276 -0.010471822714370397 -0.011848542809210934 0.012935416068525146 0.0016289840986744492 3.3498530948548382e-05 -0.011548477107314822 -0.011795415054431846 0.012536418049126447 -0.014365644417869281 -0.0039344544292252868 -0.0023047950709736325 0.002184400205635964 0.0095181777573626579 0.0031711479957706092 0.0055912530193759557 -0.016593679065508349 -0.0001602480335088973 -0.0066039473842324815 0.014749060719935446 -0.016203413608209771 -0.013636128325161789 0.0031218991335777782 -0.010841846490927716 0.0027701621974552913 0.017641942659863664 0.00073559699795817252 5.0920397710388453e-05 0.0042873035571957801 -0.0041016090931251508 0.0043238499660410478 0.017696096247563072 0.0086957569583012966 0.016268720768146443 -0.0056209772216907969 0.011230346977943092 -0.0097701934139816024 0.0063784041929649425 -0.0049854381596770381 0.018240250209490584 -0.0095854157290335747 0.013144645719968246 0.016128368020642408 -0.0041570537591077757 0.0095717626372262572 -0.0064838625432537969 0.0056144381146562942 0.014090068159034954 -0.0047724444188080939 0.0195251944436967 0.0022160195720298038 2.4655273136440264e-05 0.015799202109959123 0.0040743143766244537 -0.01349414621385938 -0.0020201247269188401 0.002806923072715579 -0.010389264080175922 -0.019322226785540648 0.0076853512328145758 -0.013368570252266043 0.013555953078737661 0.0019418250437987276 -0.015488003372223903 -0.019311687028156183 -0.019212681971787195
leaf_weight=5.4948250800371152 8.49528616666794 7.2461983710527402 5.4949126541614524 4.9971674978733116 5.9954133778810483 5.4935536384582511 6.246230363845827 5.4961691647768038 4.9963793307542819 4.9957185089588148 8.4967804402112943 9.2443500012159365 6.9931098818778983 4.9983671158552161 6.7467307150363913 5.7478571683168402 4.9970820099115354 6.7461291849613181 6.2474310249090212 6.4962097853422156 4.997974827885626 8.9914683550596219 5.9982135444879585 4.9966184943914413 7.2455700784921637 4.9958794862031928 9.7440719157457369 7.4956240355968493 4.996902719140051 8.4956226050853747 7.2462919801473609 7.7461734116077414 8.9936772584915143 8.494189724326132 6.9922824054956436 4.9965206235647255 6.7458128929138175 6.2433470338582984 8.9927156567573565 6.4972371608018857 6.4978541135787964 6.7469025552272823 5.2483843117952329 5.4952810257673255 6.2478437572717667 5.9964063465595245 7.7452978193759936 4.9974027872085562 7.7462322264909744 5.7441481351852444 8.2433554977178627 6.243884548544882 5.4975183606147748 6.9960894137620908 4.9972354769706726 6.7450732290744773 5.9983101487159729 8.7394437193870527 7.9910867959260932 6.245042532682425 5.7457948029041281 4.9970188140869123 5.9938278794288635 5.2477755099534988 4.9968061894178391 5.4955040663480759 5.9959299117326736 7.9939657896757126 7.2462534159421921 6.9956656247377387 4.9984971433877945 5.7455710172653198 4.9941065460443488 8.9961940944194776 6.4947011470794678 6.4943132102489498 7.7395948022603971 4.9958664625883102 4.9931627959012985 6.4969855546951294 4.9985066503286362 4.9957112222909927 5.4918947070837003 4.9914540797472
leaf_count=22 34 29 22 20 24 22 25 22 20 20 34 37 28 20 27 23 20 27 25 26 20 36 24 20 29 20 39 30 20 34 29 31 36 34 28 20 27 25 36 26 26 27 21 22 25 24 31 20 31 23 33 25 22 28 20 27 24 35 32 25 23 20 24 21 20 22 24 32 29 28 20 23 20 36 26 26 31 20 20 26 20 20 22 20
internal_value=0 0.00162376 -0.000570849 2.6892e-05 0.00271216 -0.0122957 -0.00212688 0.00552398 0.00176831 -0.00555963 0.00743047 0.00506683 0.00820888 -0.00530591 0.000894654 0.000397194 0.00514374 -0.0011793 -0.00220354 -0.0005185 0.00585061 0.00375742 -0.00212203 -0.00883755 -0.00434531 -0.00316635 -0.000136464 0.000808982 0.00568414 -0.00179334 -0.00580899 0.00333392 0.00961829 0.00615141 -0.011181 0.00421347 0.000193187 0.00798718 -0.00874319 -0.000331793 -0.00525672 -0.0102397 0.00193465 0.0102216 -0.00485717 0.00192273 0.00923376 0.00494243 -0.000404099 0.0102747 0.00795581 0.00630792 0.00329409 0.00607072 -0.00334632 0.0125562 0.000979605 0.0126094 -0.0154899 0.0108964 0.00919679 0.00688607 0.00332992 -0.000764792 0.0115326 0.00835587 -0.0101022 0.0157638 -0.0020712 0.00494186 0.00806998 -0.000666379 -0.00765356 -0.00580078 0.00667306 -0.0168302 -0.0147588 0.00376229 -0.0169875 0.0110522 -0.000995843 -0.0175549 -0.019323 -0.0192645
internal_weight=0 482.192 308.565 298.075 132.668 63.6783 165.407 173.626 58.4613 20.4833 115.165 37.9733 106.668 73.2056 20.987 92.2012 22.9881 69.2131 38.4773 32.9824 80.4429 51.713 52.2251 10.992 20.488 14.2402 62.467 56.7191 19.7395 36.9796 20.7378 16.2418 28.7299 40.4672 11.988 31.4757 15.24 16.2357 34.7283 41.2331 12.9951 29.7299 28.238 16.9864 11.2458 26.4862 93.4237 18.2382 13.2424 75.1855 37.7202 30.7271 19.4864 12.9925 10.2456 19.7362 13.2445 37.4653 43.1951 28.7258 22.9817 17.2359 10.9908 11.494 11.2407 13.2408 13.4916 12.9911 13.4937 17.9924 10.9967 11.2431 20.7372 15.7431 11.4911 35.204 19.2271 9.99239 12.7328 11.4941 9.99541 10.4905 15.9769 10.4833
internal_count=2185 1930 1235 1193 531 255 662 695 234 82 461 152 427 293 84 369 92 277 154 132 322 207 209 44 82 57 250 227 79 148 83 65 115 162 48 126 61 65 139 165 52 119 113 68 45 106 374 73 53 301 151 123 78 52 41 79 53 150 173 115 92 69 44 46 45 53 54 52 54 72 44 45 83 63 46 141 77 40 51 46 40 42 64 42
is_linear=0
shrinkage=0.01


Tree=6
num_leaves=85
num_cat=1
split_feature=0 11 1 0 0 5 10 10 2 6 1 5 1 6 3 3 9 2 2 1 6 1 9 1 5 10 3 3 9 2 8 0 6 1 0 9 9 9 5 5 3 0 0 5 10 3 3 3 1 10 1 8 10 0 6 6 3 5 0 8 0 3 5 1 6 6 0 2 0 5 1 1 1 1 10 0 10 10 2 2 9 9 2 2
split_gain=462.465 154.437 36.7069 26.5888 23.3201 13.0378 8.00741 7.99157 7.07228 6.99407 9.00481 7.88155 6.19446 5.88497 5.52928 6.14608 7.38315 6.46211 5.48402 5.88785 4.63271 4.5945 4.36907 5.24797 4.36882 4.15064 4.52868 7.30527 4.08747 4.03213 4.01018 3.9239 3.38999 3.64087 3.33625 3.32854 3.41099 8.34336 3.46483 6.69022 3.17642 3.59624 3.11016 3.10701 4.95136 4.36104 2.87284 2.57098 2.19434 2.06421 1.894 1.69835 3.46967 2.31361 2.2435 1.67777 2.90708 1.61766 1.40305 2.2191 1.3813 3.21491 3.69586 1.04534 0.603783 0.588392 0.464499 0.453531 0.431672 0.295123 0.226714 0.00334583 0.00304754 0.00188857 0.00142183 0.00119793 0.000867606 0.00056251 0.000546697 0.00049212 0.000414695 0.000443675 0.000255367 0.000201636
threshold=2400.7300000000005 0 15480.700000000003 3240.4200000000005 1662.8600000000004 1263808.0000000002 -0.044971505300017131 -0.43676717539885562 423228.50000000006 0.75403650000000011 119338.50000000001 1330336.0000000002 67035.150000000009 0.90758500000000009 0.086402055281594878 0.2771271778880649 0.56970200000000004 682414.50000000012 1759320.0000000002 46147.500000000007 0.83764050000000012 98936.450000000012 0.67528400000000011 43909.850000000006 1155584.0000000002 -0.057000660578821798 0.28179330471847214 0.21923151692211426 0.48140800000000006 338315.50000000006 0.73385100000000014 493.52450000000005 0.83117250000000009 100882.00000000001 903.54400000000021 0.42317150000000003 0.69157650000000015 0.60537200000000013 1210784.0000000002 974880.00000000012 0.18556120458618555 1042.3600000000004 566.43850000000009 713248.00000000012 0.14828879874935605 0.11892629146990001 0.14847854028939009 0.14067707415876582 67035.150000000009 -0.24222602191113396 69226.500000000015 0.85306050000000011 -0.06590869214960339 332.45250000000004 0.91696850000000019 0.80416150000000008 0.024007312058933871 822112.00000000012 987.21600000000012 0.71720650000000008 4102.6400000000003 0.20587401200230357 1220736.0000000002 80826.050000000017 0.93741000000000019 0.89042750000000015 2901.3900000000008 407310.00000000006 754.90850000000012 1251136.0000000002 223110.00000000003 144681.00000000003 119338.50000000001 218459.00000000003 -0.5900209810048459 3744.3350000000005 -0.057000660578821798 0.016062680606476743 844737.00000000012 786452.50000000012 0.58531000000000011 0.50226800000000005 963704.00000000012 540116.00000000012
decision_type=2 9 2 2 2 2 2 2 2 2 2 2 2 2 2 2 2 2 2 2 2 2 2 2 2 2 2 2 2 2 2 2 2 2 2 2 2 2 2 2 2 2 2 2 2 2 2 2 2 2 2 2 2 2 2 2 2 2 2 2 2 2 2 2 2 2 2 2 2 2 2 2 2 2 2 2 2 2 2 2 2 2 2 2
left_child=1 65 -3 14 5 7 22 12 -7 31 18 -12 13 24 55 16 17 66 19 49 29 47 23 -6 30 26 27 42 -19 -9 -4 -10 46 50 -23 63 37 38 39 40 41 -37 -21 -8 -45 -46 -25 -14 -27 -11 -34 53 -53 -22 58 -2 -57 -56 80 -60 61 67 -63 -31 70 73 -16 -5 -49 71 72 75 74 79 -62 -69 -75 82 -74 -1 81 -55 83 -76
right_child=3 2 4 60 6 8 43 20 9 10 11 -13 21 -15 15 -17 -18 28 -20 25 51 34 -24 32 -26 48 -28 -29 -30 35 -32 -33 33 -35 -36 36 -38 -39 -40 -41 -42 -43 -44 44 45 -47 -48 68 -50 -51 -52 52 -54 54 57 56 -58 -59 59 -61 64 62 -64 -65 -66 -67 -68 69 -70 -71 -72 -73 78 76 77 -77 -78 -79 -80 -81 -82 -83 -84 -85
leaf_value=-0.019268385169491087 -0.017734913636402876 -0.011373851205328909 0.016219753201963342 -0.01536120203618045 0.0094630434228679013 -0.0043628935036169551 0.013971770370527581 0.016985788995294279 0.0066072990073797831 -0.0047834442269876452 -0.011870495365516917 0.0058882861052939233 0.010022908261449857 -0.0040360240966378106 -0.015799237607017153 -0.016103949720175537 0.002923352201509747 0.00265157624810149 0.016342494552331808 0.00097965532917181791 0.010279818577170552 0.010784160464421148 -0.0082517438202594582 -0.0016957658492655534 -0.00022547270184234279 0.017431189764059545 0.013223180126836548 -0.0060735281825317847 -0.0094837613418648024 0.011414391295148117 0.0057188910562057486 0.017487896804599924 -0.0039449732959650416 -0.0091085022077433027 0.0013798085234280578 0.019526802651489233 0.014488795754151318 -0.0014727298151942108 0.016355629633489414 0.00027318547226847249 0.0050126652829442014 0.0088991049895197245 0.010527781653965024 0.013099261816787609 -0.0026031685624007313 0.0079246296398124156 0.0080415863813546977 0.015357775646823968 0.0091668056439259942 0.0038917860962143559 0.004656011485983564 0.0050270413430558835 0.016028684145124639 0.019311197112855422 0.016409207801855005 -0.0063317709272531705 -0.01617966039611643 0.0097351959486455617 0.0099053518026797488 0.018178943451718152 -0.019224077351184938 -0.0083114192300628165 -0.017883201216709891 0.01773479097264621 -0.015405579872601867 -0.015531813146280349 -0.01153853040879651 -0.019294969903693501 0.019419875043511274 -0.017124585663626016 -0.017101536273380003 -0.019087066179710666 -0.019234763817777986 -0.019094313906415205 -0.019382177839250839 -0.019475338976053084 -0.019260474418150941 -0.019469423748931514 -0.019100632202986158 -0.019407092339767926 0.019365349864452822 0.019189486651700303 -0.019424376670639135 -0.019295480932774244
leaf_weight=5.2422375231981331 5.9931273311376598 9.7410194128751737 5.995153144001967 4.9936537742614737 6.7474267780780783 5.7478078603744498 5.494406312704089 8.4889027774333936 5.2478100657463065 5.248169481754303 4.9984696060419065 4.9979742765426636 8.2452996522188204 6.2484723031520835 5.2466838210821205 5.7462065517902365 8.7469161599874479 6.2468569576740247 5.997583493590354 5.2488605678081504 8.7406144440174085 8.994860500097273 5.2474797666072837 5.4987409710884112 5.9975348114967337 5.4909881502389961 6.2470342665910712 5.7484779059886923 4.9948323369026184 4.9948624670505506 9.2447641193866712 8.9965924173593503 4.9988631904125231 6.4981915205717078 6.4969369918107978 6.2445441931486183 7.9926191568374625 8.4947979897260648 6.2450552284717551 7.744679480791091 5.4961996376514426 6.4963457137346268 9.745791628956793 6.2447176575660732 7.9982656687498075 7.7447384148836136 6.7483861446380615 4.9938424974679929 7.7436172068119049 5.7454458326101285 5.248246818780899 5.4953568577766418 5.9927487522363645 6.9905666410923057 6.4937518388032904 5.9958787709474546 5.9944527149200439 8.2401074618101102 5.2445671111345282 8.4893182367086393 5.7400512695312491 8.7470244914293307 7.4865999817848197 5.4962783753871918 4.9941260367631903 5.2430962771177283 4.994380384683609 7.2392981648445183 5.4944066554307938 8.9877753108739835 5.2354584634304038 4.9879029393196097 7.2376312017440778 8.4807260632514971 5.2440577745437675 7.4939266294240952 4.9922740608453706 7.743747651576995 5.2376839220523834 4.9950791448354721 5.2433776408433905 5.2402511090040207 4.9952528774738303 5.4921816289424896
leaf_count=21 24 39 24 20 27 23 22 34 21 21 20 20 33 25 21 23 35 25 24 21 35 36 21 22 24 22 25 23 20 20 37 36 20 26 26 25 32 34 25 31 22 26 39 25 32 31 27 20 31 23 21 22 24 28 26 24 24 33 21 34 23 35 30 22 20 21 20 29 22 36 21 20 29 34 21 30 20 31 21 20 21 21 20 22
internal_value=0 0.00581892 0.00756494 -0.0145625 0.00830553 0.00957342 0.00306912 0.0110072 0.00635779 0.00711427 0.00576532 -0.00299154 0.00803001 0.00449461 -0.00888695 -0.0066237 -0.00482165 -0.0079751 0.00729526 0.00623585 0.0123797 0.0108692 0.000268869 0.0015199 0.00700449 0.00800836 0.00575898 0.00351105 -0.00274032 0.0105404 0.00984977 0.0134794 -0.000328711 -0.00325305 0.00684017 0.00961631 0.00851596 0.00734365 0.00966759 0.00806004 0.0113668 0.0141079 0.00718547 0.00724548 0.00556468 0.00257596 0.00366969 0.0142011 0.0125957 -0.000249625 0.00046018 0.0142613 0.010766 0.0149956 0.0158928 -0.0134146 -0.0112551 0.0126767 0.0174112 0.0150195 -0.0175691 -0.0163817 -0.0127257 0.0147256 -0.0187112 -0.0137978 -0.0137214 -0.0181426 0.0174858 -0.0186265 -0.019063 -0.0193109 -0.0193093 -0.0192337 -0.0193652 -0.0193867 -0.0191559 -0.0193997 -0.0191784 -0.0193361 0.0192909 0.0192591 -0.0193653 -0.0193378
internal_weight=0 389.945 360.991 155.816 351.25 282.781 68.4695 195.576 87.2046 81.4568 67.2124 9.99644 61.7113 27.4859 53.9593 35.9759 30.2297 21.4828 57.216 51.2184 133.865 34.2253 40.9873 35.7399 21.2375 40.2248 26.9902 20.7431 11.2417 67.6943 15.2399 14.2444 28.9924 16.7453 15.4918 59.2054 48.7142 40.7216 32.2268 25.9818 18.2371 12.7409 14.9947 27.4821 21.9877 15.743 12.2471 18.7335 13.2346 10.9936 10.2471 66.1707 11.4881 54.6826 45.9419 17.9835 11.9903 14.7339 31.2081 13.7339 101.856 49.9362 16.2336 10.4911 51.9202 28.9534 10.2411 33.7026 10.4882 28.7089 46.9261 19.7211 41.6906 23.7103 29.2153 14.7332 13.473 23.4752 12.4753 10.2373 17.4742 12.2308 15.7315 10.7362
internal_count=2185 1561 1445 624 1406 1132 274 783 349 326 269 40 247 110 216 144 121 86 229 205 536 137 164 143 85 161 108 83 45 271 61 57 116 67 62 237 195 163 129 104 73 51 60 110 88 63 49 75 53 44 41 265 46 219 184 72 48 59 125 55 408 200 65 42 208 116 41 135 42 115 188 79 167 95 117 59 54 94 50 41 70 49 63 43
cat_boundaries=0 1
cat_threshold=8
is_linear=0
shrinkage=0.01


Tree=7
num_leaves=87
num_cat=1
split_feature=11 10 7 5 3 2 2 8 6 6 7 6 6 3 4 9 7 10 5 3 5 6 6 4 5 10 6 5 7 4 4 4 5 2 10 6 2 2 2 6 6 3 2 10 10 10 9 3 5 5 5 2 2 6 4 10 8 10 3 4 4 4 5 3 3 4 2 10 5 10 10 3 4 2 9 10 4 2 6 10 9 9 4 7 6 2
split_gain=199.793 36.2428 20.8428 18.3256 12.6822 11.4334 9.08697 8.9466 8.29767 7.7787 7.68604 7.44937 6.56535 7.82862 7.75692 9.30737 7.14655 6.07626 9.77069 12.3209 6.82478 6.32702 6.98751 5.95506 5.35258 5.32526 5.21518 4.73836 4.45616 4.36316 4.06403 6.24699 4.75307 7.01422 4.80374 3.8222 3.80888 3.77794 6.63478 4.00808 6.89946 8.65351 3.71451 3.52789 3.88137 3.55944 3.47263 3.25215 3.23099 3.18282 6.59749 3.15084 6.64784 4.40968 3.13571 2.88527 2.75645 2.69156 2.66196 2.61646 8.1293 4.65272 4.51847 4.04786 2.91595 2.55593 2.52044 2.42509 2.2501 2.20195 4.31006 2.07258 1.95604 2.4406 1.59644 1.33151 1.31245 1.08361 0.479695 0.00162328 0.000582017 0.0013724 0.000691412 0.00041283 0.000270864 0.000212166
threshold=0 -0.057000660578821798 0.61312100000000014 1238432.0000000002 0.17021245537130247 431111.00000000006 1604815.0000000002 0.74594400000000005 0.85987400000000014 0.72141000000000011 0.63788000000000011 0.77122400000000013 0.89492550000000015 0.065158296431848631 0.54525871311821283 0.58246850000000017 0.61864950000000019 -0.50931480206026036 1143456.0000000002 0.075316368084713023 1332064.0000000002 0.81245950000000011 0.88816150000000016 0.75423119984297615 1210784.0000000002 -0.54803385885995193 0.70416600000000018 833504.00000000012 0.52382150000000005 0.44957426019104108 0.90179689912567584 0.71618244337815262 1240768.0000000002 1134170.0000000002 -0.38219434571569649 0.72141000000000011 560672.00000000012 504155.50000000006 312298.50000000006 0.88620350000000014 0.7461135000000001 0.18446816743141733 1038785.0000000001 -0.16548422931820975 -0.29861152983626194 -0.40655033906662691 0.53591850000000008 0.28936822072760332 1367552.0000000002 906880.00000000012 1062400.0000000002 580600.00000000012 161830.50000000003 0.86338450000000011 0.59510550168530907 -0.56937774960202236 0.78180800000000017 -0.37031766813820438 0.18084995850327953 0.26275133811452739 0.15708020106508339 0.58370950465586147 1178880.0000000002 0.11187708083062842 0.14847854028939009 0.75423119984297615 649977.00000000012 1.1086537217110564 819616.00000000012 0.10862216428835066 0.61526970322725827 0.024007312058933871 0.63718717950469994 771634.00000000012 0.50697550000000013 -0.37947193321961675 0.82837541235365142 1291850.0000000002 0.9111760000000001 1.3431588310401501 0.49936200000000003 0.58827300000000016 0.49928815582385139 0.55296200000000006 0.81543300000000019 623314.50000000012
decision_type=9 2 2 2 2 2 2 2 2 2 2 2 2 2 2 2 2 2 2 2 2 2 2 2 2 2 2 2 2 2 2 2 2 2 2 2 2 2 2 2 2 2 2 2 2 2 2 2 2 2 2 2 2 2 2 2 2 2 2 2 2 2 2 2 2 2 2 2 2 2 2 2 2 2 2 2 2 2 2 2 2 2 2 2 2 2
left_child=78 2 4 10 17 55 12 -8 25 -7 -4 -11 13 14 15 16 -3 21 19 36 29 35 65 -10 37 46 -15 28 -21 -20 31 32 34 -34 -13 -2 -19 38 -12 40 58 75 49 44 45 76 -5 56 51 69 -51 52 -28 59 -55 -6 -33 -38 -39 60 63 62 -61 -53 -65 -23 -41 -63 -54 -14 -71 -16 -68 -74 -24 -42 -27 -31 79 80 82 84 -1 -83 -82 -84
right_child=1 6 3 8 5 9 7 -9 23 11 24 30 42 26 71 -17 -18 18 20 27 -22 22 74 -25 -26 43 48 -29 -30 77 -32 47 33 -35 -36 -37 57 39 -40 66 41 -43 -44 -45 -46 -47 -48 -49 -50 50 -52 53 68 54 -56 -57 -58 -59 -60 61 -62 67 -64 64 -66 -67 72 -69 -70 70 -72 -73 73 -75 -76 -77 -78 -79 -80 -81 81 83 85 -85 -86 -87
leaf_value=-0.019038364822110479 -0.006784049963392727 -0.0035021860900209317 0.016279866779608018 -0.010408904894652552 -0.012231689770375139 0.012065929281897116 -0.010558395068990501 0.0060391760151307042 -0.013456467222134066 -0.009413674090306556 0.0055227123033260916 0.012187920364750001 0.0054087727725360682 0.016003889816830052 0.0109371197080849 -0.012310331088262398 0.011573295525994684 -0.011157663506895947 -0.0040372238116268321 0.010224544472226463 -0.0003352799105162587 -0.0037960701876706437 -0.013214108805114332 -0.0011390324102076943 0.014409881895479922 0.0099114906257404059 -0.00041667909724984391 0.015539357183970755 -0.002810133025116358 -0.017797089354288417 -0.0059124108921033112 0.0099043695920849242 -0.010831449767522228 0.0038768627092005156 -0.00012780540437559758 -0.017029466992017902 0.0042129290386189143 0.0037690477180002562 -0.0088476076933840745 0.012945179294936828 0.00069149311786193826 -0.01122854300436779 0.015757498991533413 -0.0040516443282367651 0.012520972189547262 -0.0037317178628248678 0.00096724526261374308 0.014430166108768586 0.013797152635255839 -0.0037208007974232861 0.010924703588568842 -0.00098261011236367313 0.016458246720997417 -0.0062627728252121154 0.0044327059701785585 -0.0025882480524504333 9.9400911038020852e-05 -0.0053988429451359045 0.013857543469137147 0.0068673691695913834 -0.0073206645881397948 0.0012328357172632649 0.019302714106937794 0.015440399919456615 0.0058620329191821667 0.0059834752651749127 0.0014376803279165396 0.0088004490532606287 0.008868741753395578 0.019214800038009971 0.0076811420872055529 0.0026189000138487147 0.0049570106476401745 0.013008554344516287 -0.0056297863166176335 0.0077504237462570034 0.0027504978174554473 -0.011427264373913353 -0.016115167524487078 -0.019146041257922602 -0.019034851896116582 -0.018878930407700112 -0.018948513565255048 -0.018988127971109464 -0.019131542786474109 -0.018871615773582623
leaf_weight=4.9865296036005047 6.2438521087169638 8.4926816076040286 6.7375734299421302 5.4928327947854942 6.7451136112213135 7.7453648597002021 6.494159519672392 6.496438205242157 8.2413739413022977 5.74575151503086 7.7409366816282255 5.2471600025892213 4.9917412251234117 5.7421283125877371 6.9883984029293043 6.7416431307792655 4.9933741837739936 5.9928094893693951 5.7447837889194551 5.2436516135930997 9.2421837002038938 4.9957576841115969 6.2446442395448667 7.4943091571331015 5.7448338717222205 4.9972157478332502 5.493771210312846 4.9935499280691138 5.2474209815263748 5.7432440966367704 4.9963212609291068 5.9959395974874514 6.7443495243787748 6.2441222816705704 7.9892333745956483 8.7358502149581891 4.9945620298385611 4.9948877543211001 5.4925560653209686 7.738787546753886 5.7441037744283703 5.7463513016700736 8.7312467992305738 4.996919319033629 5.4973362684249887 5.4959203749895105 5.2460078001022339 5.7455449700355521 5.2437696307897559 5.4931543469428998 6.9898442775011063 5.2455305457115236 7.2368654757738105 5.7449236512184125 5.2426887154579163 5.7452403604984266 5.4946973621845245 6.9917466342449179 5.4903624653816223 6.244176387786867 5.4958777129650107 9.7402984052896517 5.491923913359642 4.9934368729591361 8.7436066269874555 5.7465805262327194 5.9933182597160366 7.4915081262588492 8.4882261008024198 6.2377155721187574 6.7420001626014709 5.2423598021268845 9.4896748512983304 6.2405444979667655 4.995602160692215 4.9966716170310965 5.2463613301515579 4.9919815510511398 6.4874935597181311 6.4860790073871604 5.2361558973789233 5.9784067422151557 5.9810543656349173 8.2257422804832441 6.485935240983963 8.9673676341772062
leaf_count=20 25 34 27 22 27 31 26 26 33 23 31 21 20 23 28 27 20 24 23 21 37 20 25 30 23 20 22 20 21 23 20 24 27 25 32 35 20 20 22 31 23 23 35 20 22 22 21 23 21 22 28 21 29 23 21 23 22 28 22 25 22 39 22 20 35 23 24 30 34 25 27 21 38 25 20 20 21 20 26 26 21 24 24 33 26 36
internal_value=0 0.00221258 0.000155851 0.0030938 -0.00216677 0.000932049 0.00580023 -0.00225815 -0.00150829 0.00269183 0.00604652 0.00135232 0.00642229 0.00533408 0.00108499 -0.00271633 0.00207969 -0.0045659 -0.00257927 0.00098295 -0.00721359 -0.007747 -0.00433167 -0.00759014 0.00513225 0.00108017 0.00676124 0.0075213 0.00370486 -0.011071 0.00262888 0.00361079 0.000537178 -0.00376053 0.00475438 -0.012759 -0.00464825 0.00436722 -0.000441683 0.00549487 0.00270959 -0.00132375 0.0100074 0.00350834 0.00528717 0.00276062 -0.00485157 0.0082873 0.00617736 0.00835887 0.00447994 0.00571087 0.00905312 0.00461023 -0.00115947 -0.00779596 0.00521574 -0.00139372 0.00905166 0.00579637 0.00338944 0.00783028 0.0126865 0.00649025 0.00934378 0.00143547 0.00804476 0.00452285 0.0123615 0.0110532 0.0132239 0.00737176 0.00629904 0.00815125 -0.00984334 0.00397535 0.00624391 -0.0148351 -0.0159663 -0.018998 -0.018977 -0.0190083 -0.0189364 -0.0189422 -0.0190884 -0.0189024
internal_weight=0 486.719 305.446 134.859 170.587 74.4388 181.273 12.9906 52.7083 61.9485 82.1506 54.2031 168.283 129.097 32.4585 20.2277 13.4861 96.1482 59.1859 33.4637 25.7222 36.9623 21.9826 15.7357 75.413 36.9726 96.6387 15.4846 10.4911 16.48 48.4574 43.461 26.2249 12.9885 13.2364 14.9797 17.9791 69.6682 13.2335 56.4347 26.9724 16.4871 39.1857 26.2338 21.2368 15.7395 10.7388 17.2362 90.8966 30.4545 12.483 85.6528 21.2189 64.434 10.9876 12.4904 11.4906 11.9863 10.4853 53.4464 24.4785 28.9679 11.7361 18.9826 13.737 10.7423 29.4623 17.2318 15.7251 17.9715 12.9797 12.2308 21.7235 15.7302 11.2402 10.7408 10.2436 10.7352 58.8348 52.3473 45.8612 25.9262 19.935 14.2041 11.7221 14.9484
internal_count=2185 1949 1223 540 683 298 726 52 211 248 329 217 674 517 130 81 54 385 237 134 103 148 88 63 302 148 387 62 42 66 194 174 105 52 53 60 72 279 53 226 108 66 157 105 85 63 43 69 364 122 50 343 85 258 44 50 46 48 42 214 98 116 47 76 55 43 118 69 63 72 52 49 87 63 45 43 41 43 236 210 184 104 80 57 47 60
cat_boundaries=0 1
cat_threshold=8
is_linear=0
shrinkage=0.01


end of trees

feature_importances:
pre_skeletal_distance_to_soma=83
nuclues_dist=76
fw_similarity=72
post_nucleus_x=67
post_skeletal_distance_to_soma=64
pre_oracle=56
adp_dist=52
post_oracle=51
post_test_score=51
pre_test_score=46
me_similarity=44
compartment=5

parameters:
[boosting: gbdt]
[objective: binary]
[metric: binary_logloss]
[tree_learner: serial]
[device_type: cpu]
[data: ]
[valid: ]
[num_iterations: 2000]
[learning_rate: 0.01]
[num_leaves: 100]
[num_threads: -1]
[deterministic: 0]
[force_col_wise: 0]
[force_row_wise: 0]
[histogram_pool_size: -1]
[max_depth: 20]
[min_data_in_leaf: 20]
[min_sum_hessian_in_leaf: 0.001]
[bagging_fraction: 0.9]
[pos_bagging_fraction: 1]
[neg_bagging_fraction: 1]
[bagging_freq: 0]
[bagging_seed: 7615]
[feature_fraction: 0.8]
[feature_fraction_bynode: 1]
[feature_fraction_seed: 21677]
[extra_trees: 0]
[extra_seed: 32374]
[early_stopping_round: 10]
[first_metric_only: 0]
[max_delta_step: 0]
[lambda_l1: 0]
[lambda_l2: 0]
[linear_lambda: 0]
[min_gain_to_split: 0]
[drop_rate: 0.1]
[max_drop: 50]
[skip_drop: 0.5]
[xgboost_dart_mode: 0]
[uniform_drop: 0]
[drop_seed: 27260]
[top_rate: 0.2]
[other_rate: 0.1]
[min_data_per_group: 100]
[max_cat_threshold: 32]
[cat_l2: 10]
[cat_smooth: 10]
[max_cat_to_onehot: 4]
[top_k: 20]
[monotone_constraints: ]
[monotone_constraints_method: basic]
[monotone_penalty: 0]
[feature_contri: ]
[forcedsplits_filename: ]
[refit_decay_rate: 0.9]
[cegb_tradeoff: 1]
[cegb_penalty_split: 0]
[cegb_penalty_feature_lazy: ]
[cegb_penalty_feature_coupled: ]
[path_smooth: 0]
[interaction_constraints: ]
[verbosity: -1]
[saved_feature_importance_type: 0]
[linear_tree: 0]
[max_bin: 255]
[max_bin_by_feature: ]
[min_data_in_bin: 3]
[bin_construct_sample_cnt: 200000]
[data_random_seed: 1064]
[is_enable_sparse: 1]
[enable_bundle: 1]
[use_missing: 1]
[zero_as_missing: 0]
[feature_pre_filter: 1]
[pre_partition: 0]
[two_round: 0]
[header: 0]
[label_column: ]
[weight_column: ]
[group_column: ]
[ignore_column: ]
[categorical_feature: 11]
[forcedbins_filename: ]
[precise_float_parser: 0]
[objective_seed: 3599]
[num_class: 1]
[is_unbalance: 0]
[scale_pos_weight: 1]
[sigmoid: 1]
[boost_from_average: 1]
[reg_sqrt: 0]
[alpha: 0.9]
[fair_c: 1]
[poisson_max_delta_step: 0.7]
[tweedie_variance_power: 1.5]
[lambdarank_truncation_level: 30]
[lambdarank_norm: 1]
[label_gain: ]
[eval_at: ]
[multi_error_top_k: 1]
[auc_mu_weights: ]
[num_machines: 1]
[local_listen_port: 12400]
[time_out: 120]
[machine_list_filename: ]
[machines: ]
[gpu_platform_id: -1]
[gpu_device_id: -1]
[gpu_use_dp: 0]
[num_gpu: 1]

end of parameters

pandas_categorical:[["apical", "apical_shaft", "apical_tuft", "axon", "basal", "oblique", "soma"]]
